{"learner":{"attributes":{"scikit_learn":"{\"_estimator_type\": \"classifier\"}"},"feature_names":[],"feature_types":[],"gradient_booster":{"model":{"cats":{"enc":[],"feature_segments":[],"sorted_idx":[]},"gbtree_model_param":{"num_parallel_tree":"1","num_trees":"1200"},"iteration_indptr":[0,4,8,12,16,20,24,28,32,36,40,44,48,52,56,60,64,68,72,76,80,84,88,92,96,100,104,108,112,116,120,124,128,132,136,140,144,148,152,156,160,164,168,172,176,180,184,188,192,196,200,204,208,212,216,220,224,228,232,236,240,244,248,252,256,260,264,268,272,276,280,284,288,292,296,300,304,308,312,316,320,324,328,332,336,340,344,348,352,356,360,364,368,372,376,380,384,388,392,396,400,404,408,412,416,420,424,428,432,436,440,444,448,452,456,460,464,468,472,476,480,484,488,492,496,500,504,508,512,516,520,524,528,532,536,540,544,548,552,556,560,564,568,572,576,580,584,588,592,596,600,604,608,612,616,620,624,628,632,636,640,644,648,652,656,660,664,668,672,676,680,684,688,692,696,700,704,708,712,716,720,724,728,732,736,740,744,748,752,756,760,764,768,772,776,780,784,788,792,796,800,804,808,812,816,820,824,828,832,836,840,844,848,852,856,860,864,868,872,876,880,884,888,892,896,900,904,908,912,916,920,924,928,932,936,940,944,948,952,956,960,964,968,972,976,980,984,988,992,996,1000,1004,1008,1012,1016,1020,1024,1028,1032,1036,1040,1044,1048,1052,1056,1060,1064,1068,1072,1076,1080,1084,1088,1092,1096,1100,1104,1108,1112,1116,1120,1124,1128,1132,1136,1140,1144,1148,1152,1156,1160,1164,1168,1172,1176,1180,1184,1188,1192,1196,1200],"tree_info":[0,1,2,3,0,1,2,3,0,1,2,3,0,1,2,3,0,1,2,3,0,1,2,3,0,1,2,3,0,1,2,3,0,1,2,3,0,1,2,3,0,1,2,3,0,1,2,3,0,1,2,3,0,1,2,3,0,1,2,3,0,1,2,3,0,1,2,3,0,1,2,3,0,1,2,3,0,1,2,3,0,1,2,3,0,1,2,3,0,1,2,3,0,1,2,3,0,1,2,3,0,1,2,3,0,1,2,3,0,1,2,3,0,1,2,3,0,1,2,3,0,1,2,3,0,1,2,3,0,1,2,3,0,1,2,3,0,1,2,3,0,1,2,3,0,1,2,3,0,1,2,3,0,1,2,3,0,1,2,3,0,1,2,3,0,1,2,3,0,1,2,3,0,1,2,3,0,1,2,3,0,1,2,3,0,1,2,3,0,1,2,3,0,1,2,3,0,1,2,3,0,1,2,3,0,1,2,3,0,1,2,3,0,1,2,3,0,1,2,3,0,1,2,3,0,1,2,3,0,1,2,3,0,1,2,3,0,1,2,3,0,1,2,3,0,1,2,3,0,1,2,3,0,1,2,3,0,1,2,3,0,1,2,3,0,1,2,3,0,1,2,3,0,1,2,3,0,1,2,3,0,1,2,3,0,1,2,3,0,1,2,3,0,1,2,3,0,1,2,3,0,1,2,3,0,1,2,3,0,1,2,3,0,1,2,3,0,1,2,3,0,1,2,3,0,1,2,3,0,1,2,3,0,1,2,3,0,1,2,3,0,1,2,3,0,1,2,3,0,1,2,3,0,1,2,3,0,1,2,3,0,1,2,3,0,1,2,3,0,1,2,3,0,1,2,3,0,1,2,3,0,1,2,3,0,1,2,3,0,1,2,3,0,1,2,3,0,1,2,3,0,1,2,3,0,1,2,3,0,1,2,3,0,1,2,3,0,1,2,3,0,1,2,3,0,1,2,3,0,1,2,3,0,1,2,3,0,1,2,3,0,1,2,3,0,1,2,3,0,1,2,3,0,1,2,3,0,1,2,3,0,1,2,3,0,1,2,3,0,1,2,3,0,1,2,3,0,1,2,3,0,1,2,3,0,1,2,3,0,1,2,3,0,1,2,3,0,1,2,3,0,1,2,3,0,1,2,3,0,1,2,3,0,1,2,3,0,1,2,3,0,1,2,3,0,1,2,3,0,1,2,3,0,1,2,3,0,1,2,3,0,1,2,3,0,1,2,3,0,1,2,3,0,1,2,3,0,1,2,3,0,1,2,3,0,1,2,3,0,1,2,3,0,1,2,3,0,1,2,3,0,1,2,3,0,1,2,3,0,1,2,3,0,1,2,3,0,1,2,3,0,1,2,3,0,1,2,3,0,1,2,3,0,1,2,3,0,1,2,3,0,1,2,3,0,1,2,3,0,1,2,3,0,1,2,3,0,1,2,3,0,1,2,3,0,1,2,3,0,1,2,3,0,1,2,3,0,1,2,3,0,1,2,3,0,1,2,3,0,1,2,3,0,1,2,3,0,1,2,3,0,1,2,3,0,1,2,3,0,1,2,3,0,1,2,3,0,1,2,3,0,1,2,3,0,1,2,3,0,1,2,3,0,1,2,3,0,1,2,3,0,1,2,3,0,1,2,3,0,1,2,3,0,1,2,3,0,1,2,3,0,1,2,3,0,1,2,3,0,1,2,3,0,1,2,3,0,1,2,3,0,1,2,3,0,1,2,3,0,1,2,3,0,1,2,3,0,1,2,3,0,1,2,3,0,1,2,3,0,1,2,3,0,1,2,3,0,1,2,3,0,1,2,3,0,1,2,3,0,1,2,3,0,1,2,3,0,1,2,3,0,1,2,3,0,1,2,3,0,1,2,3,0,1,2,3,0,1,2,3,0,1,2,3,0,1,2,3,0,1,2,3,0,1,2,3,0,1,2,3,0,1,2,3,0,1,2,3,0,1,2,3,0,1,2,3,0,1,2,3,0,1,2,3,0,1,2,3,0,1,2,3,0,1,2,3,0,1,2,3,0,1,2,3,0,1,2,3,0,1,2,3,0,1,2,3,0,1,2,3,0,1,2,3,0,1,2,3,0,1,2,3,0,1,2,3,0,1,2,3,0,1,2,3,0,1,2,3,0,1,2,3,0,1,2,3,0,1,2,3,0,1,2,3,0,1,2,3,0,1,2,3,0,1,2,3,0,1,2,3,0,1,2,3,0,1,2,3,0,1,2,3,0,1,2,3,0,1,2,3,0,1,2,3,0,1,2,3,0,1,2,3,0,1,2,3,0,1,2,3,0,1,2,3,0,1,2,3,0,1,2,3,0,1,2,3,0,1,2,3,0,1,2,3,0,1,2,3,0,1,2,3,0,1,2,3,0,1,2,3,0,1,2,3,0,1,2,3,0,1,2,3,0,1,2,3,0,1,2,3,0,1,2,3,0,1,2,3,0,1,2,3,0,1,2,3,0,1,2,3,0,1,2,3,0,1,2,3,0,1,2,3,0,1,2,3,0,1,2,3,0,1,2,3,0,1,2,3,0,1,2,3,0,1,2,3,0,1,2,3,0,1,2,3,0,1,2,3,0,1,2,3,0,1,2,3,0,1,2,3,0,1,2,3,0,1,2,3,0,1,2,3,0,1,2,3,0,1,2,3,0,1,2,3,0,1,2,3,0,1,2,3,0,1,2,3,0,1,2,3],"trees":[{"base_weights":[-1.9405768E-4,3.9196E-2,-9.7356975E-1,-2.6745567E-1,-9.851882E-1,4.3917274E-1,-7.49987E-1,-8.161551E-1,-4.062369E-2,2.943953E-2,-8.456538E-3,-8.456538E-3,-3.3975046E-2,-6.0797192E-2,-9.007831E-1,-3.9170125E-1,5.4097044E-1,-6.1821E-1,-3.8599126E-2,3.8560736E-3,-3.1709414E-2,2.6167687E-2,7.5469087E-3,5.1742834E-3,-2.9295899E-2],"categories":[],"categories_nodes":[],"categories_segments":[],"categories_sizes":[],"default_left":[0,0,0,0,0,0,0,0,0,0,0,0,0,0,0,0,0,0,0,0,0,0,0,0,0],"id":0,"left_children":[1,-1,3,5,7,9,11,13,-1,-1,-1,-1,-1,15,17,19,21,23,-1,-1,-1,-1,-1,-1,-1],"loss_changes":[1.2478613E3,0E0,5.1204224E0,4.4196715E0,2.4873047E0,1.2173584E0,2.217679E-1,6.559059E0,0E0,0E0,0E0,0E0,0E0,2.5011127E0,1.0898514E0,1.6418967E0,5.6016803E-2,1.8014145E0,0E0,0E0,0E0,0E0,0E0,0E0,0E0],"parents":[2147483647,0,0,2,2,3,3,4,4,5,5,6,6,7,7,13,13,14,14,15,15,16,16,17,17],"right_children":[2,-1,4,6,8,10,12,14,-1,-1,-1,-1,-1,16,18,20,22,24,-1,-1,-1,-1,-1,-1,-1],"split_conditions":[8.666667E-1,3.9196E-2,3.1806627E-1,4.9E-1,2.8E-1,1E0,3.0267638E-1,4.0599254E-1,-4.062369E-2,2.943953E-2,-8.456538E-3,-8.456538E-3,-3.3975046E-2,6.4876044E-1,5.265731E-1,3.7303E-1,7.521791E-1,3.3511716E-1,-3.8599126E-2,3.8560736E-3,-3.1709414E-2,2.6167687E-2,7.5469087E-3,5.1742834E-3,-2.9295899E-2],"split_indices":[4,0,3,6,6,4,3,3,0,0,0,0,0,1,3,1,1,5,0,0,0,0,0,0,0],"split_type":[0,0,0,0,0,0,0,0,0,0,0,0,0,0,0,0,0,0,0,0,0,0,0,0,0],"sum_hessian":[1.306031E3,6.507663E2,6.5526465E2,1.0996051E1,6.442686E2,4.4983845E0,6.4976664E0,1.024632E2,5.418054E2,2.998923E0,1.4994615E0,1.4994615E0,4.998205E0,1.049623E1,9.196697E1,6.997487E0,3.4987435E0,1.899318E1,7.297379E1,3.4987435E0,3.4987435E0,1.999282E0,1.4994615E0,2.4991026E0,1.6494076E1],"tree_param":{"num_deleted":"0","num_feature":"10","num_nodes":"25","size_leaf_vector":"1"}},{"base_weights":[2.0843696E-2,8.5876244E-1,-3.566627E-1,-2.0604108E-2,2.32196E0,-4.8068598E-1,-1.1400322E-1,1.9355491E-1,1.3035134E0,-4.8880994E-1,8.137378E-3,1.1276199E0,-3.9939788E-1,1.3738522E-1,1.8003654E0,4.4967066E-3,-4.970084E-1,-1.4854791E-2,1.5453573E0,5.3095374E-2,-4.915513E-1,5.2336293E-1,-2.5267357E-1,2.6382914E0,7.5954694E-1,-2.0508137E-2,-3.4280744E-1,2.9874113E-1,2.159301E0,7.098036E-1,-1.7616056E-2,-2.0587202E-2,3.4765862E-3,4.6420693E-2,3.142484E-3,-1.6378896E-2,8.137378E-3,1.1279036E-1,2.5089283E-2,1.1901591E-2,8.828846E-2,1.1777872E-4,-1.8974634E-2,-1.4465436E-2,4.6420693E-2,1.08658396E-1,2.622735E-2,5.0676677E-2,-1.2261647E-2],"categories":[],"categories_nodes":[],"categories_segments":[],"categories_sizes":[],"default_left":[0,0,0,0,0,0,0,0,0,0,0,0,0,0,0,0,0,0,0,0,0,0,0,0,0,0,0,0,0,0,0,0,0,0,0,0,0,0,0,0,0,0,0,0,0,0,0,0,0],"id":1,"left_children":[1,3,5,-1,7,9,11,-1,13,15,-1,17,19,21,23,-1,25,-1,27,29,31,33,35,37,39,-1,41,43,45,47,-1,-1,-1,-1,-1,-1,-1,-1,-1,-1,-1,-1,-1,-1,-1,-1,-1,-1,-1],"loss_changes":[8.193768E1,1.629151E2,5.320793E0,0E0,9.401883E1,7.546654E-1,2.2322803E1,0E0,1.6689884E1,6.316166E-1,0E0,7.9614754E0,2.1497068E0,1.6101574E0,1.5801628E1,0E0,1.0357094E-1,0E0,6.5647564E0,3.3976586E0,6.1211777E-1,1.3994538E0,4.807117E-1,2.2114868E0,6.372661E0,0E0,6.2365067E-1,2.8491888E0,3.3720798E0,2.9177618E0,0E0,0E0,0E0,0E0,0E0,0E0,0E0,0E0,0E0,0E0,0E0,0E0,0E0,0E0,0E0,0E0,0E0,0E0,0E0],"parents":[2147483647,0,0,1,1,2,2,4,4,5,5,6,6,8,8,9,9,11,11,12,12,13,13,14,14,16,16,18,18,19,19,20,20,21,21,22,22,23,23,24,24,26,26,27,27,28,28,29,29],"right_children":[2,4,6,-1,8,10,12,-1,14,16,-1,18,20,22,24,-1,26,-1,28,30,32,34,36,38,40,-1,42,44,46,48,-1,-1,-1,-1,-1,-1,-1,-1,-1,-1,-1,-1,-1,-1,-1,-1,-1,-1,-1],"split_conditions":[4.9E-1,3.1806627E-1,7E-1,-2.0604108E-2,5.87897E-1,9.945529E-1,4.9615258E-1,1.9355491E-1,6E-1,1.0670326E-1,8.137378E-3,5E-1,6.079206E-1,5.675455E-1,8.681573E-1,4.4967066E-3,5E-1,-1.4854791E-2,4.4150352E-1,5.918818E-1,9.9332964E-1,8.479646E-1,7.429278E-1,9.736252E-1,7.591808E-1,-2.0508137E-2,5.3247714E-1,9.353898E-1,7.354632E-1,8.997634E-1,-1.7616056E-2,-2.0587202E-2,3.4765862E-3,4.6420693E-2,3.142484E-3,-1.6378896E-2,8.137378E-3,1.1279036E-1,2.5089283E-2,1.1901591E-2,8.828846E-2,1.1777872E-4,-1.8974634E-2,-1.4465436E-2,4.6420693E-2,1.08658396E-1,2.622735E-2,5.0676677E-2,-1.2261647E-2],"split_indices":[6,3,9,0,3,2,3,0,9,1,0,6,3,1,3,0,9,0,1,5,2,2,1,2,5,0,3,2,1,2,0,0,0,0,0,0,0,0,0,0,0,0,0,0,0,0,0,0,0],"split_type":[0,0,0,0,0,0,0,0,0,0,0,0,0,0,0,0,0,0,0,0,0,0,0,0,0,0,0,0,0,0,0,0,0,0,0,0,0,0,0,0,0,0,0,0,0,0,0,0,0],"sum_hessian":[2.5706613E2,7.94478E1,1.7761833E2,4.130889E1,3.8138905E1,1.1689327E2,6.0725063E1,9.906209E0,2.8232697E1,1.1580359E2,1.089683E0,1.0797768E1,4.9927296E1,8.816526E0,1.941617E1,1.3868693E0,1.1441672E2,2.3774903E0,8.420278E0,8.51934E0,4.1407955E1,4.25967E0,4.556856E0,9.906209E0,9.509961E0,1.0173677E2,1.2679948E1,3.2690492E0,5.151229E0,3.4671733E0,5.052167E0,3.9922024E1,1.4859314E0,1.089683E0,3.169987E0,3.4671733E0,1.089683E0,8.717464E0,1.1887451E0,8.123092E0,1.3868693E0,3.7643595E0,8.915588E0,2.179366E0,1.089683E0,3.169987E0,1.9812418E0,2.080304E0,1.3868693E0],"tree_param":{"num_deleted":"0","num_feature":"10","num_nodes":"49","size_leaf_vector":"1"}},{"base_weights":[1.4106149E-3,-5.672153E-1,6.0143805E-1,-2.2949835E-2,3.8163718E-2,1.1130215E0,6.6790245E-2,2.5083754E-2,-1.548804E-2,8.325063E-1,2.229531E0,1.6975989E0,-2.3991327E-1,1.060121E0,-3.9220864E-1,2.839898E0,8.953584E-1,2.039717E0,-1.7222881E-2,1.8956022E0,-3.622241E-1,1.3329446E0,4.897272E-1,2.5083754E-2,-4.8978683E-1,1.3382086E-1,1.6636095E0,8.731976E-2,4.332637E-2,-1.6868604E-2,2.4616623E0,-7.2670734E-4,1.0461648E-1,4.24182E-1,-5.082564E-1,1.45107135E-2,7.74391E-2,7.150199E-2,-1.4531618E-2,3.569771E-3,-2.1670036E-2,8.94438E-2,-1.4163291E-2,3.6890965E-2,-1.8712128E-2,1.1737331E-1,3.8603783E-2,8.620368E-2,-1.0174123E-2,7.795811E-3,-2.2770306E-2],"categories":[],"categories_nodes":[],"categories_segments":[],"categories_sizes":[],"default_left":[0,0,0,0,0,0,0,0,0,0,0,0,0,0,0,0,0,0,0,0,0,0,0,0,0,0,0,0,0,0,0,0,0,0,0,0,0,0,0,0,0,0,0,0,0,0,0,0,0,0,0],"id":2,"left_children":[1,3,5,-1,7,9,11,-1,-1,13,15,17,19,21,23,25,27,29,-1,31,33,35,37,-1,39,-1,41,-1,43,-1,45,-1,-1,47,49,-1,-1,-1,-1,-1,-1,-1,-1,-1,-1,-1,-1,-1,-1,-1,-1],"loss_changes":[2.0289096E2,1.2289658E0,7.9064285E1,0E0,1.293986E0,4.4432663E1,7.170376E1,0E0,0E0,3.3787544E1,2.1138412E1,1.739711E1,3.2253586E1,1.5099022E1,2.245843E0,6.027359E0,1.1522033E1,2.1519333E1,0E0,9.287279E0,1.3439232E1,3.9016968E1,3.8656216E1,0E0,6.004915E-1,0E0,9.857983E0,0E0,3.7524667E0,0E0,9.179939E0,0E0,0E0,2.236858E1,4.295988E0,0E0,0E0,0E0,0E0,0E0,0E0,0E0,0E0,0E0,0E0,0E0,0E0,0E0,0E0,0E0,0E0],"parents":[2147483647,0,0,1,1,2,2,4,4,5,5,6,6,9,9,10,10,11,11,12,12,13,13,14,14,15,15,16,16,17,17,19,19,20,20,21,21,22,22,24,24,26,26,28,28,30,30,33,33,34,34],"right_children":[2,4,6,-1,8,10,12,-1,-1,14,16,18,20,22,24,26,28,30,-1,32,34,36,38,-1,40,-1,42,-1,44,-1,46,-1,-1,48,50,-1,-1,-1,-1,-1,-1,-1,-1,-1,-1,-1,-1,-1,-1,-1,-1],"split_conditions":[8.018829E-1,6E-1,7.7487534E-1,-2.2949835E-2,8.012367E-1,8.5593736E-1,2.8E-1,2.5083754E-2,-1.548804E-2,8.933333E-1,8.468398E-1,9.2604065E-1,5.9438336E-1,8.622802E-1,4E-1,6E-1,4.9E-1,6.7346513E-1,-1.7222881E-2,5E-1,4.9E-1,4.9E-1,4.9E-1,2.5083754E-2,6.312999E-1,1.3382086E-1,3.4E-1,8.731976E-2,4.4762725E-1,-1.6868604E-2,8.503964E-1,-7.2670734E-4,1.0461648E-1,7.733516E-1,6.5090644E-1,1.45107135E-2,7.74391E-2,7.150199E-2,-1.4531618E-2,3.569771E-3,-2.1670036E-2,8.94438E-2,-1.4163291E-2,3.6890965E-2,-1.8712128E-2,1.1737331E-1,3.8603783E-2,8.620368E-2,-1.0174123E-2,7.795811E-3,-2.2770306E-2],"split_indices":[2,9,3,0,0,5,6,0,0,7,0,0,0,0,9,9,6,0,0,6,6,6,6,0,0,0,7,0,3,0,0,0,0,0,0,0,0,0,0,0,0,0,0,0,0,0,0,0,0,0,0],"split_type":[0,0,0,0,0,0,0,0,0,0,0,0,0,0,0,0,0,0,0,0,0,0,0,0,0,0,0,0,0,0,0,0,0,0,0,0,0,0,0,0,0,0,0,0,0,0,0,0,0,0,0],"sum_hessian":[5.926549E2,3.043178E2,2.8833713E2,3.0112167E2,3.196136E0,1.4679396E2,1.4154317E2,1.1414771E0,2.054659E0,1.1871362E2,2.8080338E1,2.1688066E1,1.198551E2,1.00221695E2,1.849193E1,1.849193E1,9.588408E0,1.8720224E1,2.9678407E0,5.7073855E0,1.1414771E2,6.6890564E1,3.333113E1,1.1414771E0,1.7350452E1,1.1643067E1,6.848863E0,3.196136E0,6.392272E0,2.739545E0,1.598068E1,1.8263634E0,3.8810222E0,1.7578749E1,9.656897E1,2.6253975E1,4.0636585E1,1.2784544E1,2.0546589E1,1.3697726E0,1.598068E1,5.250795E0,1.598068E0,2.054659E0,4.337613E0,1.1414771E1,4.5659084E0,4.337613E0,1.3241135E1,7.533749E0,8.903522E1],"tree_param":{"num_deleted":"0","num_feature":"10","num_nodes":"51","size_leaf_vector":"1"}},{"base_weights":[-2.8075876E-3,-7.0173305E-1,7.916612E-1,-2.8803632E-2,-1.740839E-1,-1.6862315E-1,1.2101934E0,-5.587669E-1,9.904011E-1,-4.9497724E-1,4.372524E-1,8.2429695E-1,1.4630404E0,-2.6934845E-2,1.143969E-2,1.3964435E-3,5.037615E-2,-6.707082E-1,-3.0399078E-1,9.1916904E-2,8.390086E-1,5.9078157E-2,6.494087E-1,1.3068856E0,6.3902766E-2,-2.8285284E-2,-3.7187524E-2,-2.7357938E-2,-7.7830285E-2,7.3652554E-1,-2.3052078E-1,1.1621861E0,4.1890147E-1,-1.03283964E-1,6.726659E-1,2.1421531E-1,1.3360076E0,1.8969988E-2,-1.8173141E-2,4.99053E-3,-2.567669E-2,8.635144E-3,4.6659272E-2,-1.7324148E-2,2.239958E-3,1.3964435E-3,5.0836265E-2,4.683083E-2,4.8246495E-3,1.8969988E-2,-1.9626103E-2,8.6987335E-3,2.8850777E-2,1.8969988E-2,-3.366726E-3,6.283467E-2,4.9384613E-2],"categories":[],"categories_nodes":[],"categories_segments":[],"categories_sizes":[],"default_left":[0,0,0,0,0,0,0,0,0,0,0,0,0,0,0,0,0,0,0,0,0,0,0,0,0,0,0,0,0,0,0,0,0,0,0,0,0,0,0,0,0,0,0,0,0,0,0,0,0,0,0,0,0,0,0,0,0],"id":3,"left_children":[1,3,5,-1,7,9,11,13,15,17,19,21,23,-1,-1,-1,-1,25,27,29,31,-1,33,35,-1,-1,37,-1,39,41,43,45,47,49,51,53,55,-1,-1,-1,-1,-1,-1,-1,-1,-1,-1,-1,-1,-1,-1,-1,-1,-1,-1,-1,-1],"loss_changes":[6.239814E2,5.6653137E0,2.1157748E2,0E0,1.0147928E1,3.1955761E1,3.4545044E1,1.813148E0,1.4157577E0,3.3132095E0,7.7929688E0,1.5857582E1,2.5353394E0,0E0,0E0,0E0,0E0,1.2139435E0,4.41915E0,6.743451E0,3.056406E0,0E0,2.134781E0,3.1296234E0,0E0,0E0,1.0640693E0,0E0,3.937562E0,2.1621952E0,1.2921525E0,1.6943417E0,2.7542927E0,1.2177383E0,2.3780746E0,3.4854484E-1,5.458832E-1,0E0,0E0,0E0,0E0,0E0,0E0,0E0,0E0,0E0,0E0,0E0,0E0,0E0,0E0,0E0,0E0,0E0,0E0,0E0,0E0],"parents":[2147483647,0,0,1,1,2,2,4,4,5,5,6,6,7,7,8,8,9,9,10,10,11,11,12,12,17,17,18,18,19,19,20,20,22,22,23,23,26,26,28,28,29,29,30,30,31,31,32,32,33,33,34,34,35,35,36,36],"right_children":[2,4,6,-1,8,10,12,14,16,18,20,22,24,-1,-1,-1,-1,26,28,30,32,-1,34,36,-1,-1,38,-1,40,42,44,46,48,50,52,54,56,-1,-1,-1,-1,-1,-1,-1,-1,-1,-1,-1,-1,-1,-1,-1,-1,-1,-1,-1,-1],"split_conditions":[5.9438336E-1,5.3642327E-1,4.9E-1,-2.8803632E-2,8.933333E-1,8.8133675E-1,8.012367E-1,8.194613E-1,5E-1,2.8E-1,2.8E-1,5E-1,8.987072E-1,-2.6934845E-2,1.143969E-2,1.3964435E-3,5.037615E-2,8.503964E-1,7.777283E-1,7E-1,9E-1,5.9078157E-2,8.053779E-1,1.5460569E-1,6.3902766E-2,-2.8285284E-2,8.6720455E-1,-2.7357938E-2,1E0,5.440525E-1,9.2811334E-1,4E-1,3.5169166E-1,7.098429E-1,2.7053282E-1,8.6851096E-1,5E-1,1.8969988E-2,-1.8173141E-2,4.99053E-3,-2.567669E-2,8.635144E-3,4.6659272E-2,-1.7324148E-2,2.239958E-3,1.3964435E-3,5.0836265E-2,4.683083E-2,4.8246495E-3,1.8969988E-2,-1.9626103E-2,8.6987335E-3,2.8850777E-2,1.8969988E-2,-3.366726E-3,6.283467E-2,4.9384613E-2],"split_indices":[0,0,6,0,7,0,0,5,9,6,6,6,0,0,0,0,0,0,0,9,9,0,2,5,0,0,2,0,5,5,2,9,5,0,5,2,6,0,0,0,0,0,0,0,0,0,0,0,0,0,0,0,0,0,0,0,0],"split_type":[0,0,0,0,0,0,0,0,0,0,0,0,0,0,0,0,0,0,0,0,0,0,0,0,0,0,0,0,0,0,0,0,0,0,0,0,0,0,0,0,0,0,0,0,0,0,0,0,0,0,0,0,0,0,0,0,0],"sum_hessian":[1.1217346E3,5.9681213E2,5.249224E2,5.7639374E2,2.0418377E1,1.5951857E2,3.6540387E2,1.5739165E1,4.6792116E0,1.0379342E2,5.5725155E1,1.463317E2,2.1907217E2,1.4037634E1,1.7015314E0,1.2761486E0,3.4030628E0,5.2747475E1,5.1045944E1,3.0627565E1,2.5097588E1,2.9351418E1,1.16980286E2,1.0634571E2,1.12726456E2,4.9769794E1,2.97768E0,1.8291462E1,3.275448E1,9.783806E0,2.084376E1,1.3186869E1,1.191072E1,3.4030628E0,1.13577225E2,2.97768E0,1.03368034E2,1.2761486E0,1.7015314E0,2.4672205E1,8.082274E0,5.104594E0,4.6792116E0,1.191072E1,8.93304E0,1.2761486E0,1.191072E1,2.552297E0,9.358423E0,1.2761486E0,2.1269143E0,1.1485337E1,1.0209189E2,1.2761486E0,1.7015314E0,2.679912E1,7.656892E1],"tree_param":{"num_deleted":"0","num_feature":"10","num_nodes":"57","size_leaf_vector":"1"}},{"base_weights":[-4.366753E-3,3.7976187E-2,-9.42865E-1,-6.465447E-1,-9.624628E-1,2.5164387E-1,-8.68653E-1,-8.585642E-1,-3.918454E-2,3.2957125E-2,-2.9628474E-2,-3.736241E-1,-3.787809E-2,-2.6460746E-1,-9.4482917E-1,2.3923732E-2,-3.139465E-2,6.615559E-1,-3.5488628E-2,-4.988326E-1,-3.8680937E-2,3.1754326E-2,2.3579596E-6,-3.0937992E-2,7.801571E-3],"categories":[],"categories_nodes":[],"categories_segments":[],"categories_sizes":[],"default_left":[0,0,0,0,0,0,0,0,0,0,0,0,0,0,0,0,0,0,0,0,0,0,0,0,0],"id":4,"left_children":[1,-1,3,5,7,9,11,13,-1,-1,-1,15,-1,17,19,-1,-1,21,-1,23,-1,-1,-1,-1,-1],"loss_changes":[1.1717842E3,0E0,3.2095947E0,8.992079E0,2.5811768E-1,6.002299E0,1.0215702E0,4.6426773E0,0E0,0E0,0E0,3.065982E0,0E0,8.370937E0,3.3911896E-1,0E0,0E0,5.250099E-1,0E0,1.2940692E0,0E0,0E0,0E0,0E0,0E0],"parents":[2147483647,0,0,2,2,3,3,4,4,5,5,6,6,7,7,11,11,13,13,14,14,17,17,19,19],"right_children":[2,-1,4,6,8,10,12,14,-1,-1,-1,16,-1,18,20,-1,-1,22,-1,24,-1,-1,-1,-1,-1],"split_conditions":[8.666667E-1,3.7976187E-2,3.772786E-1,2.8E-1,2.8E-1,8.130233E-1,4.9E-1,6.7346513E-1,-3.918454E-2,3.2957125E-2,-2.9628474E-2,7.386144E-1,-3.787809E-2,7.18384E-1,4.1787553E-1,2.3923732E-2,-3.139465E-2,6.312999E-1,-3.5488628E-2,7.3234475E-1,-3.8680937E-2,3.1754326E-2,2.3579596E-6,-3.0937992E-2,7.801571E-3],"split_indices":[4,0,3,6,6,0,6,0,0,0,0,0,0,3,3,0,0,0,0,1,0,0,0,0,0],"split_type":[0,0,0,0,0,0,0,0,0,0,0,0,0,0,0,0,0,0,0,0,0,0,0,0,0],"sum_hessian":[1.307091E3,6.482647E2,6.5882623E2,4.2978462E1,6.158477E2,8.494478E0,3.4483986E1,9.449005E1,5.2135767E2,5.495176E0,2.9993026E0,5.4977136E0,2.898627E1,1.249895E1,8.1991104E1,1.4997115E0,3.9980018E0,4.999447E0,7.4995027E0,4.999586E0,7.6991516E1,3.999447E0,1E0,3.4997754E0,1.4998109E0],"tree_param":{"num_deleted":"0","num_feature":"10","num_nodes":"25","size_leaf_vector":"1"}},{"base_weights":[5.7370597E-3,-2.0908453E-2,5.2020603E-1,2.0762613E0,1.2152111E-1,2.5156856E0,-1.679169E-2,1.266543E0,-3.0527318E-1,3.3839765E0,1.0874258E0,4.5173874E-1,2.510436E0,6.248624E-2,-2.0691423E-2,3.5716865E0,2.643815E-2,-1.10122375E-1,1.7330107E-1,3.2432482E0,-1.9714013E-2,4.255529E0,-1.6995069E-2,-3.6757112E-1,1.1481936E0,1.6552988E-1,8.345982E-2,3.920148E-2,-1.812929E-2,1.7359626E-1,1.896594E-2,1.9234802E-1,6.9727756E-2,1.5845219E-2,-1.8096106E-2,1.1466991E-1,-1.7192096E-2],"categories":[],"categories_nodes":[],"categories_segments":[],"categories_sizes":[],"default_left":[0,0,0,0,0,0,0,0,0,0,0,0,0,0,0,0,0,0,0,0,0,0,0,0,0,0,0,0,0,0,0,0,0,0,0,0,0],"id":5,"left_children":[1,-1,3,5,7,9,-1,11,13,15,17,19,21,23,-1,25,-1,27,-1,29,-1,31,-1,33,35,-1,-1,-1,-1,-1,-1,-1,-1,-1,-1,-1,-1],"loss_changes":[7.138777E1,0E0,8.228517E1,3.0750793E1,5.2662197E1,2.5046356E1,0E0,2.850153E1,6.170949E0,4.76062E0,4.0237637E1,5.1399273E1,5.9964478E1,1.42814245E1,0E0,2.1417847E0,0E0,3.6043336E0,0E0,1.284354E1,0E0,1.6390381E0,0E0,1.6057067E0,2.472831E1,0E0,0E0,0E0,0E0,0E0,0E0,0E0,0E0,0E0,0E0,0E0,0E0],"parents":[2147483647,0,0,2,2,3,3,4,4,5,5,7,7,8,8,9,9,10,10,11,11,12,12,13,13,15,15,17,17,19,19,21,21,23,23,24,24],"right_children":[2,-1,4,6,8,10,-1,12,14,16,18,20,22,24,-1,26,-1,28,-1,30,-1,32,-1,34,36,-1,-1,-1,-1,-1,-1,-1,-1,-1,-1,-1,-1],"split_conditions":[3E-1,-2.0908453E-2,7.142682E-1,8.933333E-1,5.531687E-1,8.414026E-1,-1.679169E-2,3.4E-1,8.3836573E-1,8.419228E-1,3.4E-1,1.6666667E-1,8.933333E-1,3.4E-1,-2.0691423E-2,9.6666664E-1,2.643815E-2,1.6666667E-1,1.7330107E-1,8.503964E-1,-1.9714013E-2,9.2604065E-1,-1.6995069E-2,2.7053282E-1,8.5197335E-1,1.6552988E-1,8.345982E-2,3.920148E-2,-1.812929E-2,1.7359626E-1,1.896594E-2,1.9234802E-1,6.9727756E-2,1.5845219E-2,-1.8096106E-2,1.1466991E-1,-1.7192096E-2],"split_indices":[9,0,0,7,3,3,0,7,0,1,7,7,7,7,0,4,0,7,0,0,0,0,0,5,3,0,0,0,0,0,0,0,0,0,0,0,0],"split_type":[0,0,0,0,0,0,0,0,0,0,0,0,0,0,0,0,0,0,0,0,0,0,0,0,0,0,0,0,0,0,0,0,0,0,0,0,0],"sum_hessian":[2.6058002E2,1.2853568E2,1.3204434E2,2.6073294E1,1.0597105E2,2.2163582E1,3.9097116E0,2.824E1,7.773105E1,1.2932281E1,9.231302E0,1.7886635E1,1.0353364E1,2.8682789E1,4.904826E1,1.1806727E1,1.1255525E0,7.448593E0,1.7827091E0,3.90698E0,1.3979655E1,6.211031E0,4.1423326E0,2.1018599E1,7.66419E0,7.253407E0,4.553321E0,1.3387285E0,6.1098647E0,2.3922887E0,1.5146912E0,4.34115E0,1.8698814E0,1.734453E0,1.9284145E1,3.2777624E0,4.3864274E0],"tree_param":{"num_deleted":"0","num_feature":"10","num_nodes":"37","size_leaf_vector":"1"}},{"base_weights":[-3.994969E-3,-5.6440616E-1,5.4251635E-1,-2.2844343E-2,7.2812326E-2,9.7408867E-1,6.621182E-2,2.4899585E-2,-1.4861956E-2,1.3950758E0,5.066281E-1,1.573035E0,-2.1481878E-1,1.8970685E0,2.8917068E-1,1.9011971E0,-1.5235308E-1,2.1062706E0,7.074279E-2,1.0310218E0,-4.2824316E-1,2.0579894E0,2.9318818E-1,1.0721582E-1,-2.8776196E-1,4.235565E-1,2.7966921E0,9.693613E-1,-2.2458652E-2,-1.6914647E-2,2.6277573E0,5.2870892E-2,-1.9013774E-2,1.3728564E0,-1.7591963E-2,2.6557487E-1,-5.5691653E-1,3.2054443E-2,9.398017E-2,4.1311167E-2,-3.2772084E-3,-1.4586781E-2,2.4630813E-2,-4.472658E-3,5.4681595E-2,5.4618022E-3,1.2057877E-1,9.247143E-2,-1.0857809E-2,1.7065242E-3,1.1738728E-1,1.0107311E-1,2.7043244E-2,8.9056954E-2,-1.5572497E-2,6.526281E-3,-2.2718191E-2],"categories":[],"categories_nodes":[],"categories_segments":[],"categories_sizes":[],"default_left":[0,0,0,0,0,0,0,0,0,0,0,0,0,0,0,0,0,0,0,0,0,0,0,0,0,0,0,0,0,0,0,0,0,0,0,0,0,0,0,0,0,0,0,0,0,0,0,0,0,0,0,0,0,0,0,0,0],"id":6,"left_children":[1,3,5,-1,7,9,11,-1,-1,13,15,17,19,21,23,25,27,29,31,33,35,37,39,-1,41,43,45,47,-1,-1,49,-1,-1,51,-1,53,55,-1,-1,-1,-1,-1,-1,-1,-1,-1,-1,-1,-1,-1,-1,-1,-1,-1,-1,-1,-1],"loss_changes":[1.8380919E2,1.3070755E0,6.239444E1,0E0,1.2012451E0,3.0649826E1,6.195666E1,0E0,0E0,4.567668E1,7.111762E1,1.8270061E1,3.3284195E1,1.4131348E1,3.8262173E1,3.1639511E1,2.498798E1,2.3446732E1,5.4501696E0,9.83408E0,9.625418E0,1.706282E1,1.8523629E0,0E0,1.8086435E0,5.4762807E0,8.432968E0,2.4949604E1,0E0,0E0,1.1124466E1,0E0,0E0,1.046442E1,0E0,2.3063204E1,8.07024E-1,0E0,0E0,0E0,0E0,0E0,0E0,0E0,0E0,0E0,0E0,0E0,0E0,0E0,0E0,0E0,0E0,0E0,0E0,0E0,0E0],"parents":[2147483647,0,0,1,1,2,2,4,4,5,5,6,6,9,9,10,10,11,11,12,12,13,13,14,14,15,15,16,16,17,17,18,18,19,19,20,20,21,21,22,22,24,24,25,25,26,26,27,27,30,30,33,33,35,35,36,36],"right_children":[2,4,6,-1,8,10,12,-1,-1,14,16,18,20,22,24,26,28,30,32,34,36,38,40,-1,42,44,46,48,-1,-1,50,-1,-1,52,-1,54,56,-1,-1,-1,-1,-1,-1,-1,-1,-1,-1,-1,-1,-1,-1,-1,-1,-1,-1,-1,-1],"split_conditions":[8.018829E-1,7.1789676E-1,7.7487534E-1,-2.2844343E-2,5.87897E-1,8.5E-1,2.8E-1,2.4899585E-2,-1.4861956E-2,3.4E-1,4.9E-1,8.622802E-1,6.5090644E-1,7.346722E-1,2E-1,5.0220716E-1,4.4762725E-1,6.400234E-1,8.841034E-1,3.4E-1,4.9E-1,6.631169E-1,7.0685035E-1,1.0721582E-1,8.335788E-1,9.2604065E-1,1.4310738E-1,9.152619E-1,-2.2458652E-2,-1.6914647E-2,8.3708405E-1,5.2870892E-2,-1.9013774E-2,9.071423E-1,-1.7591963E-2,7.733516E-1,6.581871E-1,3.2054443E-2,9.398017E-2,4.1311167E-2,-3.2772084E-3,-1.4586781E-2,2.4630813E-2,-4.472658E-3,5.4681595E-2,5.4618022E-3,1.2057877E-1,9.247143E-2,-1.0857809E-2,1.7065242E-3,1.1738728E-1,1.0107311E-1,2.7043244E-2,8.9056954E-2,-1.5572497E-2,6.526281E-3,-2.2718191E-2],"split_indices":[2,0,3,0,3,0,6,0,0,7,6,0,0,3,9,3,3,0,3,7,6,0,0,0,0,0,1,0,0,0,3,0,0,3,0,0,0,0,0,0,0,0,0,0,0,0,0,0,0,0,0,0,0,0,0,0,0],"split_type":[0,0,0,0,0,0,0,0,0,0,0,0,0,0,0,0,0,0,0,0,0,0,0,0,0,0,0,0,0,0,0,0,0,0,0,0,0,0,0,0,0,0,0,0,0,0,0,0,0,0,0,0,0,0,0,0,0],"sum_hessian":[5.981523E2,2.953044E2,3.0284787E2,2.923333E2,2.9710903E0,1.5833649E2,1.4451138E2,1.1489584E0,1.8221319E0,8.2265335E1,7.6071144E1,2.1992912E1,1.2251846E2,5.6089695E1,2.6175642E1,2.3806206E1,5.2264942E1,1.5934837E1,6.0580754E0,1.7358622E1,1.0515984E2,5.0717922E1,5.3717704E0,4.3791876E0,2.1796453E1,9.5390215E0,1.4267184E1,1.3601813E1,3.8663128E1,2.7562973E0,1.317854E1,1.4092306E0,4.6488447E0,1.413914E1,3.219482E0,1.628512E1,8.8874725E1,1.0256101E1,4.0461823E1,1.2177066E0,4.1540637E0,2.0636312E1,1.1601424E0,6.648093E0,2.890928E0,1.2027388E0,1.30644455E1,6.118787E0,7.483026E0,1.5194951E0,1.1659045E1,4.334332E0,9.804809E0,3.4764135E0,1.2808706E1,1.1337519E0,8.774097E1],"tree_param":{"num_deleted":"0","num_feature":"10","num_nodes":"57","size_leaf_vector":"1"}},{"base_weights":[6.77569E-3,-5.82557E-1,9.1567636E-1,-6.6161036E-1,6.436891E-1,5.4825026E-1,1.269002E0,-2.8373573E-2,-2.4973723E-1,1.183219E0,6.142539E-2,-1.150699E-1,8.7497187E-1,6.076367E-2,9.540916E-1,-6.07256E-1,1.3332065E0,4.7325287E-3,1.296948E0,-2.6737574E-2,5.339074E-2,-4.0420842E-1,1.3283666E0,1.2599812E0,3.2253665E-1,5.3749204E-1,5.9553884E-2,-2.8388534E-2,-2.815132E-1,1.7597666E-2,5.5883713E-2,6.184945E-1,5.7197895E-2,-8.6707756E-2,-2.7876005E-2,1.80116E-2,5.5640146E-2,-2.4499619E-1,1.4370849E0,-2.8765264E-1,5.838418E-2,-1.627497E-1,1.1309903E0,-2.6187772E-2,1.7777365E-2,-1.6876504E-2,4.446587E-2,-2.7304037E-2,2.2441067E-2,-2.0424828E-2,2.6031923E-2,4.030288E-2,6.076346E-2,-2.76386E-2,1.5484892E-2,1.2554047E-2,-2.0004496E-2,1.418644E-2,5.6642827E-2],"categories":[],"categories_nodes":[],"categories_segments":[],"categories_sizes":[],"default_left":[0,0,0,0,0,0,0,0,0,0,0,0,0,0,0,0,0,0,0,0,0,0,0,0,0,0,0,0,0,0,0,0,0,0,0,0,0,0,0,0,0,0,0,0,0,0,0,0,0,0,0,0,0,0,0,0,0,0,0],"id":7,"left_children":[1,3,5,7,9,11,13,-1,15,17,19,21,23,-1,25,27,29,-1,31,-1,-1,33,35,37,39,41,-1,-1,43,-1,-1,45,-1,47,-1,-1,-1,49,51,53,-1,55,57,-1,-1,-1,-1,-1,-1,-1,-1,-1,-1,-1,-1,-1,-1,-1,-1],"loss_changes":[6.0296625E2,6.662544E1,5.6787292E1,1.2444153E1,1.3079346E1,4.7524155E1,1.6267853E1,0E0,3.941618E1,2.4716911E0,2.058566E1,3.1044184E1,3.0801094E1,0E0,2.198243E1,1.6804066E0,1.204834E-1,0E0,8.7366104E-1,0E0,0E0,5.670088E0,5.740738E-2,2.3306595E1,4.3162632E1,2.472417E1,0E0,0E0,4.3917885E0,0E0,0E0,3.0116425E0,0E0,1.224067E1,0E0,0E0,0E0,2.693181E0,1.1884003E0,1.1405257E1,0E0,4.652974E0,6.5989304E0,0E0,0E0,0E0,0E0,0E0,0E0,0E0,0E0,0E0,0E0,0E0,0E0,0E0,0E0,0E0,0E0],"parents":[2147483647,0,0,1,1,2,2,3,3,4,4,5,5,6,6,8,8,9,9,10,10,11,11,12,12,14,14,15,15,16,16,18,18,21,21,22,22,23,23,24,24,25,25,28,28,31,31,33,33,37,37,38,38,39,39,41,41,42,42],"right_children":[2,4,6,8,10,12,14,-1,16,18,20,22,24,-1,26,28,30,-1,32,-1,-1,34,36,38,40,42,-1,-1,44,-1,-1,46,-1,48,-1,-1,-1,50,52,54,-1,56,58,-1,-1,-1,-1,-1,-1,-1,-1,-1,-1,-1,-1,-1,-1,-1,-1],"split_conditions":[5.212062E-1,8.622802E-1,8.468398E-1,6.778976E-1,8.95E-1,7.346722E-1,8.95E-1,-2.8373573E-2,8.933333E-1,8.987072E-1,8.933333E-1,8.933333E-1,8.95E-1,6.076367E-2,8.933333E-1,4.8604745E-1,7.018658E-1,4.7325287E-3,3.4946436E-1,-2.6737574E-2,5.339074E-2,8.95E-1,5.7377875E-1,6.020212E-1,8.933333E-1,8.5197335E-1,5.9553884E-2,-2.8388534E-2,8.5E-1,1.7597666E-2,5.5883713E-2,9.2604065E-1,5.7197895E-2,7.599306E-1,-2.7876005E-2,1.80116E-2,5.5640146E-2,8.194613E-1,6.631169E-1,7.777283E-1,5.838418E-2,1.6666667E-1,8.8133675E-1,-2.6187772E-2,1.7777365E-2,-1.6876504E-2,4.446587E-2,-2.7304037E-2,2.2441067E-2,-2.0424828E-2,2.6031923E-2,4.030288E-2,6.076346E-2,-2.76386E-2,1.5484892E-2,1.2554047E-2,-2.0004496E-2,1.418644E-2,5.6642827E-2],"split_indices":[3,0,0,0,8,3,8,0,7,0,7,7,8,0,7,3,0,0,3,0,0,8,0,0,7,3,0,0,0,0,0,0,0,0,0,0,0,5,0,0,0,7,0,0,0,0,0,0,0,0,0,0,0,0,0,0,0,0,0],"split_type":[0,0,0,0,0,0,0,0,0,0,0,0,0,0,0,0,0,0,0,0,0,0,0,0,0,0,0,0,0,0,0,0,0,0,0,0,0,0,0,0,0,0,0,0,0,0,0,0,0,0,0,0,0,0,0,0,0,0,0],"sum_hessian":[1.1236869E3,6.819005E2,4.417864E2,6.410349E2,4.0865616E1,2.178226E2,2.2396379E2,5.738172E2,6.721769E1,2.0675472E1,2.0190144E1,7.209697E1,1.4572563E2,1.2269791E2,1.0126589E2,5.533604E1,1.188165E1,2.1918952E0,1.8483576E1,1.3135874E1,7.0542707E0,6.0664978E1,1.1431991E1,8.512122E1,6.0604404E1,5.8048508E1,4.3217384E1,4.119883E1,1.4137212E1,1.3194389E0,1.0562211E1,3.9556193E0,1.4527957E1,2.9721012E1,3.0943964E1,1.3064494E0,1.0125542E1,8.921919E0,7.61993E1,3.9925858E1,2.067855E1,2.6962477E1,3.1086031E1,9.402108E0,4.7351036E0,1.3184766E0,2.6371427E0,1.5451939E1,1.42690735E1,7.213055E0,1.708864E0,1.4345705E1,6.18536E1,2.497458E1,1.4951277E1,1.1203998E1,1.575848E1,8.952019E0,2.2134012E1],"tree_param":{"num_deleted":"0","num_feature":"10","num_nodes":"59","size_leaf_vector":"1"}},{"base_weights":[-5.9764846E-3,3.6858585E-2,-9.108867E-1,-7.555098E-1,-3.761149E-2,-9.697E-2,-8.6203897E-1,3.182821E-1,-3.985959E-1,-6.8886656E-1,-3.6826547E-2,6.1526227E-1,-1.3277658E-2,5.3623277E-3,-5.939454E-1,-7.6988405E-1,-9.463936E-2,2.9086687E-2,7.6033454E-3,-3.2412987E-2,3.6480844E-5,-3.196066E-2,-7.758254E-3,1.3329257E-2,-2.2830417E-2],"categories":[],"categories_nodes":[],"categories_segments":[],"categories_sizes":[],"default_left":[0,0,0,0,0,0,0,0,0,0,0,0,0,0,0,0,0,0,0,0,0,0,0,0,0],"id":8,"left_children":[1,-1,3,5,-1,7,9,11,13,15,-1,17,-1,-1,19,21,23,-1,-1,-1,-1,-1,-1,-1,-1],"loss_changes":[1.0969048E3,0E0,2.3115845E0,7.657696E0,0E0,2.1924627E0,3.2878876E-1,1.6515188E0,1.1198276E0,1.2733183E0,0E0,1.2324762E-1,0E0,0E0,9.659009E-1,2.555399E-1,1.1059356E0,0E0,0E0,0E0,0E0,0E0,0E0,0E0,0E0],"parents":[2147483647,0,0,2,2,3,3,5,5,6,6,7,7,8,8,9,9,11,11,14,14,15,15,16,16],"right_children":[2,-1,4,6,-1,8,10,12,14,16,-1,18,-1,-1,20,22,24,-1,-1,-1,-1,-1,-1,-1,-1],"split_conditions":[8.666667E-1,3.6858585E-2,2.8E-1,6.7346513E-1,-3.761149E-2,9.0453225E-1,8.130233E-1,7.455881E-1,3.9183402E-1,7.489164E-1,-3.6826547E-2,4.6905068E-1,-1.3277658E-2,5.3623277E-3,8.1420124E-1,9.831428E-1,7.67896E-1,2.9086687E-2,7.6033454E-3,-3.2412987E-2,3.6480844E-5,-3.196066E-2,-7.758254E-3,1.3329257E-2,-2.2830417E-2],"split_indices":[4,0,6,0,0,2,0,5,5,1,0,1,0,0,5,2,1,0,0,0,0,0,0,0,0],"split_type":[0,0,0,0,0,0,0,0,0,0,0,0,0,0,0,0,0,0,0,0,0,0,0,0,0],"sum_hessian":[1.3050044E3,6.4446985E2,6.605345E2,1.09347565E2,5.5118695E2,1.5491688E1,9.385588E1,6.494882E0,8.996806E0,2.6962223E1,6.6893654E1,4.4954286E0,1.9994534E0,2.4983566E0,6.4984493E0,2.3467093E1,3.4951303E0,2.9965012E0,1.4989274E0,4.499529E0,1.99892E0,2.1968493E1,1.4985994E0,1.9989059E0,1.4962244E0],"tree_param":{"num_deleted":"0","num_feature":"10","num_nodes":"25","size_leaf_vector":"1"}},{"base_weights":[3.167903E-2,8.55672E-1,-3.590075E-1,-2.0507006E-2,2.0331793E0,-4.783491E-1,-1.3029936E-1,2.8072796E0,4.8844802E-1,-4.8656267E-1,5.5114212E-3,2.061206E0,-4.4477764E-1,3.1454089E0,-1.5492852E-2,1.568883E-1,-3.477314E-1,-2.079887E-2,-3.6412385E-1,1.9368312E-1,-6.661504E-2,2.5068322E-1,-2.0669572E-2,3.6812482E0,7.0204055E-1,1.727383E-2,-1.942196E-2,3.1731936E-1,-2.0177921E-2,2.7568545E-2,-1.6317448E-2,6.60922E-2,-1.6666718E-2,4.095277E-3,1.5683722E-1,1.07682034E-1,-1.6830657E-2,6.6045724E-2,-1.6174983E-2],"categories":[],"categories_nodes":[],"categories_segments":[],"categories_sizes":[],"default_left":[0,0,0,0,0,0,0,0,0,0,0,0,0,0,0,0,0,0,0,0,0,0,0,0,0,0,0,0,0,0,0,0,0,0,0,0,0,0,0],"id":9,"left_children":[1,3,5,-1,7,9,11,13,15,17,-1,19,21,23,-1,-1,25,-1,27,-1,29,31,-1,33,35,-1,-1,37,-1,-1,-1,-1,-1,-1,-1,-1,-1,-1,-1],"loss_changes":[8.346541E1,1.3538754E2,4.739767E0,0E0,5.2458527E1,6.5021324E-1,4.343981E1,3.3384064E1,4.7988796E1,2.7675056E-1,0E0,4.718903E1,2.871108E0,3.2814423E1,0E0,0E0,1.7113819E0,0E0,2.8147457E0,0E0,1.6932061E0,6.1231165E0,0E0,1.8417542E1,1.4759395E1,0E0,0E0,5.8219414E0,0E0,0E0,0E0,0E0,0E0,0E0,0E0,0E0,0E0,0E0,0E0],"parents":[2147483647,0,0,1,1,2,2,4,4,5,5,6,6,7,7,8,8,9,9,11,11,12,12,13,13,16,16,18,18,20,20,21,21,23,23,24,24,27,27],"right_children":[2,4,6,-1,8,10,12,14,16,18,-1,20,22,24,-1,-1,26,-1,28,-1,30,32,-1,34,36,-1,-1,38,-1,-1,-1,-1,-1,-1,-1,-1,-1,-1,-1],"split_conditions":[4.9E-1,8.018829E-1,7E-1,-2.0507006E-2,8.414026E-1,9.9202013E-1,6.5090644E-1,9.815166E-1,6.778976E-1,5.3642327E-1,5.5114212E-3,5.87897E-1,4.0599254E-1,9.2604065E-1,-1.5492852E-2,1.568883E-1,7.321905E-1,-2.079887E-2,6.7346513E-1,1.9368312E-1,6.6746145E-1,7.5133884E-1,-2.0669572E-2,6.020212E-1,4.2292362E-1,1.727383E-2,-1.942196E-2,4.9615258E-1,-2.0177921E-2,2.7568545E-2,-1.6317448E-2,6.60922E-2,-1.6666718E-2,4.095277E-3,1.5683722E-1,1.07682034E-1,-1.6830657E-2,6.6045724E-2,-1.6174983E-2],"split_indices":[6,2,9,0,3,2,0,5,0,0,0,3,3,0,0,0,0,0,0,0,3,0,0,0,3,0,0,3,0,0,0,0,0,0,0,0,0,0,0],"split_type":[0,0,0,0,0,0,0,0,0,0,0,0,0,0,0,0,0,0,0,0,0,0,0,0,0,0,0,0,0,0,0,0,0,0,0,0,0,0,0],"sum_hessian":[2.5731714E2,8.238005E1,1.7493709E2,3.836352E1,4.401653E1,1.1423626E2,6.0700832E1,2.8777924E1,1.52386055E1,1.1294096E2,1.2952989E0,6.920382E0,5.378045E1,2.6037418E1,2.7405052E0,2.261433E0,1.2977173E1,8.617908E1,2.676188E1,2.4468994E0,4.473483E0,4.81014E0,4.897031E1,2.0938831E1,5.0985875E0,1.62902E0,1.1348153E1,4.35445E0,2.240743E1,1.0746043E0,3.3988786E0,1.0754603E0,3.7346797E0,1.4038682E0,1.9534964E1,1.3349597E0,3.7636278E0,1.0766782E0,3.277772E0],"tree_param":{"num_deleted":"0","num_feature":"10","num_nodes":"39","size_leaf_vector":"1"}},{"base_weights":[1.684852E-2,-5.614763E-1,5.45973E-1,-2.273864E-2,1.115449E-3,9.472361E-1,8.7764345E-2,2.3936376E-2,-1.5967665E-2,1.2207265E0,4.1912502E-1,-3.241055E-1,5.596491E-1,1.1250272E0,1.00478224E-1,9.864887E-2,1.6040301E-1,-9.6957356E-2,-4.3096703E-1,1.0841302E0,-2.1891037E-2,1.5130029E0,7.409816E-1,6.606124E-1,-3.6126623E-1,-2.0340532E-2,1.0047089E-1,-4.4708043E-1,6.266052E-3,4.7895053E-1,1.4990356E0,6.312204E-2,-1.9584498E-3,6.1332066E-2,1.7429657E-2,1.6061163E-3,6.26127E-2,9.893964E-3,-2.0042572E-2,1.7905168E-2,-9.033182E-3,-1.1578896E-2,-1.940563E-2,5.0011694E-2,9.351723E-3,6.421687E-2,-5.843397E-4],"categories":[],"categories_nodes":[],"categories_segments":[],"categories_sizes":[],"default_left":[0,0,0,0,0,0,0,0,0,0,0,0,0,0,0,0,0,0,0,0,0,0,0,0,0,0,0,0,0,0,0,0,0,0,0,0,0,0,0,0,0,0,0,0,0,0,0],"id":10,"left_children":[1,3,5,-1,7,9,11,-1,-1,13,15,17,19,21,-1,-1,23,25,27,29,-1,31,33,35,37,-1,39,41,-1,43,45,-1,-1,-1,-1,-1,-1,-1,-1,-1,-1,-1,-1,-1,-1,-1,-1],"loss_changes":[1.8058656E2,1.1094742E0,5.6576454E1,0E0,1.3048805E0,2.3202652E1,2.835799E1,0E0,0E0,1.0476013E1,3.007962E1,1.8525906E0,4.0031784E1,1.4081558E1,0E0,0E0,1.3847908E1,2.184714E0,5.698242E-1,1.093969E1,0E0,5.136696E0,1.2206665E1,1.5080859E1,2.3510618E0,0E0,2.2059157E0,1.6930294E-1,0E0,3.5565128E0,4.383251E0,0E0,0E0,0E0,0E0,0E0,0E0,0E0,0E0,0E0,0E0,0E0,0E0,0E0,0E0,0E0,0E0],"parents":[2147483647,0,0,1,1,2,2,4,4,5,5,6,6,9,9,10,10,11,11,12,12,13,13,16,16,17,17,18,18,19,19,21,21,22,22,23,23,24,24,26,26,27,27,29,29,30,30],"right_children":[2,4,6,-1,8,10,12,-1,-1,14,16,18,20,22,-1,-1,24,26,28,30,-1,32,34,36,38,-1,40,42,-1,44,46,-1,-1,-1,-1,-1,-1,-1,-1,-1,-1,-1,-1,-1,-1,-1,-1],"split_conditions":[8.018829E-1,6E-1,7.641801E-1,-2.273864E-2,5.87897E-1,3.4E-1,8.95E-1,2.3936376E-2,-1.5967665E-2,9.932124E-1,2E-1,9.10449E-1,8.933333E-1,5.265731E-1,1.00478224E-1,9.864887E-2,8.933333E-1,8.106048E-1,9.9332964E-1,1.6666667E-1,-2.1891037E-2,9.459546E-1,1.6666667E-1,5.977317E-1,4.0599254E-1,-2.0340532E-2,5.3870934E-1,9E-1,6.266052E-3,5E-1,8.955835E-1,6.312204E-2,-1.9584498E-3,6.1332066E-2,1.7429657E-2,1.6061163E-3,6.26127E-2,9.893964E-3,-2.0042572E-2,1.7905168E-2,-9.033182E-3,-1.1578896E-2,-1.940563E-2,5.0011694E-2,9.351723E-3,6.421687E-2,-5.843397E-4],"split_indices":[2,9,3,0,3,7,8,0,0,5,9,3,7,3,0,0,7,3,2,7,0,5,7,3,3,0,5,4,0,9,5,0,0,0,0,0,0,0,0,0,0,0,0,0,0,0,0],"split_type":[0,0,0,0,0,0,0,0,0,0,0,0,0,0,0,0,0,0,0,0,0,0,0,0,0,0,0,0,0,0,0,0,0,0,0,0,0,0,0,0,0,0,0,0,0,0,0],"sum_hessian":[5.881391E2,2.809758E2,3.071633E2,2.7751743E2,3.4583695E0,1.6318845E2,1.4397487E2,1.1891602E0,2.2692094E0,1.0664777E2,5.654067E1,7.704324E1,6.6931625E1,1.01031136E2,5.6166363E0,5.386727E0,5.1153942E1,2.525908E1,5.1784164E1,4.5427734E1,2.150389E1,4.8796066E1,5.223507E1,2.597813E1,2.5175814E1,7.677984E0,1.7581097E1,5.0634846E1,1.1493207E0,1.9353355E1,2.6074379E1,4.68353E1,1.9607651E0,1.3408082E1,3.882699E1,1.6029354E1,9.948775E0,4.5589504E0,2.0616863E1,8.338137E0,9.242961E0,1.1523122E1,3.911172E1,3.678787E0,1.5674569E1,2.4305445E1,1.7689345E0],"tree_param":{"num_deleted":"0","num_feature":"10","num_nodes":"47","size_leaf_vector":"1"}},{"base_weights":[6.5422654E-3,-6.8015176E-1,7.201704E-1,-2.7943024E-2,-2.444714E-1,-1.2524852E-1,1.0641136E0,-5.3156245E-1,8.5382116E-1,-4.733555E-1,4.2405945E-1,7.727836E-1,1.3166692E0,-2.6878001E-2,1.1186236E-1,6.865971E-4,4.4522323E-2,-2.787592E-2,-2.821049E-1,7.700611E-1,4.6523992E-2,1.3140941E0,6.095298E-1,1.1505946E0,5.62787E-2,-1.9650752E-2,3.521754E-2,-2.725299E-2,-2.608452E-4,3.9644802E-1,1.1790627E0,6.2560254E-1,-1.2386395E-1,1.6460551E-2,1.3343929E0,3.1656435E-1,6.73406E-1,6.944466E-1,4.7855847E-2,1.4140596E-2,-2.0747628E-2,-1.961525E-3,2.4655685E-2,9.0719375E-4,5.1513623E-2,1.2699523E-3,3.8247176E-2,-1.1755741E-2,1.2102333E-2,5.4212846E-2,1.6809048E-2,2.0011367E-2,7.178569E-3,-4.964052E-4,2.833983E-2,4.3014858E-2,-2.9134718E-3],"categories":[],"categories_nodes":[],"categories_segments":[],"categories_sizes":[],"default_left":[0,0,0,0,0,0,0,0,0,0,0,0,0,0,0,0,0,0,0,0,0,0,0,0,0,0,0,0,0,0,0,0,0,0,0,0,0,0,0,0,0,0,0,0,0,0,0,0,0,0,0,0,0,0,0,0,0],"id":11,"left_children":[1,3,5,-1,7,9,11,13,15,17,19,21,23,-1,25,-1,-1,-1,27,29,31,33,35,37,-1,-1,-1,-1,39,41,43,45,47,-1,49,51,53,55,-1,-1,-1,-1,-1,-1,-1,-1,-1,-1,-1,-1,-1,-1,-1,-1,-1,-1,-1],"loss_changes":[5.429869E2,4.3618164E0,1.5812872E2,0E0,8.162714E0,3.0417841E1,2.7407776E1,1.8815961E0,1.1629832E0,3.9589329E0,8.040257E0,1.5266319E1,1.4631042E0,0E0,2.4903173E0,0E0,0E0,0E0,6.0829043E0,4.452305E0,3.0996506E0,2.0688629E-1,2.4357796E0,7.961273E-1,0E0,0E0,0E0,0E0,6.1791024E0,1.8264568E0,1.8404274E0,1.3691225E0,1.8653373E0,0E0,1.940155E-1,5.9597945E-1,2.7841492E0,2.8518353E0,0E0,0E0,0E0,0E0,0E0,0E0,0E0,0E0,0E0,0E0,0E0,0E0,0E0,0E0,0E0,0E0,0E0,0E0,0E0],"parents":[2147483647,0,0,1,1,2,2,4,4,5,5,6,6,7,7,8,8,9,9,10,10,11,11,12,12,14,14,18,18,19,19,20,20,21,21,22,22,23,23,28,28,29,29,30,30,31,31,32,32,34,34,35,35,36,36,37,37],"right_children":[2,4,6,-1,8,10,12,14,16,18,20,22,24,-1,26,-1,-1,-1,28,30,32,34,36,38,-1,-1,-1,-1,40,42,44,46,48,-1,50,52,54,56,-1,-1,-1,-1,-1,-1,-1,-1,-1,-1,-1,-1,-1,-1,-1,-1,-1,-1,-1],"split_conditions":[5.9438336E-1,5.3642327E-1,4.9E-1,-2.7943024E-2,8.933333E-1,8.503964E-1,8.5E-1,8.2183486E-1,5E-1,2.8E-1,9E-1,5E-1,8.870718E-1,-2.6878001E-2,5.948576E-1,6.865971E-4,4.4522323E-2,-2.787592E-2,7.8125024E-1,2.8E-1,3.7681994E-1,1.175862E-1,6.662601E-1,1.9612023E-1,5.62787E-2,-1.9650752E-2,3.521754E-2,-2.725299E-2,1E0,5.440525E-1,4E-1,2.8E-1,6.4876044E-1,1.6460551E-2,8.454456E-1,6.312999E-1,1.5460569E-1,1.6241962E-1,4.7855847E-2,1.4140596E-2,-2.0747628E-2,-1.961525E-3,2.4655685E-2,9.0719375E-4,5.1513623E-2,1.2699523E-3,3.8247176E-2,-1.1755741E-2,1.2102333E-2,5.4212846E-2,1.6809048E-2,2.0011367E-2,7.178569E-3,-4.964052E-4,2.833983E-2,4.3014858E-2,-2.9134718E-3],"split_indices":[0,0,6,0,7,0,0,5,9,6,9,6,0,0,1,0,0,0,0,6,5,1,0,1,0,0,0,0,4,5,9,6,1,0,1,0,5,1,0,0,0,0,0,0,0,0,0,0,0,0,0,0,0,0,0,0,0],"split_type":[0,0,0,0,0,0,0,0,0,0,0,0,0,0,0,0,0,0,0,0,0,0,0,0,0,0,0,0,0,0,0,0,0,0,0,0,0,0,0,0,0,0,0,0,0,0,0,0,0,0,0,0,0,0,0,0,0],"sum_hessian":[1.106037E3,5.636793E2,5.423577E2,5.4023083E2,2.3448496E1,1.5702446E2,3.8533328E2,1.8998375E1,4.45012E0,9.6199356E1,6.0825104E1,1.8081638E2,2.0451689E2,1.555921E1,3.4391665E0,1.3049057E0,3.1452143E0,4.3136044E1,5.3063313E1,3.1195509E1,2.9629597E1,4.0263363E1,1.4055301E2,7.687406E1,1.2764283E2,2.1291487E0,1.3100178E0,2.137259E1,3.1690725E1,1.7332237E1,1.3863272E1,6.1287746E0,2.3500822E1,1.3534983E0,3.8909863E1,2.6225752E1,1.1432726E2,8.489303E0,6.838476E1,1.9025713E1,1.2665012E1,5.985646E0,1.1346591E1,1.2958629E0,1.2567409E1,2.5835974E0,3.5451772E0,1.7023676E1,6.477147E0,3.756725E1,1.3426127E0,1.0075336E1,1.6150415E1,5.596275E0,1.0873099E2,5.4046054E0,3.0846975E0],"tree_param":{"num_deleted":"0","num_feature":"10","num_nodes":"57","size_leaf_vector":"1"}},{"base_weights":[5.611942E-3,3.5833694E-2,-8.8231826E-1,-7.089046E-1,-3.6633093E-2,4.734965E-2,-8.6770386E-1,-2.3511663E-1,3.2506162E-1,-7.1318853E-3,-3.5090428E-2,3.1353208E-1,-5.5390286E-1,5.569571E-1,-1.0796094E-1,2.2491736E-2,7.789717E-5,7.4384236E-3,-3.1581488E-2,5.829867E-3,3.0126078E-2,1.2939334E-2,-2.3296978E-2],"categories":[],"categories_nodes":[],"categories_segments":[],"categories_sizes":[],"default_left":[0,0,0,0,0,0,0,0,0,0,0,0,0,0,0,0,0,0,0,0,0,0,0],"id":12,"left_children":[1,-1,3,5,-1,7,9,11,13,-1,-1,15,17,19,21,-1,-1,-1,-1,-1,-1,-1,-1],"loss_changes":[1.0256122E3,0E0,3.1254883E0,1.3205593E1,0E0,1.6430967E0,4.4082642E-1,2.0068815E0,1.1135278E0,0E0,0E0,3.469658E-1,1.3655956E0,4.544978E-1,1.1088023E0,0E0,0E0,0E0,0E0,0E0,0E0,0E0,0E0],"parents":[2147483647,0,0,2,2,3,3,5,5,6,6,7,7,8,8,11,11,12,12,13,13,14,14],"right_children":[2,-1,4,6,-1,8,10,12,14,-1,-1,16,18,20,22,-1,-1,-1,-1,-1,-1,-1,-1],"split_conditions":[8.666667E-1,3.5833694E-2,2.8E-1,6.778976E-1,-3.6633093E-2,9.3333334E-1,8.0372834E-1,3.7509635E-1,1E0,-7.1318853E-3,-3.5090428E-2,8.697744E-1,8.1006914E-1,9.6666664E-1,6.020212E-1,2.2491736E-2,7.789717E-5,7.4384236E-3,-3.1581488E-2,5.829867E-3,3.0126078E-2,1.2939334E-2,-2.3296978E-2],"split_indices":[4,0,6,0,0,4,2,1,9,0,0,2,2,4,0,0,0,0,0,0,0,0,0],"split_type":[0,0,0,0,0,0,0,0,0,0,0,0,0,0,0,0,0,0,0,0,0,0,0],"sum_hessian":[1.2954836E3,6.468995E2,6.485842E2,1.0861967E2,5.3996454E2,1.8971748E1,8.964792E1,9.481405E0,9.490344E0,1.4945037E0,8.815341E1,3.490516E0,5.9908895E0,5.9941196E0,3.4962242E0,1.4935102E0,1.9970057E0,1.4980385E0,4.492851E0,2.4990842E0,3.4950354E0,1.9977872E0,1.4984369E0],"tree_param":{"num_deleted":"0","num_feature":"10","num_nodes":"23","size_leaf_vector":"1"}},{"base_weights":[-2.4241928E-2,6.7951417E-1,-3.8893315E-1,-4.8846745E-1,1.6559865E0,-4.9974358E-1,-2.3791148E-1,-2.048945E-2,9.186632E-3,2.5073073E0,9.8030955E-1,-5.0975883E-1,8.35287E-3,6.113456E-1,-2.0689614E-2,2.6313813E0,1.9942006E-2,1.5211432E0,2.0343927E-1,-3.093212E-1,-2.0788185E-2,-1.7896669E-2,1.0948361E0,1.2307587E-1,1.8396224E0,1.841011E0,5.957007E-1,5.4399693E-1,-2.7742094E-1,-1.751703E-2,9.02407E-3,1.4272773E0,3.2608747E-1,1.5825927E-2,8.433173E-2,8.684727E-2,3.827481E-2,3.754733E-2,-1.2226471E-2,4.211074E-2,-1.5189381E-2,-1.6960844E-2,8.119328E-3,6.816374E-2,2.7508505E-3,-3.6072317E-3,2.9044157E-2],"categories":[],"categories_nodes":[],"categories_segments":[],"categories_sizes":[],"default_left":[0,0,0,0,0,0,0,0,0,0,0,0,0,0,0,0,0,0,0,0,0,0,0,0,0,0,0,0,0,0,0,0,0,0,0,0,0,0,0,0,0,0,0,0,0,0,0],"id":13,"left_children":[1,3,5,7,9,11,13,-1,-1,15,17,19,-1,21,-1,23,-1,25,27,29,-1,-1,31,-1,33,35,37,39,41,-1,-1,43,45,-1,-1,-1,-1,-1,-1,-1,-1,-1,-1,-1,-1,-1,-1],"loss_changes":[6.672754E1,1.0203374E2,2.7462025E0,8.2066345E-1,2.547937E1,8.007755E-1,1.7957254E1,0E0,0E0,3.8843536E0,1.175721E1,3.215027E-2,0E0,1.0146322E1,0E0,1.1836395E0,0E0,3.8697739E0,2.2702842E0,5.8344233E-1,0E0,0E0,2.918313E0,0E0,2.8410034E0,1.4224701E0,2.0762248E0,4.119073E0,5.106002E-1,0E0,0E0,3.247383E0,9.4688374E-1,0E0,0E0,0E0,0E0,0E0,0E0,0E0,0E0,0E0,0E0,0E0,0E0,0E0,0E0],"parents":[2147483647,0,0,1,1,2,2,3,3,4,4,5,5,6,6,9,9,10,10,11,11,13,13,15,15,17,17,18,18,19,19,22,22,24,24,25,25,26,26,27,27,28,28,31,31,32,32],"right_children":[2,4,6,8,10,12,14,-1,-1,16,18,20,-1,22,-1,24,-1,26,28,30,-1,-1,32,-1,34,36,38,40,42,-1,-1,44,46,-1,-1,-1,-1,-1,-1,-1,-1,-1,-1,-1,-1,-1,-1],"split_conditions":[4.9E-1,8.069103E-1,9E-1,9E-1,8.012367E-1,9.870275E-1,7.142682E-1,-2.048945E-2,9.186632E-3,9.904613E-1,2.8E-1,2.0802407E-1,8.35287E-3,5E-1,-2.0689614E-2,9.3333334E-1,1.9942006E-2,9.2604065E-1,9.152619E-1,2.826326E-1,-2.0788185E-2,-1.7896669E-2,6.631169E-1,1.2307587E-1,6.312999E-1,9.2453915E-1,7.779343E-1,8.288077E-1,9.289846E-1,-1.751703E-2,9.02407E-3,7.354632E-1,6.944181E-1,1.5825927E-2,8.433173E-2,8.684727E-2,3.827481E-2,3.754733E-2,-1.2226471E-2,4.211074E-2,-1.5189381E-2,-1.6960844E-2,8.119328E-3,6.816374E-2,2.7508505E-3,-3.6072317E-3,2.9044157E-2],"split_indices":[6,2,4,4,0,5,0,0,0,2,6,5,0,6,0,4,0,0,0,0,0,0,0,0,0,2,5,5,2,0,0,1,0,0,0,0,0,0,0,0,0,0,0,0,0,0,0],"split_type":[0,0,0,0,0,0,0,0,0,0,0,0,0,0,0,0,0,0,0,0,0,0,0,0,0,0,0,0,0,0,0,0,0,0,0,0,0,0,0,0,0,0,0,0,0,0,0],"sum_hessian":[2.5796085E2,8.775466E1,1.7020618E2,4.0186455E1,4.7568203E1,9.6841064E1,7.336512E1,3.91765E1,1.0099566E0,1.9848824E1,2.7719378E1,9.5768E1,1.0730659E0,1.7863928E1,5.550119E1,1.840223E1,1.4465955E0,1.5777511E1,1.1941868E1,6.0449286E0,8.972307E1,5.6236653E0,1.2240262E1,9.929072E0,8.473156E0,1.0989719E1,4.787791E0,6.913938E0,5.02793E0,5.019488E0,1.0254409E0,7.9470005E0,4.293262E0,1.7171154E0,6.7560406E0,6.941726E0,4.0479937E0,3.4381247E0,1.3496659E0,4.368287E0,2.545651E0,3.9422712E0,1.0856583E0,6.39046E0,1.5565405E0,2.483461E0,1.809801E0],"tree_param":{"num_deleted":"0","num_feature":"10","num_nodes":"47","size_leaf_vector":"1"}},{"base_weights":[1.7273888E-2,-2.2638068E-2,5.050135E-1,8.925926E-1,5.0691165E-2,6.9394255E-1,1.6348696E0,3.125748E-1,-4.4912815E-1,8.838418E-1,-3.663442E-1,4.3430817E-1,1.9777846E0,-1.4250286E-1,8.351829E-1,-1.7881106E-1,-2.233067E-2,1.0532669E-1,9.762779E-1,3.699724E-1,-2.1655874E-2,6.454613E-1,-1.429081E-2,2.2544355E0,8.713844E-1,2.069591E0,-4.3916374E-1,1.4241581E0,-2.1316571E-2,-2.0974912E-2,5.6681913E-1,-1.3605574E-2,4.6279725E-2,5.4781508E-2,2.5977168E-2,4.15629E-2,-1.5315411E-2,3.1348705E-2,1.7568924E-3,9.79085E-2,4.4695307E-2,4.7951747E-2,-1.3144489E-2,9.369266E-2,2.1505544E-2,1.6822387E-2,-2.238598E-2,1.8363106E-3,6.604283E-2,5.513411E-2,-1.6087964E-2],"categories":[],"categories_nodes":[],"categories_segments":[],"categories_sizes":[],"default_left":[0,0,0,0,0,0,0,0,0,0,0,0,0,0,0,0,0,0,0,0,0,0,0,0,0,0,0,0,0,0,0,0,0,0,0,0,0,0,0,0,0,0,0,0,0,0,0,0,0,0,0],"id":14,"left_children":[1,-1,3,5,7,9,11,13,15,17,19,21,23,25,27,29,-1,31,33,35,-1,37,-1,39,41,43,45,47,-1,-1,49,-1,-1,-1,-1,-1,-1,-1,-1,-1,-1,-1,-1,-1,-1,-1,-1,-1,-1,-1,-1],"loss_changes":[1.7089346E2,0E0,5.7559944E1,2.4887833E1,1.9992386E1,2.8705276E1,1.4176361E1,2.392781E1,1.4506416E0,8.521179E0,3.051181E0,1.8009678E0,6.644409E0,3.65864E1,3.8423462E1,4.571026E0,0E0,6.877227E0,1.2863968E1,2.8371391E0,0E0,6.1204123E-1,0E0,2.0711746E0,3.2447515E0,1.4998093E0,5.2864027E0,1.0228523E1,0E0,0E0,5.063015E0,0E0,0E0,0E0,0E0,0E0,0E0,0E0,0E0,0E0,0E0,0E0,0E0,0E0,0E0,0E0,0E0,0E0,0E0,0E0,0E0],"parents":[2147483647,0,0,2,2,3,3,4,4,5,5,6,6,7,7,8,8,9,9,10,10,11,11,12,12,13,13,14,14,15,15,17,17,18,18,19,19,21,21,23,23,24,24,25,25,26,26,27,27,30,30],"right_children":[2,-1,4,6,8,10,12,14,16,18,20,22,24,26,28,30,-1,32,34,36,-1,38,-1,40,42,44,46,48,-1,-1,50,-1,-1,-1,-1,-1,-1,-1,-1,-1,-1,-1,-1,-1,-1,-1,-1,-1,-1,-1,-1],"split_conditions":[8.666667E-1,-2.2638068E-2,7.7487534E-1,8.5593736E-1,8.503964E-1,8.933333E-1,9.3333334E-1,8.95E-1,9.003114E-1,6.631169E-1,7.018658E-1,7.0349306E-1,8.468398E-1,6.020212E-1,8.933333E-1,3.4E-1,-2.233067E-2,6.079206E-1,8.5E-1,5.723858E-1,-2.1655874E-2,9.735579E-1,-1.429081E-2,6.144365E-1,8.933333E-1,6.463708E-1,6.5090644E-1,6.253517E-1,-2.1316571E-2,-2.0974912E-2,8.933333E-1,-1.3605574E-2,4.6279725E-2,5.4781508E-2,2.5977168E-2,4.15629E-2,-1.5315411E-2,3.1348705E-2,1.7568924E-3,9.79085E-2,4.4695307E-2,4.7951747E-2,-1.3144489E-2,9.369266E-2,2.1505544E-2,1.6822387E-2,-2.238598E-2,1.8363106E-3,6.604283E-2,5.513411E-2,-1.6087964E-2],"split_indices":[4,0,3,5,0,7,4,8,3,0,0,1,0,0,7,7,0,3,0,3,0,5,0,1,7,5,0,0,0,0,7,0,0,0,0,0,0,0,0,0,0,0,0,0,0,0,0,0,0,0,0],"split_type":[0,0,0,0,0,0,0,0,0,0,0,0,0,0,0,0,0,0,0,0,0,0,0,0,0,0,0,0,0,0,0,0,0,0,0,0,0,0,0,0,0,0,0,0,0,0,0,0,0,0,0],"sum_hessian":[5.98755E2,2.7261234E2,3.2614267E2,1.7547853E2,1.5066412E2,1.399576E2,3.5520935E1,9.910961E1,5.1554516E1,1.1883962E2,2.1117981E1,8.39526E0,2.7125673E1,5.3366417E1,4.574319E1,1.5586896E1,3.5967617E1,1.2839789E1,1.0599983E2,3.8423932E0,1.7275587E1,6.7731223E0,1.6221373E0,2.0869667E1,6.256006E0,5.6038957E0,4.7762524E1,3.1948265E1,1.3794925E1,1.085356E1,4.7333355E0,9.494618E0,3.3451703E0,4.6664104E1,5.9335724E1,1.8330785E0,2.0093145E0,5.2610745E0,1.5120479E0,1.6852406E1,4.017263E0,4.915778E0,1.3402276E0,4.307991E0,1.2959044E0,5.5647597E0,4.219776E1,4.686308E0,2.7261957E1,2.3461008E0,2.387235E0],"tree_param":{"num_deleted":"0","num_feature":"10","num_nodes":"51","size_leaf_vector":"1"}},{"base_weights":[-3.318157E-3,-6.7400634E-1,6.7778325E-1,-2.7554883E-2,-2.4263841E-1,-1.3303009E-1,9.97757E-1,-5.448781E-1,7.6250845E-1,-4.568534E-1,3.753845E-1,7.012965E-1,1.2260221E0,-2.6299758E-2,3.0779846E-2,4.4414608E-4,4.0881436E-2,-2.7701465E-2,-2.071952E-1,8.1762975E-1,1.2474245E-1,1.3066581E0,5.277054E-1,1.0895879E0,5.2927658E-2,-1.610332E-2,1.7707614E-2,-2.6603477E-2,3.6259573E-2,1.0161517E0,1.6136263E-1,-1.9408551E-1,5.580224E-1,5.316182E-2,1.619002E-2,5.937583E-1,1.9367008E-1,-4.0235263E-3,1.1121151E0,-2.5831914E-2,1.4820935E-2,2.0884532E-2,4.4345878E-2,-1.8454615E-2,1.9824041E-2,-1.502872E-2,7.6440154E-3,-1.6483728E-2,2.646831E-2,-7.2910627E-3,2.4415357E-2,-2.4723862E-3,2.0453049E-2,3.3178344E-2,4.5887046E-2],"categories":[],"categories_nodes":[],"categories_segments":[],"categories_sizes":[],"default_left":[0,0,0,0,0,0,0,0,0,0,0,0,0,0,0,0,0,0,0,0,0,0,0,0,0,0,0,0,0,0,0,0,0,0,0,0,0,0,0,0,0,0,0,0,0,0,0,0,0,0,0,0,0,0,0],"id":15,"left_children":[1,3,5,-1,7,9,11,13,15,17,19,21,23,-1,25,-1,-1,-1,27,29,31,33,35,37,-1,-1,-1,-1,39,41,43,45,47,-1,-1,49,51,-1,53,-1,-1,-1,-1,-1,-1,-1,-1,-1,-1,-1,-1,-1,-1,-1,-1],"loss_changes":[5.06475E2,3.4151306E0,1.4284927E2,0E0,6.538165E0,2.5943823E1,2.5840424E1,1.0625501E0,9.785123E-1,5.5099926E0,6.710433E0,1.7592758E1,1.4958191E0,0E0,8.1834185E-1,0E0,0E0,0E0,5.3843865E0,2.7090206E0,5.690204E0,2.3121643E-1,2.9051704E0,2.734871E0,0E0,0E0,0E0,0E0,7.6127324E0,1.8618584E-1,1.5420642E0,1.7522888E0,2.0215979E0,0E0,0E0,1.5795059E0,1.9860333E0,0E0,8.163452E-4,0E0,0E0,0E0,0E0,0E0,0E0,0E0,0E0,0E0,0E0,0E0,0E0,0E0,0E0,0E0,0E0],"parents":[2147483647,0,0,1,1,2,2,4,4,5,5,6,6,7,7,8,8,9,9,10,10,11,11,12,12,14,14,18,18,19,19,20,20,21,21,22,22,23,23,28,28,29,29,30,30,31,31,32,32,35,35,36,36,38,38],"right_children":[2,4,6,-1,8,10,12,14,16,18,20,22,24,-1,26,-1,-1,-1,28,30,32,34,36,38,-1,-1,-1,-1,40,42,44,46,48,-1,-1,50,52,-1,54,-1,-1,-1,-1,-1,-1,-1,-1,-1,-1,-1,-1,-1,-1,-1,-1],"split_conditions":[5.9438336E-1,5.3642327E-1,4.9E-1,-2.7554883E-2,8.933333E-1,8.503964E-1,8.272982E-1,8.194613E-1,5E-1,2.8E-1,7E-1,5E-1,8.987072E-1,-2.6299758E-2,5.283515E-1,4.4414608E-4,4.0881436E-2,-2.7701465E-2,7.777283E-1,9.141358E-1,2.8E-1,8.4926134E-1,9.680588E-1,1.2835306E-1,5.2927658E-2,-1.610332E-2,1.7707614E-2,-2.6603477E-2,4E-1,4E-1,5.2071863E-1,6.382182E-1,8.987072E-1,5.316182E-2,1.619002E-2,1.200469E-1,6.910945E-1,-4.0235263E-3,1.9612023E-1,-2.5831914E-2,1.4820935E-2,2.0884532E-2,4.4345878E-2,-1.8454615E-2,1.9824041E-2,-1.502872E-2,7.6440154E-3,-1.6483728E-2,2.646831E-2,-7.2910627E-3,2.4415357E-2,-2.4723862E-3,2.0453049E-2,3.3178344E-2,4.5887046E-2],"split_indices":[0,0,6,0,7,0,0,5,9,6,9,6,0,0,1,0,0,0,0,2,6,1,2,5,0,0,0,0,9,9,5,1,0,0,0,5,5,0,1,0,0,0,0,0,0,0,0,0,0,0,0,0,0,0,0],"split_type":[0,0,0,0,0,0,0,0,0,0,0,0,0,0,0,0,0,0,0,0,0,0,0,0,0,0,0,0,0,0,0,0,0,0,0,0,0,0,0,0,0,0,0,0,0,0,0,0,0,0,0,0,0,0,0],"sum_hessian":[1.1067295E3,5.576327E2,5.4909674E2,5.384787E2,1.9154005E1,1.5554079E2,3.9355597E2,1.5078063E1,4.075942E0,9.508191E1,6.0458878E1,1.7297546E2,2.205805E2,1.249208E1,2.5859838E0,1.3140843E0,2.761858E0,4.7997345E1,4.7084564E1,2.1051838E1,3.940704E1,3.709331E1,1.3588214E2,9.683252E1,1.23747986E2,1.2712117E0,1.314772E0,1.5743046E1,3.1341518E1,1.5741597E1,5.310241E0,2.3019934E1,1.6387106E1,3.5732746E1,1.3605644E0,1.1279941E2,2.3082745E1,1.7343943E0,9.509813E1,1.0001564E1,2.1339954E1,3.5302882E0,1.22113085E1,1.7218573E0,3.5883842E0,1.5660082E1,7.3598523E0,1.2951143E0,1.5091991E1,2.156926E0,1.1064248E2,1.3239832E1,9.842913E0,1.3215383E1,8.1882744E1],"tree_param":{"num_deleted":"0","num_feature":"10","num_nodes":"55","size_leaf_vector":"1"}},{"base_weights":[-1.4077937E-2,3.4888607E-2,-8.63789E-1,-5.275281E-1,-8.847623E-1,2.1777374E-1,-6.750066E-1,-7.5872296E-1,-3.585202E-2,-1.4378894E-2,5.7657987E-1,-3.3922035E-2,-4.090224E-1,1.2354259E-3,-7.874519E-1,7.7689467E-3,2.7354691E-2,4.420672E-3,-3.1896014E-2,-5.300583E-1,-3.5084076E-2,1.9476984E-2,-2.6631655E-2,8.453647E-3,-3.1018104E-2],"categories":[],"categories_nodes":[],"categories_segments":[],"categories_sizes":[],"default_left":[0,0,0,0,0,0,0,0,0,0,0,0,0,0,0,0,0,0,0,0,0,0,0,0,0],"id":16,"left_children":[1,-1,3,5,7,9,11,13,-1,-1,15,-1,17,-1,19,-1,-1,21,-1,23,-1,-1,-1,-1,-1],"loss_changes":[9.5659033E2,0E0,4.10672E0,4.6040087E0,2.0547485E-1,1.7512168E0,1.2224102E0,1.3306007E0,0E0,0E0,7.150829E-2,0E0,2.4715533E0,0E0,8.180847E-1,0E0,0E0,3.053309E0,0E0,3.236836E0,0E0,0E0,0E0,0E0,0E0],"parents":[2147483647,0,0,2,2,3,3,4,4,5,5,6,6,7,7,10,10,12,12,14,14,17,17,19,19],"right_children":[2,-1,4,6,8,10,12,14,-1,-1,16,-1,18,-1,20,-1,-1,22,-1,24,-1,-1,-1,-1,-1],"split_conditions":[8.666667E-1,3.4888607E-2,3.692175E-1,6.944181E-1,6.312999E-1,3.4E-1,8.95E-1,4.1787553E-1,-3.585202E-2,-1.4378894E-2,1.6944036E-1,-3.3922035E-2,8.503964E-1,1.2354259E-3,4.8897076E-1,7.7689467E-3,2.7354691E-2,8.933333E-1,-3.1896014E-2,6.079206E-1,-3.5084076E-2,1.9476984E-2,-2.6631655E-2,8.453647E-3,-3.1018104E-2],"split_indices":[4,0,3,0,0,7,8,3,0,0,1,0,0,0,1,0,0,7,0,3,0,0,0,0,0],"split_type":[0,0,0,0,0,0,0,0,0,0,0,0,0,0,0,0,0,0,0,0,0,0,0,0,0],"sum_hessian":[1.2682148E3,6.207322E2,6.4748267E2,3.9549213E1,6.079334E2,6.4544044E0,3.3094807E1,5.658438E1,5.5134906E2,2.473381E0,3.9810236E0,1.8724594E1,1.4370213E1,1.9838423E0,5.460054E1,1.4880716E0,2.4929519E0,7.439355E0,6.9308577E0,1.5890362E1,3.871018E1,4.484394E0,2.9549608E0,3.9860983E0,1.19042635E1],"tree_param":{"num_deleted":"0","num_feature":"10","num_nodes":"25","size_leaf_vector":"1"}},{"base_weights":[-2.3826964E-2,6.304728E-1,-3.6768866E-1,-2.0439278E-2,1.4988446E0,-2.0718679E-2,-2.2454794E-1,2.8149266E0,6.2459266E-1,1.1510422E0,-4.7910684E-1,-1.330905E-2,3.1068313E0,2.544626E0,-2.4332273E-1,3.3468494E0,-1.6543533E-1,-4.8198957E-2,-2.0742225E-2,3.5095131E0,1.1219716E0,1.15324974E-1,1.0717219E0,4.8446816E-1,-4.4755208E-1,3.8792625E-2,1.5665056E-1,4.4188473E-2,-1.8683007E-2,4.6297505E-2,-1.7705431E-2,6.0130347E-2,1.5725455E-1,9.156814E-2,-1.3987542E-2,8.112449E-2,-1.1999741E-2,6.653172E-2,-1.5788354E-2,-1.9993164E-2,2.7009924E-3],"categories":[],"categories_nodes":[],"categories_segments":[],"categories_sizes":[],"default_left":[0,0,0,0,0,0,0,0,0,0,0,0,0,0,0,0,0,0,0,0,0,0,0,0,0,0,0,0,0,0,0,0,0,0,0,0,0,0,0,0,0],"id":17,"left_children":[1,3,5,-1,7,-1,9,11,13,15,17,-1,19,21,23,25,27,29,-1,31,33,-1,35,37,39,-1,-1,-1,-1,-1,-1,-1,-1,-1,-1,-1,-1,-1,-1,-1,-1],"loss_changes":[5.752649E1,8.8087326E1,3.488062E0,0E0,5.6101677E1,0E0,3.1220364E1,1.9213898E1,5.3112774E1,4.0938976E1,1.24333E0,0E0,1.061232E1,1.8428802E0,3.5770383E0,3.353363E0,4.227349E0,4.012462E0,0E0,6.5007324E0,8.599548E0,0E0,5.1220074E0,6.288244E0,5.230892E-1,0E0,0E0,0E0,0E0,0E0,0E0,0E0,0E0,0E0,0E0,0E0,0E0,0E0,0E0,0E0,0E0],"parents":[2147483647,0,0,1,1,2,2,4,4,6,6,7,7,8,8,9,9,10,10,12,12,13,13,14,14,15,15,16,16,17,17,19,19,20,20,22,22,23,23,24,24],"right_children":[2,4,6,-1,8,-1,10,12,14,16,18,-1,20,22,24,26,28,30,-1,32,34,-1,36,38,40,-1,-1,-1,-1,-1,-1,-1,-1,-1,-1,-1,-1,-1,-1,-1,-1],"split_conditions":[4.9E-1,8.018829E-1,5.055759E-1,-2.0439278E-2,6.056834E-1,-2.0718679E-2,6.631169E-1,6.312999E-1,7.544952E-1,5.4524016E-1,3.846191E-1,-1.330905E-2,9.2604065E-1,7.142682E-1,6.873182E-1,5.5203575E-1,5.5203575E-1,7.6412255E-1,-2.0742225E-2,3.772786E-1,4.2292362E-1,1.15324974E-1,8.106048E-1,9.2120737E-1,9.8030263E-1,3.8792625E-2,1.5665056E-1,4.4188473E-2,-1.8683007E-2,4.6297505E-2,-1.7705431E-2,6.0130347E-2,1.5725455E-1,9.156814E-2,-1.3987542E-2,8.112449E-2,-1.1999741E-2,6.653172E-2,-1.5788354E-2,-1.9993164E-2,2.7009924E-3],"split_indices":[6,2,0,0,3,0,0,0,0,3,3,0,0,0,3,0,0,0,0,3,3,0,3,2,2,0,0,0,0,0,0,0,0,0,0,0,0,0,0,0,0],"split_type":[0,0,0,0,0,0,0,0,0,0,0,0,0,0,0,0,0,0,0,0,0,0,0,0,0,0,0,0,0,0,0,0,0,0,0,0,0,0,0,0,0],"sum_hessian":[2.5365587E2,8.709606E1,1.665598E2,3.780881E1,4.9287247E1,7.997663E1,8.6583176E1,1.8786541E1,3.0500708E1,1.2970614E1,7.361256E1,1.5824883E0,1.7204052E1,8.893751E0,2.1606956E1,4.2835793E0,8.687035E0,6.360229E0,6.725233E1,1.36638365E1,3.5402153E0,6.4532437E0,2.4405072E0,4.433955E0,1.7173E1,1.3502232E0,2.9333563E0,1.1561896E0,7.530845E0,1.0910172E0,5.269212E0,3.1667519E0,1.0497085E1,1.6645054E0,1.8757099E0,1.1559973E0,1.2845099E0,1.5131743E0,2.9207807E0,1.5617525E1,1.5554762E0],"tree_param":{"num_deleted":"0","num_feature":"10","num_nodes":"41","size_leaf_vector":"1"}},{"base_weights":[2.2649061E-2,-5.5640996E-1,5.106928E-1,-2.2542417E-2,3.2215342E-2,8.415684E-1,1.2460241E-1,2.3241758E-2,-1.5322243E-2,7.0048976E-1,1.4710857E0,1.0569216E0,-3.3408144E-1,8.58959E-1,-2.999395E-1,3.5154846E-1,1.9247746E0,1.3932279E0,8.262851E-1,-9.5856E-2,-5.2688205E-1,7.486942E-1,1.2713504E0,3.879102E-2,-2.0958757E-2,8.3134663E-1,-4.1090004E-2,2.1240373E0,7.7795255E-1,1.6493021E0,8.44839E-1,1.1780248E0,5.308253E-1,-2.0657549E-2,2.3456318E-2,3.353914E-3,-2.1755345E-2,1.9650122E-2,3.642458E-2,5.7156257E-2,2.0913288E-2,2.7085265E-2,-8.72129E-3,6.1420253E-3,6.18568E-2,1.6109053E-2,-1.7475804E-2,7.6975506E-3,8.917755E-2,5.38402E-2,-1.7736603E-3,2.1271113E-2,6.95013E-2,4.0697444E-2,2.0114763E-3,6.2813233E-3,5.5318996E-2,3.2261794E-3,2.8913293E-2,2.4841892E-2,-3.0454579E-3],"categories":[],"categories_nodes":[],"categories_segments":[],"categories_sizes":[],"default_left":[0,0,0,0,0,0,0,0,0,0,0,0,0,0,0,0,0,0,0,0,0,0,0,0,0,0,0,0,0,0,0,0,0,0,0,0,0,0,0,0,0,0,0,0,0,0,0,0,0,0,0,0,0,0,0,0,0,0,0,0,0],"id":18,"left_children":[1,3,5,-1,7,9,11,-1,-1,13,15,17,19,21,23,25,27,29,31,33,35,37,39,41,-1,43,45,47,49,51,53,55,57,-1,59,-1,-1,-1,-1,-1,-1,-1,-1,-1,-1,-1,-1,-1,-1,-1,-1,-1,-1,-1,-1,-1,-1,-1,-1,-1,-1],"loss_changes":[1.6894072E2,1.1689835E0,4.1332382E1,0E0,1.1860844E0,1.4467094E1,6.486999E1,0E0,0E0,2.316024E1,1.5088203E1,2.7261505E0,4.6287813E0,4.730667E0,1.5756073E0,1.9508533E0,3.343872E0,1.2576561E0,2.7117443E0,2.3602362E0,6.2795544E-1,3.7643013E0,2.1932144E0,1.6378531E0,0E0,2.0046415E0,1.3262434E0,3.2456894E0,2.3085446E0,2.4135208E-1,1.0540948E0,2.678646E0,1.6074529E0,0E0,2.2737055E0,0E0,0E0,0E0,0E0,0E0,0E0,0E0,0E0,0E0,0E0,0E0,0E0,0E0,0E0,0E0,0E0,0E0,0E0,0E0,0E0,0E0,0E0,0E0,0E0,0E0,0E0],"parents":[2147483647,0,0,1,1,2,2,4,4,5,5,6,6,9,9,10,10,11,11,12,12,13,13,14,14,15,15,16,16,17,17,18,18,19,19,20,20,21,21,22,22,23,23,25,25,26,26,27,27,28,28,29,29,30,30,31,31,32,32,34,34],"right_children":[2,4,6,-1,8,10,12,-1,-1,14,16,18,20,22,24,26,28,30,32,34,36,38,40,42,-1,44,46,48,50,52,54,56,58,-1,60,-1,-1,-1,-1,-1,-1,-1,-1,-1,-1,-1,-1,-1,-1,-1,-1,-1,-1,-1,-1,-1,-1,-1,-1,-1,-1],"split_conditions":[8.018829E-1,7.1789676E-1,8.468398E-1,-2.2542417E-2,8.0090004E-1,8.8994545E-1,4.9E-1,2.3241758E-2,-1.5322243E-2,8.933333E-1,9.6666664E-1,4.143641E-1,9.152619E-1,9.680588E-1,7.018658E-1,9.340503E-1,5.9717387E-1,2.8E-1,9.0709984E-1,5E-1,1.1377331E-1,7.142682E-1,7.6086766E-1,2.3511437E-1,-2.0958757E-2,6.361626E-1,4.7640118E-1,8.207315E-1,9.2453915E-1,9E-1,8.745135E-1,5.0275135E-1,8.6720455E-1,-2.0657549E-2,1.9612023E-1,3.353914E-3,-2.1755345E-2,1.9650122E-2,3.642458E-2,5.7156257E-2,2.0913288E-2,2.7085265E-2,-8.72129E-3,6.1420253E-3,6.18568E-2,1.6109053E-2,-1.7475804E-2,7.6975506E-3,8.917755E-2,5.38402E-2,-1.7736603E-3,2.1271113E-2,6.95013E-2,4.0697444E-2,2.0114763E-3,6.2813233E-3,5.5318996E-2,3.2261794E-3,2.8913293E-2,2.4841892E-2,-3.0454579E-3],"split_indices":[2,0,0,0,2,5,6,0,0,7,4,1,0,2,0,5,1,6,0,6,1,0,5,1,0,1,1,2,2,4,5,1,2,0,1,0,0,0,0,0,0,0,0,0,0,0,0,0,0,0,0,0,0,0,0,0,0,0,0,0,0],"split_type":[0,0,0,0,0,0,0,0,0,0,0,0,0,0,0,0,0,0,0,0,0,0,0,0,0,0,0,0,0,0,0,0,0,0,0,0,0,0,0,0,0,0,0,0,0,0,0,0,0,0,0,0,0,0,0,0,0,0,0,0,0],"sum_hessian":[5.957902E2,2.72423E2,3.2336725E2,2.6919547E2,3.2275455E0,1.7349986E2,1.4986737E2,1.2182708E0,2.0092747E0,1.4346191E2,3.003795E1,4.898875E1,1.0087862E2,1.2396682E2,1.949509E1,9.174222E0,2.0863728E1,1.7878351E1,3.11104E1,4.579333E1,5.508529E1,1.0003504E2,2.393178E1,8.089972E0,1.140512E1,3.6259875E0,5.5482345E0,1.7049274E1,3.814453E0,1.0818863E1,7.0594893E0,1.2838868E1,1.8271532E1,9.384384E0,3.6408947E1,1.3854443E0,5.3699844E1,4.018223E1,5.985281E1,1.9019396E1,4.912385E0,1.8514873E0,6.2384844E0,2.485137E0,1.1408505E0,2.6072445E0,2.94099E0,1.0284042E0,1.602087E1,1.879309E0,1.935144E0,1.3058726E0,9.512991E0,5.5691996E0,1.4902893E0,2.4416428E0,1.0397225E1,5.8876576E0,1.2383874E1,4.4530773E0,3.195587E1],"tree_param":{"num_deleted":"0","num_feature":"10","num_nodes":"61","size_leaf_vector":"1"}},{"base_weights":[-1.2197769E-2,-5.631693E-1,7.918769E-1,-6.6380477E-1,2.048231E-1,-1.717516E-2,1.1071213E0,-2.7183572E-2,-3.6662036E-1,-2.7737759E-2,7.049365E-1,-4.076294E-1,6.7109007E-1,-2.4892807E-2,1.1755507E0,-2.8053481E-2,4.3563135E-2,9.2250496E-2,1.1899259E0,-2.761636E-2,-1.05684094E-1,-9.292037E-2,1.2859644E0,3.5744317E-2,-3.4142E-1,7.259074E-1,1.2421772E0,4.551082E-2,-3.5704848E-1,1.3748936E-2,5.0195564E-2,-6.304229E-1,5.057717E-1,-4.4465443E-1,4.3852735E-1,1.592352E-2,5.279118E-2,-2.5555E-2,1.3254513E-1,-8.664995E-2,5.0277874E-2,8.369361E-1,5.1774062E-2,-2.8070308E-2,4.0621154E-2,-2.6840134E-2,1.1257451E-4,-2.5127038E-2,5.4186568E-2,1.0757564E-2,-2.2952624E-2,-1.4366489E-2,4.061191E-2,-2.0535361E-2,2.6297875E-2,4.2158637E-2,-2.1623757E-2,5.077596E-3,5.246359E-2],"categories":[],"categories_nodes":[],"categories_segments":[],"categories_sizes":[],"default_left":[0,0,0,0,0,0,0,0,0,0,0,0,0,0,0,0,0,0,0,0,0,0,0,0,0,0,0,0,0,0,0,0,0,0,0,0,0,0,0,0,0,0,0,0,0,0,0,0,0,0,0,0,0,0,0,0,0,0,0],"id":19,"left_children":[1,3,5,7,9,11,13,-1,15,-1,17,19,21,23,25,-1,-1,27,29,-1,31,33,35,-1,37,39,41,-1,43,-1,-1,45,47,49,51,-1,-1,-1,53,55,-1,57,-1,-1,-1,-1,-1,-1,-1,-1,-1,-1,-1,-1,-1,-1,-1,-1,-1],"loss_changes":[4.8451834E2,5.0292343E1,1.1343906E2,2.4434967E0,3.4608253E1,3.404695E1,2.4819275E1,0E0,1.592773E1,0E0,1.4534576E1,6.8267145E0,2.1666592E1,5.893435E0,8.139709E0,0E0,0E0,1.1144295E1,1.0762329E0,0E0,1.3236532E1,4.192609E0,2.3965836E-1,0E0,2.2020946E0,1.7953485E1,4.4445496E0,0E0,8.637478E0,0E0,0E0,5.700922E-1,1.9283401E1,1.3861806E0,4.5148616E0,0E0,0E0,0E0,2.5818195E0,9.51716E0,0E0,1.0837059E1,0E0,0E0,0E0,0E0,0E0,0E0,0E0,0E0,0E0,0E0,0E0,0E0,0E0,0E0,0E0,0E0,0E0],"parents":[2147483647,0,0,1,1,2,2,3,3,4,4,5,5,6,6,8,8,10,10,11,11,12,12,13,13,14,14,17,17,18,18,20,20,21,21,22,22,24,24,25,25,26,26,28,28,31,31,32,32,33,33,34,34,38,38,39,39,41,41],"right_children":[2,4,6,8,10,12,14,-1,16,-1,18,20,22,24,26,-1,-1,28,30,-1,32,34,36,-1,38,40,42,-1,44,-1,-1,46,48,50,52,-1,-1,-1,54,56,-1,58,-1,-1,-1,-1,-1,-1,-1,-1,-1,-1,-1,-1,-1,-1,-1,-1,-1],"split_conditions":[5.212062E-1,8.130233E-1,4.9E-1,7.321905E-1,4.9E-1,8.8133675E-1,6.020212E-1,-2.7183572E-2,8.933333E-1,-2.7737759E-2,8.870718E-1,8.414026E-1,8.5197335E-1,5E-1,6.079206E-1,-2.8053481E-2,4.3563135E-2,5E-1,3.348653E-1,-2.761636E-2,2.8E-1,2.8E-1,1.7757529E-1,3.5744317E-2,9.10449E-1,8.205812E-1,6.910475E-1,4.551082E-2,4.7264275E-1,1.3748936E-2,5.0195564E-2,8.503964E-1,7.6412255E-1,1.8235123E-1,6.312809E-1,1.592352E-2,5.279118E-2,-2.5555E-2,5.622658E-1,5E-1,5.0277874E-2,8.5743904E-1,5.1774062E-2,-2.8070308E-2,4.0621154E-2,-2.6840134E-2,1.1257451E-4,-2.5127038E-2,5.4186568E-2,1.0757564E-2,-2.2952624E-2,-1.4366489E-2,4.061191E-2,-2.0535361E-2,2.6297875E-2,4.2158637E-2,-2.1623757E-2,5.077596E-3,5.246359E-2],"split_indices":[3,0,6,0,6,0,0,0,7,0,0,3,3,6,3,0,0,6,3,0,6,6,1,0,3,0,0,0,3,0,0,0,0,1,3,0,0,0,0,6,0,3,0,0,0,0,0,0,0,0,0,0,0,0,0,0,0,0,0],"split_type":[0,0,0,0,0,0,0,0,0,0,0,0,0,0,0,0,0,0,0,0,0,0,0,0,0,0,0,0,0,0,0,0,0,0,0,0,0,0,0,0,0,0,0,0,0,0,0,0,0,0,0,0,0,0,0,0,0,0,0],"sum_hessian":[1.0916593E3,6.479606E2,4.4369873E2,5.730106E2,7.494997E1,1.2467496E2,3.1902377E2,5.42889E2,3.0121645E1,2.6666672E1,4.82833E1,7.9807655E1,4.4867302E1,1.8221718E1,3.0080206E2,2.4911762E1,5.209883E0,2.1859035E1,2.6424261E1,4.0547413E1,3.926024E1,2.0385826E1,2.4481474E1,4.202811E0,1.4018908E1,4.035474E1,2.6044733E2,6.1096163E0,1.5749419E1,2.3324993E0,2.4091763E1,2.1111643E1,1.8148598E1,1.2365285E1,8.020542E0,1.3667765E0,2.3114697E1,8.399527E0,5.6193814E0,1.6280441E1,2.4074299E1,3.1651276E1,2.2879605E2,1.2978682E1,2.7707376E0,1.9784153E1,1.3274901E0,7.8810816E0,1.0267516E1,1.7292535E0,1.0636031E1,3.5240161E0,4.4965253E0,2.5290933E0,3.0902882E0,4.258471E0,1.2021972E1,1.3189542E1,1.8461735E1],"tree_param":{"num_deleted":"0","num_feature":"10","num_nodes":"59","size_leaf_vector":"1"}},{"base_weights":[-3.0548738E-3,3.401924E-2,-8.3592254E-1,-7.116655E-1,-3.4901287E-2,-3.8640618E-1,-7.94939E-1,-4.9048E-3,-7.806113E-1,-3.458223E-2,-6.644386E-1,-3.193518E-2,7.8189325E-1,-3.3293582E-2,-6.3363686E-3,-3.450333E-1,-8.0339766E-1,7.967265E-3,3.4632083E-2,9.984276E-3,-3.1353813E-2,9.105182E-3,-3.448934E-2],"categories":[],"categories_nodes":[],"categories_segments":[],"categories_sizes":[],"default_left":[0,0,0,0,0,0,0,0,0,0,0,0,0,0,0,0,0,0,0,0,0,0,0],"id":20,"left_children":[1,-1,3,5,-1,7,9,11,13,-1,15,-1,17,-1,-1,19,21,-1,-1,-1,-1,-1,-1],"loss_changes":[9.101376E2,0E0,2.3267517E0,3.833992E0,0E0,4.9756813E0,5.2285767E-1,1.1757341E1,3.920622E-1,0E0,1.7794685E0,0E0,2.9005575E-1,0E0,0E0,4.318597E0,2.109356E0,0E0,0E0,0E0,0E0,0E0,0E0],"parents":[2147483647,0,0,2,2,3,3,5,5,6,6,7,7,8,8,10,10,12,12,15,15,16,16],"right_children":[2,-1,4,6,-1,8,10,12,14,-1,16,-1,18,-1,-1,20,22,-1,-1,-1,-1,-1,-1],"split_conditions":[8.666667E-1,3.401924E-2,5.265731E-1,6.7346513E-1,-3.4901287E-2,7.8173894E-1,3.4E-1,8.95E-1,4.9615258E-1,-3.458223E-2,8.130233E-1,-3.193518E-2,9E-1,-3.3293582E-2,-6.3363686E-3,8.933333E-1,3.1046218E-1,7.967265E-3,3.4632083E-2,9.984276E-3,-3.1353813E-2,9.105182E-3,-3.448934E-2],"split_indices":[4,0,3,0,0,5,7,8,3,0,0,0,4,0,0,7,3,0,0,0,0,0,0],"split_type":[0,0,0,0,0,0,0,0,0,0,0,0,0,0,0,0,0,0,0,0,0,0,0],"sum_hessian":[1.2782926E3,6.313026E2,6.4699E2,1.5189229E2,4.9509772E2,3.2110695E1,1.19781586E2,1.6832796E1,1.5277898E1,7.4443825E1,4.533776E1,8.373509E0,8.459287E0,1.3793417E1,1.4844807E0,1.4800638E1,3.0537125E1,1.489452E0,6.969835E0,6.4675493E0,8.333089E0,1.4936607E0,2.9043465E1],"tree_param":{"num_deleted":"0","num_feature":"10","num_nodes":"23","size_leaf_vector":"1"}},{"base_weights":[1.981422E-3,6.73767E-1,-3.602329E-1,-2.037489E-2,1.4564099E0,-4.8197418E-1,-1.4108476E-1,2.387266E0,1.1216877E0,-2.0683568E-2,-3.6905396E-1,1.4562042E0,-4.5757297E-1,3.469069E-2,1.0027087E-1,1.519361E0,5.54349E-1,4.668481E-2,-4.709535E-1,-1.3263128E-2,1.8452508E0,2.000857E-1,-2.058773E-2,1.1080486E-2,1.6255783E0,1.3145328E0,1.1895474E-1,-6.910961E-2,-2.0197922E-2,2.3221103E-2,7.942076E-2,2.408163E-2,-1.3365769E-2,7.338754E-2,2.9785147E-2,7.662856E-2,-1.4356176E-3,-1.3538144E-2,2.7013501E-2,8.553151E-3,-1.1830336E-2],"categories":[],"categories_nodes":[],"categories_segments":[],"categories_sizes":[],"default_left":[0,0,0,0,0,0,0,0,0,0,0,0,0,0,0,0,0,0,0,0,0,0,0,0,0,0,0,0,0,0,0,0,0,0,0,0,0,0,0,0,0],"id":21,"left_children":[1,3,5,-1,7,9,11,13,15,-1,17,19,21,-1,-1,23,25,-1,27,-1,29,31,-1,-1,33,35,37,39,-1,-1,-1,-1,-1,-1,-1,-1,-1,-1,-1,-1,-1],"loss_changes":[6.2294884E1,8.378346E1,4.369631E0,0E0,1.4220566E1,2.3152351E-1,3.1410074E1,2.7054596E-1,8.583256E0,0E0,5.051526E0,7.7733135E0,2.0383387E0,0E0,0E0,2.7149277E0,6.062852E0,0E0,3.432665E-1,0E0,3.745098E-1,1.2398801E0,0E0,0E0,2.6666641E0,5.543372E0,3.5489426E0,2.7600312E-1,0E0,0E0,0E0,0E0,0E0,0E0,0E0,0E0,0E0,0E0,0E0,0E0,0E0],"parents":[2147483647,0,0,1,1,2,2,4,4,5,5,6,6,7,7,8,8,10,10,11,11,12,12,15,15,16,16,18,18,20,20,21,21,24,24,25,25,26,26,27,27],"right_children":[2,4,6,-1,8,10,12,14,16,-1,18,20,22,-1,-1,24,26,-1,28,-1,30,32,-1,-1,34,36,38,40,-1,-1,-1,-1,-1,-1,-1,-1,-1,-1,-1,-1,-1],"split_conditions":[4.9E-1,8.018829E-1,7E-1,-2.037489E-2,7.142682E-1,5.3642327E-1,6.5090644E-1,2.487067E-1,2.8E-1,-2.0683568E-2,5.9438336E-1,5E-1,7.0685035E-1,3.469069E-2,1.0027087E-1,7.6808953E-1,8.0951405E-1,4.668481E-2,6.631169E-1,-1.3263128E-2,8.4331E-1,4.784358E-1,-2.058773E-2,1.1080486E-2,9.2604065E-1,5.901457E-1,9.353898E-1,8.560347E-1,-2.0197922E-2,2.3221103E-2,7.942076E-2,2.408163E-2,-1.3365769E-2,7.338754E-2,2.9785147E-2,7.662856E-2,-1.4356176E-3,-1.3538144E-2,2.7013501E-2,8.553151E-3,-1.1830336E-2],"split_indices":[6,2,9,0,0,0,0,1,6,0,0,6,0,0,0,0,0,0,0,0,2,1,0,0,0,5,2,2,0,0,0,0,0,0,0,0,0,0,0,0,0],"split_type":[0,0,0,0,0,0,0,0,0,0,0,0,0,0,0,0,0,0,0,0,0,0,0,0,0,0,0,0,0,0,0,0,0,0,0,0,0,0,0,0,0],"sum_hessian":[2.5401205E2,8.868014E1,1.6533191E2,3.544551E1,5.3234627E1,1.055162E2,5.981572E1,1.2457759E1,4.0776867E1,7.775678E1,2.775941E1,9.296409E0,5.051931E1,1.5099369E0,1.0947822E1,2.2986523E1,1.7790344E1,1.0765392E0,2.6682873E1,1.6878707E0,7.6085377E0,3.8371468E0,4.6682163E1,2.0946653E0,2.089186E1,5.7433934E0,1.204695E1,2.3177807E0,2.4365091E1,1.2726281E0,6.33591E0,2.1172183E0,1.7199286E0,1.6009153E1,4.882705E0,3.6845176E0,2.0588758E0,6.8265E0,5.2204504E0,1.0560358E0,1.261745E0],"tree_param":{"num_deleted":"0","num_feature":"10","num_nodes":"41","size_leaf_vector":"1"}},{"base_weights":[-5.748115E-3,-2.2445695E-2,4.2659274E-1,7.901362E-1,9.437681E-3,1.1507028E0,4.018267E-1,1.1172321E0,-2.4779727E-1,-2.1341505E-2,1.3703781E0,1.2837753E0,-9.1328576E-2,1.4057178E0,-1.8996326E-2,8.9348084E-1,-4.3195128E-1,8.8820463E-1,1.7285664E0,2.690277E-1,1.9483635E0,8.869317E-1,-5.368562E-1,-1.802101E-2,1.7069528E0,1.1733931E0,-1.6964596E-2,1.2251778E-1,-5.535654E-1,7.937213E-2,3.020862E-3,2.4736146E-2,8.272614E-2,-8.959595E-3,5.0106056E-2,-1.2446116E-2,8.426072E-2,7.9989284E-2,-2.0415846E-2,7.8062125E-4,-2.2462772E-2,7.301291E-2,1.6949711E-3,7.8501746E-2,2.50125E-2,6.525187E-2,-1.4547457E-2,-1.1610404E-2,-2.2556242E-2],"categories":[],"categories_nodes":[],"categories_segments":[],"categories_sizes":[],"default_left":[0,0,0,0,0,0,0,0,0,0,0,0,0,0,0,0,0,0,0,0,0,0,0,0,0,0,0,0,0,0,0,0,0,0,0,0,0,0,0,0,0,0,0,0,0,0,0,0,0],"id":22,"left_children":[1,-1,3,5,7,9,11,13,15,-1,17,19,21,23,-1,25,27,29,31,33,35,37,39,-1,41,43,-1,45,47,-1,-1,-1,-1,-1,-1,-1,-1,-1,-1,-1,-1,-1,-1,-1,-1,-1,-1,-1,-1],"loss_changes":[1.4077226E2,0E0,4.9986122E1,2.4198463E1,4.4309647E1,3.432338E1,3.767033E1,1.4125572E1,2.6913815E1,0E0,1.2384613E1,2.040289E1,2.5018503E1,1.4780769E1,0E0,7.08566E0,7.4419403E0,3.228363E1,1.5756607E1,6.7985153E0,7.2988205E0,2.9005798E1,5.514984E-1,0E0,4.2118073E0,5.259886E0,0E0,1.5624277E1,8.10051E-2,0E0,0E0,0E0,0E0,0E0,0E0,0E0,0E0,0E0,0E0,0E0,0E0,0E0,0E0,0E0,0E0,0E0,0E0,0E0,0E0],"parents":[2147483647,0,0,2,2,3,3,4,4,5,5,6,6,7,7,8,8,10,10,11,11,12,12,13,13,15,15,16,16,17,17,18,18,19,19,20,20,21,21,22,22,24,24,25,25,27,27,28,28],"right_children":[2,-1,4,6,8,10,12,14,16,-1,18,20,22,24,-1,26,28,30,32,34,36,38,40,-1,42,44,-1,46,48,-1,-1,-1,-1,-1,-1,-1,-1,-1,-1,-1,-1,-1,-1,-1,-1,-1,-1,-1,-1],"split_conditions":[3.0267638E-1,-2.2445695E-2,7.4845123E-1,8.272982E-1,2.8E-1,2.8E-1,4.9E-1,9.517282E-1,6.5090644E-1,-2.1341505E-2,5E-1,5.0220716E-1,4.4762725E-1,6.7346513E-1,-1.8996326E-2,3.4E-1,4.9E-1,4E-1,6.631169E-1,9.2604065E-1,1.4310738E-1,9.152619E-1,4.6781802E-1,-1.802101E-2,8.955835E-1,9.071423E-1,-1.6964596E-2,7.8125024E-1,7.7487534E-1,7.937213E-2,3.020862E-3,2.4736146E-2,8.272614E-2,-8.959595E-3,5.0106056E-2,-1.2446116E-2,8.426072E-2,7.9989284E-2,-2.0415846E-2,7.8062125E-4,-2.2462772E-2,7.301291E-2,1.6949711E-3,7.8501746E-2,2.50125E-2,6.525187E-2,-1.4547457E-2,-1.1610404E-2,-2.2556242E-2],"split_indices":[3,0,3,0,6,6,6,0,0,0,6,3,3,0,0,7,6,9,0,0,1,0,3,0,5,3,0,0,3,0,0,0,0,0,0,0,0,0,0,0,0,0,0,0,0,0,0,0,0],"split_type":[0,0,0,0,0,0,0,0,0,0,0,0,0,0,0,0,0,0,0,0,0,0,0,0,0,0,0,0,0,0,0,0,0,0,0,0,0,0,0,0,0,0,0,0,0,0,0,0,0],"sum_hessian":[5.8426196E2,2.5560648E2,3.2865546E2,1.7513457E2,1.5352089E2,8.979326E1,8.534132E1,2.8300447E1,1.2522044E2,1.0195563E1,7.9597694E1,3.0031113E1,5.53102E1,2.405832E1,4.242127E0,1.686282E1,1.0835762E2,3.5410175E1,4.418752E1,1.2440597E1,1.7590517E1,1.6997488E1,3.8312714E1,3.2899134E0,2.0768406E1,1.3998416E1,2.8644037E0,1.9490068E1,8.886755E1,1.4462434E1,2.0947742E1,1.1011216E1,3.3176304E1,8.801393E0,3.6392038E0,1.0874186E0,1.6503098E1,9.222102E0,7.7753854E0,1.6383588E0,3.6674355E1,1.9299437E1,1.4689702E0,4.6796675E0,9.318748E0,4.1760054E0,1.5314063E1,4.4566827E0,8.441087E1],"tree_param":{"num_deleted":"0","num_feature":"10","num_nodes":"49","size_leaf_vector":"1"}},{"base_weights":[-5.382364E-3,-5.7039964E-1,7.549539E-1,-2.682697E-2,-1.6279237E-1,-5.9170328E-2,1.0673646E0,-3.5503885E-1,1.0749662E0,-4.7825226E-1,3.6063257E-1,6.987034E-1,1.1304867E0,-2.7433459E-2,-1.5306552E-1,1.4265982E-2,1.1164992E0,-6.238803E-1,-1.9560587E-1,-2.8343901E-2,7.7479196E-1,4.4032294E-2,5.171303E-1,1.0023347E0,4.8066538E-2,1.3305551E-1,-3.7914166E-1,4.6605654E-2,1.4414687E-2,5.3990155E-4,-6.4403796E-1,-3.0610874E-1,4.2037323E-1,4.6063972E-1,-1.669109E-1,1.0485383E0,5.479645E-1,-7.7597164E-3,5.6597704E-1,1.0127828E0,9.42836E-3,-1.2941949E-2,1.4233611E-2,7.488651E-4,-1.9027228E-2,-1.3956247E-2,-2.6545368E-2,-1.6567817E-2,1.6937932E-2,-4.126396E-3,3.411619E-2,2.8204761E-2,-6.4086686E-3,-2.134496E-2,9.876936E-4,2.2695545E-2,4.7801327E-2,7.2951894E-3,3.0097289E-2,3.2675467E-2,1.6731618E-2,4.072368E-2,1.4343439E-2],"categories":[],"categories_nodes":[],"categories_segments":[],"categories_sizes":[],"default_left":[0,0,0,0,0,0,0,0,0,0,0,0,0,0,0,0,0,0,0,0,0,0,0,0,0,0,0,0,0,0,0,0,0,0,0,0,0,0,0,0,0,0,0,0,0,0,0,0,0,0,0,0,0,0,0,0,0,0,0,0,0,0,0],"id":23,"left_children":[1,3,5,-1,7,9,11,13,15,17,19,21,23,-1,25,-1,27,29,31,33,35,-1,37,39,-1,41,43,-1,-1,-1,45,47,49,51,53,55,57,-1,59,61,-1,-1,-1,-1,-1,-1,-1,-1,-1,-1,-1,-1,-1,-1,-1,-1,-1,-1,-1,-1,-1,-1,-1],"loss_changes":[4.745445E2,2.5791595E1,1.1983612E2,0E0,3.0467493E1,2.3314812E1,7.130829E0,7.257019E0,1.1631203E-1,2.605194E0,1.0700254E1,3.2548618E0,1.4316101E0,0E0,4.5592475E0,0E0,1.6249084E-1,5.646343E-1,1.7613776E0,2.4582787E0,1.4210072E0,0E0,1.4287024E0,6.361389E-1,0E0,3.3201082E0,1.514451E0,0E0,0E0,0E0,1.11579895E-2,1.8247771E0,1.009584E0,1.3312781E0,1.9889585E0,2.7127743E-1,1.3331075E0,0E0,9.8432064E-1,8.132935E-3,0E0,0E0,0E0,0E0,0E0,0E0,0E0,0E0,0E0,0E0,0E0,0E0,0E0,0E0,0E0,0E0,0E0,0E0,0E0,0E0,0E0,0E0,0E0],"parents":[2147483647,0,0,1,1,2,2,4,4,5,5,6,6,7,7,8,8,9,9,10,10,11,11,12,12,14,14,16,16,17,17,18,18,19,19,20,20,22,22,23,23,25,25,26,26,30,30,31,31,32,32,33,33,34,34,35,35,36,36,38,38,39,39],"right_children":[2,4,6,-1,8,10,12,14,16,18,20,22,24,-1,26,-1,28,30,32,34,36,-1,38,40,-1,42,44,-1,-1,-1,46,48,50,52,54,56,58,-1,60,62,-1,-1,-1,-1,-1,-1,-1,-1,-1,-1,-1,-1,-1,-1,-1,-1,-1,-1,-1,-1,-1,-1,-1],"split_conditions":[5.212062E-1,3E-1,4.9E-1,-2.682697E-2,9.6E-1,8.5197335E-1,6.247599E-1,4.9E-1,4E-1,7.296848E-1,2.8E-1,5E-1,8.5743904E-1,-2.7433459E-2,5.0275135E-1,1.4265982E-2,7.8828925E-1,8.053779E-1,9.612562E-1,5E-1,8.7080127E-1,4.4032294E-2,8.140979E-1,8.748226E-1,4.8066538E-2,3.772786E-1,3.6022878E-1,4.6605654E-2,1.4414687E-2,5.3990155E-4,2.5110358E-1,9.340503E-1,4.5882806E-1,9.353898E-1,4.283532E-1,9.427525E-1,7E-1,-7.7597164E-3,4.8253867E-1,9.735579E-1,9.42836E-3,-1.2941949E-2,1.4233611E-2,7.488651E-4,-1.9027228E-2,-1.3956247E-2,-2.6545368E-2,-1.6567817E-2,1.6937932E-2,-4.126396E-3,3.411619E-2,2.8204761E-2,-6.4086686E-3,-2.134496E-2,9.876936E-4,2.2695545E-2,4.7801327E-2,7.2951894E-3,3.0097289E-2,3.2675467E-2,1.6731618E-2,4.072368E-2,1.4343439E-2],"split_indices":[3,9,6,0,8,3,3,6,9,3,6,6,3,0,1,0,5,2,2,9,2,0,2,1,0,3,5,0,0,0,5,5,5,2,1,3,9,0,5,5,0,0,0,0,0,0,0,0,0,0,0,0,0,0,0,0,0,0,0,0,0,0,0],"split_type":[0,0,0,0,0,0,0,0,0,0,0,0,0,0,0,0,0,0,0,0,0,0,0,0,0,0,0,0,0,0,0,0,0,0,0,0,0,0,0,0,0,0,0,0,0,0,0,0,0,0,0,0,0,0,0,0,0,0,0,0,0,0,0],"sum_hessian":[1.102609E3,6.326942E2,4.6991473E2,5.072591E2,1.2543514E2,1.3054153E2,3.393732E2,1.09189224E2,1.6245916E1,6.525719E1,6.528435E1,5.1377125E1,2.879961E2,4.04854E1,6.870382E1,1.4120198E0,1.4833897E1,4.227073E1,2.2986458E1,3.414608E1,3.1138266E1,1.440774E1,3.6969383E1,1.08223976E2,1.7977211E2,3.0506447E1,3.8197376E1,1.3429077E1,1.4048189E0,1.305992E0,4.0964737E1,1.9916595E1,3.0698624E0,7.026441E0,2.711964E1,1.2468297E1,1.866997E1,2.1852021E0,3.478418E1,1.0645209E2,1.7718856E0,9.855337E0,2.0651112E1,7.615973E0,3.0581402E1,3.7214954E0,3.724324E1,1.7723112E1,2.1934834E0,1.7333388E0,1.3365235E0,4.9439173E0,2.082524E0,8.694337E0,1.8425304E1,4.0475535E0,8.420743E0,7.3752036E0,1.1294765E1,1.1209234E1,2.3574947E1,1.0504334E2,1.4087509E0],"tree_param":{"num_deleted":"0","num_feature":"10","num_nodes":"63","size_leaf_vector":"1"}},{"base_weights":[-3.0489578E-3,3.321496E-2,-8.232946E-1,-6.749284E-1,-3.395106E-2,-1.0109007E-1,-7.608998E-1,-4.6542466E-1,3.879922E-1,-5.878187E-1,-3.3273064E-2,-2.2710156E-2,-8.290621E-3,9.421587E-3,2.835088E-2,-7.220765E-1,-7.367882E-2,-7.721041E-3,8.314542E-3,-5.7232934E-3,-3.026513E-2,1.4820058E-2,-2.5141332E-2],"categories":[],"categories_nodes":[],"categories_segments":[],"categories_sizes":[],"default_left":[0,0,0,0,0,0,0,0,0,0,0,0,0,0,0,0,0,0,0,0,0,0,0],"id":24,"left_children":[1,-1,3,5,-1,7,9,11,13,15,-1,-1,-1,17,-1,19,21,-1,-1,-1,-1,-1,-1],"loss_changes":[8.6118945E2,0E0,1.8274841E0,4.7549706E0,0E0,2.6600761E0,5.5485153E-1,1.04997516E-1,7.809468E-1,1.8881569E0,0E0,0E0,0E0,2.0035373E-1,0E0,3.3560562E-1,1.9425632E0,0E0,0E0,0E0,0E0,0E0,0E0],"parents":[2147483647,0,0,2,2,3,3,5,5,6,6,7,7,8,8,9,9,13,13,15,15,16,16],"right_children":[2,-1,4,6,-1,8,10,12,14,16,-1,-1,-1,18,-1,20,22,-1,-1,-1,-1,-1,-1],"split_conditions":[8.666667E-1,3.321496E-2,2.8E-1,6.778976E-1,-3.395106E-2,9.3333334E-1,8.130233E-1,6.253517E-1,6.745952E-1,6.823169E-1,-3.3273064E-2,-2.2710156E-2,-8.290621E-3,8E-1,2.835088E-2,1.4881217E-1,9.6666664E-1,-7.721041E-3,8.314542E-3,-5.7232934E-3,-3.026513E-2,1.4820058E-2,-2.5141332E-2],"split_indices":[4,0,6,0,0,4,0,0,5,1,0,0,0,9,0,1,4,0,0,0,0,0,0],"split_type":[0,0,0,0,0,0,0,0,0,0,0,0,0,0,0,0,0,0,0,0,0,0,0],"sum_hessian":[1.2577643E3,6.238647E2,6.3389954E2,9.69431E1,5.369564E2,1.2914927E1,8.4028175E1,7.4291005E0,5.4858265E0,2.7124512E1,5.6903664E1,4.461434E0,2.9676666E0,2.988407E0,2.4974194E0,2.1187393E1,5.9371185E0,1.4927833E0,1.4956236E0,1.4826883E0,1.9704704E1,3.481951E0,2.4551678E0],"tree_param":{"num_deleted":"0","num_feature":"10","num_nodes":"23","size_leaf_vector":"1"}},{"base_weights":[1.4732325E-2,6.7073107E-1,-3.63705E-1,-4.8245353E-1,1.3868487E0,-2.0653984E-2,-2.2049008E-1,-2.033933E-2,7.95392E-3,2.081416E0,7.1776617E-1,1.0399259E0,-5.0385433E-1,2.3943124E0,-1.8283442E-1,2.641042E0,-2.7839968E-1,3.1692457E0,-2.1315666E-1,-2.1863182E-1,-2.0690529E-2,7.132621E-2,2.7188387E0,8.639305E-3,-1.4807605E-2,1.2984194E-1,1.2206217E0,2.494952E-1,-1.9950952E-2,1.4328367E-1,4.8772782E-2,3.2156654E-2,-1.8927004E-2,8.532652E-3,-1.5664529E-2,-1.4723559E-2,2.7724287E-2,1.2439605E-1,2.5445776E-2,1.0735733E-1,-1.4865578E-2,5.070065E-2,-1.7058926E-2],"categories":[],"categories_nodes":[],"categories_segments":[],"categories_sizes":[],"default_left":[0,0,0,0,0,0,0,0,0,0,0,0,0,0,0,0,0,0,0,0,0,0,0,0,0,0,0,0,0,0,0,0,0,0,0,0,0,0,0,0,0,0,0],"id":25,"left_children":[1,3,5,7,9,-1,11,-1,-1,13,15,17,19,21,23,25,27,29,31,33,-1,35,37,-1,-1,-1,39,41,-1,-1,-1,-1,-1,-1,-1,-1,-1,-1,-1,-1,-1,-1,-1],"loss_changes":[6.425377E1,7.885687E1,3.4748516E0,7.5750446E-1,2.5769676E1,0E0,3.139711E1,0E0,0E0,2.0458351E1,6.090949E1,4.3881622E1,1.5940285E-1,1.8576431E1,4.057365E-1,5.3294754E0,2.6367433E0,5.123291E-1,3.3240378E0,4.5199555E-1,0E0,1.3695804E0,1.5793045E1,0E0,0E0,0E0,1.2256666E1,5.375992E0,0E0,0E0,0E0,0E0,0E0,0E0,0E0,0E0,0E0,0E0,0E0,0E0,0E0,0E0,0E0],"parents":[2147483647,0,0,1,1,2,2,3,3,4,4,6,6,9,9,10,10,11,11,12,12,13,13,14,14,15,15,16,16,17,17,18,18,19,19,21,21,22,22,26,26,27,27],"right_children":[2,4,6,8,10,-1,12,-1,-1,14,16,18,20,22,24,26,28,30,32,34,-1,36,38,-1,-1,-1,40,42,-1,-1,-1,-1,-1,-1,-1,-1,-1,-1,-1,-1,-1,-1,-1],"split_conditions":[4.9E-1,3.1806627E-1,3E-1,3.0267638E-1,6.6746145E-1,-2.0653984E-2,6.7346513E-1,-2.033933E-2,7.95392E-3,9.2E-1,7.321905E-1,5.4524016E-1,7.0685035E-1,6.7346513E-1,5.74765E-1,6.778976E-1,8.130233E-1,7.506747E-1,5.5203575E-1,4.029048E-1,-2.0690529E-2,2.8E-1,9.2604065E-1,8.639305E-3,-1.4807605E-2,1.2984194E-1,9.071423E-1,8.106048E-1,-1.9950952E-2,1.4328367E-1,4.8772782E-2,3.2156654E-2,-1.8927004E-2,8.532652E-3,-1.5664529E-2,-1.4723559E-2,2.7724287E-2,1.2439605E-1,2.5445776E-2,1.0735733E-1,-1.4865578E-2,5.070065E-2,-1.7058926E-2],"split_indices":[6,3,9,3,3,0,0,0,0,5,0,3,0,0,1,0,0,5,0,5,0,6,0,0,0,0,3,3,0,0,0,0,0,0,0,0,0,0,0,0,0,0,0],"split_type":[0,0,0,0,0,0,0,0,0,0,0,0,0,0,0,0,0,0,0,0,0,0,0,0,0,0,0,0,0,0,0,0,0,0,0,0,0,0,0,0,0,0,0],"sum_hessian":[2.5683963E2,9.367946E1,1.6316016E2,3.6012997E1,5.7666462E1,7.7718765E1,8.54414E1,3.4932045E1,1.0809536E0,2.7258677E1,3.0407784E1,1.5192886E1,7.024851E1,2.389868E1,3.3599973E0,9.81226E0,2.0595524E1,5.062017E0,1.013087E1,3.93125E0,6.631726E1,3.0789666E0,2.0819714E1,1.0251037E0,2.3348937E0,5.979926E0,3.8323333E0,6.0267096E0,1.4568815E1,3.4867487E0,1.575268E0,1.6367779E0,8.494092E0,1.0574759E0,2.8737743E0,2.0431046E0,1.0358618E0,1.7113197E1,3.7065146E0,1.6397591E0,2.192574E0,2.0556898E0,3.9710195E0],"tree_param":{"num_deleted":"0","num_feature":"10","num_nodes":"43","size_leaf_vector":"1"}},{"base_weights":[1.2270611E-2,-5.477408E-1,4.4676346E-1,-2.2356573E-2,-2.5907443E-3,7.938482E-1,-5.5688916E-4,3.6691185E-2,-1.836687E-2,9.741486E-1,3.8205895E-1,6.902791E-1,-3.3369836E-1,1.3020209E0,2.6911232E-1,1.5047363E0,-3.880919E-1,1.1219352E0,-3.4075367E-1,1.5287523E0,-4.9815696E-1,3.3738706E-1,1.4116526E0,7.131043E-2,-1.7738716E-1,1.39116E-1,1.7623111E0,3.765426E-1,-2.2118887E-2,-9.204994E-2,1.2969854E0,2.6294412E-2,-2.1439197E-2,1.1950217E-2,7.3946916E-2,1.20585E-1,-2.2473888E-2,-1.4905165E-2,5.8415096E-2,6.5837435E-2,3.0290887E-2,-1.6430123E-2,2.783387E-2,-1.7043006E-2,3.587785E-2,8.26742E-2,3.3361156E-2,5.4356072E-2,-1.7936919E-2,2.0742945E-2,-1.7507738E-2,1.2653947E-2,5.9426174E-2,6.1785027E-2,-2.006393E-2],"categories":[],"categories_nodes":[],"categories_segments":[],"categories_sizes":[],"default_left":[0,0,0,0,0,0,0,0,0,0,0,0,0,0,0,0,0,0,0,0,0,0,0,0,0,0,0,0,0,0,0,0,0,0,0,0,0,0,0,0,0,0,0,0,0,0,0,0,0,0,0,0,0,0,0],"id":26,"left_children":[1,3,5,-1,7,9,11,-1,-1,13,15,17,19,21,23,25,27,29,31,33,35,37,39,-1,41,43,45,47,-1,49,51,-1,-1,-1,-1,53,-1,-1,-1,-1,-1,-1,-1,-1,-1,-1,-1,-1,-1,-1,-1,-1,-1,-1,-1],"loss_changes":[1.4232866E2,1.555275E0,5.1137627E1,0E0,2.998965E0,1.3397766E1,3.357953E1,0E0,0E0,2.931749E1,5.0838097E1,2.1508532E1,3.091187E1,8.76062E0,2.8701525E1,8.14534E0,4.6546173E0,7.2795258E0,3.2315009E0,2.6872272E0,3.661848E0,8.699083E0,1.0729431E1,0E0,7.0804024E0,2.4684618E0,3.9253464E0,6.161441E0,0E0,1.3202301E0,4.99049E0,0E0,0E0,0E0,0E0,9.045805E0,0E0,0E0,0E0,0E0,0E0,0E0,0E0,0E0,0E0,0E0,0E0,0E0,0E0,0E0,0E0,0E0,0E0,0E0,0E0],"parents":[2147483647,0,0,1,1,2,2,4,4,5,5,6,6,9,9,10,10,11,11,12,12,13,13,14,14,15,15,16,16,17,17,18,18,19,19,20,20,21,21,22,22,24,24,25,25,26,26,27,27,29,29,30,30,35,35],"right_children":[2,4,6,-1,8,10,12,-1,-1,14,16,18,20,22,24,26,28,30,32,34,36,38,40,-1,42,44,46,48,-1,50,52,-1,-1,-1,-1,54,-1,-1,-1,-1,-1,-1,-1,-1,-1,-1,-1,-1,-1,-1,-1,-1,-1,-1,-1],"split_conditions":[8.0372834E-1,7.1789676E-1,7.7487534E-1,-2.2356573E-2,5.0220716E-1,8.7495595E-1,4.9E-1,3.6691185E-2,-1.836687E-2,9.4E-1,4.9E-1,8.8133675E-1,6.020212E-1,6.581871E-1,2E-1,3.918412E-1,3.918412E-1,6.253517E-1,8.681573E-1,5E-1,6.581871E-1,5.4524016E-1,6.4088595E-1,7.131043E-2,6.873182E-1,2.8E-1,7.0018214E-1,9.2604065E-1,-2.2118887E-2,6E-1,8.681573E-1,2.6294412E-2,-2.1439197E-2,1.1950217E-2,7.3946916E-2,8.5743904E-1,-2.2473888E-2,-1.4905165E-2,5.8415096E-2,6.5837435E-2,3.0290887E-2,-1.6430123E-2,2.783387E-2,-1.7043006E-2,3.587785E-2,8.26742E-2,3.3361156E-2,5.4356072E-2,-1.7936919E-2,2.0742945E-2,-1.7507738E-2,1.2653947E-2,5.9426174E-2,6.1785027E-2,-2.006393E-2],"split_indices":[2,0,3,0,3,0,6,0,0,8,6,0,0,0,9,3,3,0,3,9,0,3,3,0,3,6,3,0,0,9,3,0,0,0,0,3,0,0,0,0,0,0,0,0,0,0,0,0,0,0,0,0,0,0,0],"split_type":[0,0,0,0,0,0,0,0,0,0,0,0,0,0,0,0,0,0,0,0,0,0,0,0,0,0,0,0,0,0,0,0,0,0,0,0,0,0,0,0,0,0,0,0,0,0,0,0,0,0,0,0,0,0,0],"sum_hessian":[5.8293634E2,2.5456746E2,3.283689E2,2.4942982E2,5.1376295E0,1.8446452E2,1.4390437E2,1.3694966E0,3.768133E0,1.2734247E2,5.712205E1,4.6469166E1,9.743521E1,8.634266E1,4.0999805E1,2.2853638E1,3.4268414E1,3.269344E1,1.3775726E1,7.23257E0,9.0202644E1,9.227621E0,7.7115036E1,8.657577E0,3.2342228E1,3.870891E0,1.8982746E1,5.850928E0,2.8417486E1,4.179872E0,2.8513567E1,1.8663992E0,1.19093275E1,1.8920519E0,5.3405185E0,8.335091E0,8.186755E1,6.0626574E0,3.1649637E0,5.5668983E1,2.1446054E1,2.593965E1,6.4025793E0,2.4680128E0,1.4028785E0,1.336991E1,5.612837E0,2.3752663E0,3.4756618E0,1.3299794E0,2.8498929E0,5.032595E0,2.348097E1,2.0835993E0,6.251491E0],"tree_param":{"num_deleted":"0","num_feature":"10","num_nodes":"55","size_leaf_vector":"1"}},{"base_weights":[-1.52797E-2,-5.497024E-1,7.138734E-1,-6.2452036E-1,4.854799E-1,-5.7013195E-2,1.0207231E0,-2.6553622E-2,-3.1184584E-1,-2.6457122E-2,9.964424E-1,-4.526972E-1,6.011388E-1,-3.4972283E-1,1.0696157E0,-6.4155465E-1,1.0603901E0,-1.410057E-3,1.04681E0,-2.7365405E-2,-1.7583787E-1,-8.675585E-2,1.1820445E0,3.291335E-2,-2.5924418E-2,6.6781765E-1,1.126646E0,-2.837005E-2,-2.2285385E-1,1.3532409E-2,4.469978E-2,5.3695095E-1,1.124739E0,-2.6650209E-2,3.397542E-1,-4.6049988E-1,4.0726486E-1,1.6274197E-2,4.93798E-2,4.3273345E-2,1.1725287E0,6.7724174E-1,4.670162E-2,-2.4232842E-2,1.9956255E-2,-1.864637E-2,3.8697705E-2,1.4506446E-2,4.6233278E-2,-2.543209E-2,4.623804E-2,8.982735E-3,-2.3117417E-2,-1.542639E-2,3.6390673E-2,4.230707E-2,-2.230487E-2,1.5849942E-2,4.81097E-2,-4.9502943E-3,4.520095E-2],"categories":[],"categories_nodes":[],"categories_segments":[],"categories_sizes":[],"default_left":[0,0,0,0,0,0,0,0,0,0,0,0,0,0,0,0,0,0,0,0,0,0,0,0,0,0,0,0,0,0,0,0,0,0,0,0,0,0,0,0,0,0,0,0,0,0,0,0,0,0,0,0,0,0,0,0,0,0,0,0,0],"id":27,"left_children":[1,3,5,7,9,11,13,-1,15,-1,17,19,21,23,25,27,29,-1,31,-1,33,35,37,-1,-1,39,41,-1,43,-1,-1,45,47,-1,49,51,53,-1,-1,55,57,59,-1,-1,-1,-1,-1,-1,-1,-1,-1,-1,-1,-1,-1,-1,-1,-1,-1,-1,-1],"loss_changes":[4.283989E2,4.9436234E1,1.1004817E2,7.0720215E0,2.6047073E1,3.4995403E1,2.2662964E1,0E0,3.145655E1,0E0,1.6150036E0,5.251972E0,2.0279688E1,4.806134E0,6.61322E0,1.4141731E0,1.8085575E-1,0E0,5.4785156E-1,0E0,1.0219479E1,4.6279454E0,6.135788E-1,0E0,0E0,1.3317007E1,4.3556213E0,0E0,2.8392117E0,0E0,0E0,2.936924E0,1.5498924E-1,0E0,1.6602806E1,1.2690308E0,4.6894016E0,0E0,0E0,1.2776159E1,7.262421E-2,9.474272E0,0E0,0E0,0E0,0E0,0E0,0E0,0E0,0E0,0E0,0E0,0E0,0E0,0E0,0E0,0E0,0E0,0E0,0E0,0E0],"parents":[2147483647,0,0,1,1,2,2,3,3,4,4,5,5,6,6,8,8,10,10,11,11,12,12,13,13,14,14,15,15,16,16,18,18,20,20,21,21,22,22,25,25,26,26,28,28,31,31,32,32,34,34,35,35,36,36,39,39,40,40,41,41],"right_children":[2,4,6,8,10,12,14,-1,16,-1,18,20,22,24,26,28,30,-1,32,-1,34,36,38,-1,-1,40,42,-1,44,-1,-1,46,48,-1,50,52,54,-1,-1,56,58,60,-1,-1,-1,-1,-1,-1,-1,-1,-1,-1,-1,-1,-1,-1,-1,-1,-1,-1,-1],"split_conditions":[5.212062E-1,8.622802E-1,4.9E-1,6.778976E-1,4.9E-1,8.503964E-1,5.842208E-1,-2.6553622E-2,8.933333E-1,-2.6457122E-2,8.8133675E-1,8.414026E-1,8.757742E-1,5E-1,7.018658E-1,5.0220716E-1,1.2038303E-1,-1.410057E-3,3.4946436E-1,-2.7365405E-2,2.8E-1,2.8E-1,8.8133675E-1,3.291335E-2,-2.5924418E-2,8.5743904E-1,5.723858E-1,-2.837005E-2,8.5E-1,1.3532409E-2,4.469978E-2,9.2604065E-1,8.987072E-1,-2.6650209E-2,7.6412255E-1,5E-1,6.312809E-1,1.6274197E-2,4.93798E-2,5E-1,5.9438336E-1,8.205812E-1,4.670162E-2,-2.4232842E-2,1.9956255E-2,-1.864637E-2,3.8697705E-2,1.4506446E-2,4.6233278E-2,-2.543209E-2,4.623804E-2,8.982735E-3,-2.3117417E-2,-1.542639E-2,3.6390673E-2,4.230707E-2,-2.230487E-2,1.5849942E-2,4.81097E-2,-4.9502943E-3,4.520095E-2],"split_indices":[3,0,6,0,6,0,0,0,7,0,0,3,3,6,0,3,1,0,3,0,6,6,0,0,0,3,3,0,0,0,0,0,0,0,0,9,3,0,0,6,0,0,0,0,0,0,0,0,0,0,0,0,0,0,0,0,0,0,0,0,0],"split_type":[0,0,0,0,0,0,0,0,0,0,0,0,0,0,0,0,0,0,0,0,0,0,0,0,0,0,0,0,0,0,0,0,0,0,0,0,0,0,0,0,0,0,0,0,0,0,0,0,0,0,0,0,0,0,0,0,0,0,0,0,0],"sum_hessian":[1.0973651E3,6.333824E2,4.639828E2,5.910601E2,4.2322247E1,1.3233556E2,3.3164722E2,5.2403705E2,6.7023094E1,1.2953132E1,2.9369114E1,8.284245E1,4.9493095E1,1.1212446E1,3.2043478E2,5.4468384E1,1.2554709E1,1.3810401E0,2.7988073E1,4.4321365E1,3.8521088E1,2.304931E1,2.6443785E1,1.9179581E0,9.294488E0,4.1408432E1,2.7902634E2,4.629014E1,8.178247E0,1.4275751E0,1.1127134E1,4.756752E0,2.3231321E1,1.9592764E1,1.8928324E1,1.3160661E1,9.88865E0,2.2307935E0,2.4212992E1,1.8992409E1,2.2416025E1,2.4737492E1,2.5428886E2,5.448107E0,2.7301407E0,1.40351E0,3.353242E0,1.4071155E0,2.1824207E1,8.723094E0,1.0205231E1,1.7923858E0,1.1368275E1,3.9260495E0,5.9626007E0,6.7824388E0,1.22099695E1,1.3685592E0,2.1047464E1,9.195957E0,1.5541534E1],"tree_param":{"num_deleted":"0","num_feature":"10","num_nodes":"61","size_leaf_vector":"1"}},{"base_weights":[-7.915271E-3,3.2468352E-2,-7.99425E-1,-2.4313167E-1,-8.073114E-1,1.7638806E-2,-5.1495457E-1,-6.757519E-1,-3.3274718E-2,1.4146136E-3,-2.8317936E-2,1.0580397E-1,-7.5946456E-1,3.210169E-2,-2.9625773E-2,-7.784427E-2,-8.2553685E-1,3.1700645E-2,-2.9128995E-2,-1.336078E-2,-3.4196053E-2],"categories":[],"categories_nodes":[],"categories_segments":[],"categories_sizes":[],"default_left":[0,0,0,0,0,0,0,0,0,0,0,0,0,0,0,0,0,0,0,0,0],"id":28,"left_children":[1,-1,3,5,7,-1,9,11,-1,-1,-1,13,15,-1,-1,17,19,-1,-1,-1,-1],"loss_changes":[8.098862E2,0E0,2.5899963E0,2.144003E0,1.4595032E0,0E0,8.5755754E-1,6.869049E0,0E0,0E0,0E0,7.032361E0,4.1621513E0,0E0,0E0,5.896461E0,9.47731E-1,0E0,0E0,0E0,0E0],"parents":[2147483647,0,0,2,2,3,3,4,4,6,6,7,7,11,11,12,12,15,15,16,16],"right_children":[2,-1,4,6,8,-1,10,12,-1,-1,-1,14,16,-1,-1,18,20,-1,-1,-1,-1],"split_conditions":[8.666667E-1,3.2468352E-2,3.1806627E-1,6.778976E-1,2.8E-1,1.7638806E-2,2.8E-1,6.0792077E-1,-3.3274718E-2,1.4146136E-3,-2.8317936E-2,7.18384E-1,4.1787553E-1,3.210169E-2,-2.9625773E-2,8.130233E-1,6.7346513E-1,3.1700645E-2,-2.9128995E-2,-1.336078E-2,-3.4196053E-2],"split_indices":[4,0,3,0,6,0,6,0,0,0,0,3,3,0,0,0,0,0,0,0,0],"split_type":[0,0,0,0,0,0,0,0,0,0,0,0,0,0,0,0,0,0,0,0,0],"sum_hessian":[1.2463977E3,6.1231146E2,6.3408624E2,9.308558E0,6.2477765E2,2.4699981E0,6.83856E0,1.0276125E2,5.220164E2,1.9876237E0,4.8509364E0,9.91637E0,9.284488E1,5.4676476E0,4.448723E0,8.397023E0,8.444786E1,3.4977195E0,4.899304E0,5.4583426E0,7.898952E1],"tree_param":{"num_deleted":"0","num_feature":"10","num_nodes":"21","size_leaf_vector":"1"}},{"base_weights":[7.6051033E-3,6.2359184E-1,-3.5453308E-1,-2.0283252E-2,1.2442296E0,-2.0605462E-2,-2.167667E-1,1.9568527E0,5.1399827E-1,8.032338E-1,-4.6209908E-1,-1.3658515E-2,2.1004844E0,1.9738243E0,-3.6290848E-1,2.1851091E0,-2.927377E-1,5.9557237E-2,-2.066745E-2,2.3236225E0,6.7855483E-1,9.599594E-2,1.0178983E0,6.74514E-2,-1.9947328E-2,-1.4373937E-2,1.2779753E-1,1.7249558E-2,-1.8810654E-2,6.728552E-2,-1.7878491E-2,1.13532044E-1,6.0756426E-2,7.228212E-2,-1.5493676E-2,8.8962145E-2,-1.5201758E-2,3.1952515E-2,-1.625084E-2],"categories":[],"categories_nodes":[],"categories_segments":[],"categories_sizes":[],"default_left":[0,0,0,0,0,0,0,0,0,0,0,0,0,0,0,0,0,0,0,0,0,0,0,0,0,0,0,0,0,0,0,0,0,0,0,0,0,0,0],"id":29,"left_children":[1,3,5,-1,7,-1,9,11,13,15,17,-1,19,21,23,25,27,29,-1,31,33,-1,35,37,-1,-1,-1,-1,-1,-1,-1,-1,-1,-1,-1,-1,-1,-1,-1],"loss_changes":[5.7113674E1,6.7147385E1,3.4561768E0,0E0,3.0990356E1,0E0,2.2523357E1,1.0872131E1,4.1327408E1,2.7187145E1,2.0808907E0,0E0,7.653946E0,2.469307E0,1.2410586E0,2.1373192E1,1.5725818E0,7.093969E0,0E0,5.9328613E0,7.145609E0,0E0,1.0042782E1,2.3466918E0,0E0,0E0,0E0,0E0,0E0,0E0,0E0,0E0,0E0,0E0,0E0,0E0,0E0,0E0,0E0],"parents":[2147483647,0,0,1,1,2,2,4,4,6,6,7,7,8,8,9,9,10,10,12,12,13,13,14,14,15,15,16,16,17,17,19,19,20,20,22,22,23,23],"right_children":[2,4,6,-1,8,-1,10,12,14,16,18,-1,20,22,24,26,28,30,-1,32,34,-1,36,38,-1,-1,-1,-1,-1,-1,-1,-1,-1,-1,-1,-1,-1,-1,-1],"split_conditions":[4.9E-1,8.018829E-1,8.018829E-1,-2.0283252E-2,6.6746145E-1,-2.0605462E-2,6.631169E-1,6.312999E-1,7.544952E-1,5.4524016E-1,3.846191E-1,-1.3658515E-2,9.2604065E-1,6.778976E-1,8.130233E-1,5E-1,5.5203575E-1,7.5133884E-1,-2.066745E-2,5.5239934E-1,4.2292362E-1,9.599594E-2,8.5197335E-1,7.925309E-1,-1.9947328E-2,-1.4373937E-2,1.2779753E-1,1.7249558E-2,-1.8810654E-2,6.728552E-2,-1.7878491E-2,1.13532044E-1,6.0756426E-2,7.228212E-2,-1.5493676E-2,8.8962145E-2,-1.5201758E-2,3.1952515E-2,-1.625084E-2],"split_indices":[6,2,2,0,3,0,0,0,0,3,3,0,0,0,0,6,0,0,0,1,3,0,3,3,0,0,0,0,0,0,0,0,0,0,0,0,0,0,0],"split_type":[0,0,0,0,0,0,0,0,0,0,0,0,0,0,0,0,0,0,0,0,0,0,0,0,0,0,0,0,0,0,0,0,0,0,0,0,0,0,0],"sum_hessian":[2.54041E2,9.378811E1,1.6025288E2,3.330191E1,6.0486202E1,7.272883E1,8.752406E1,2.9762043E1,3.072416E1,1.6528917E1,7.099515E1,1.6695461E0,2.8092497E1,1.1060446E1,1.9663713E1,6.8713226E0,9.657596E0,6.716701E0,6.427844E1,2.3733896E1,4.358601E0,6.6056395E0,4.454807E0,4.8365865E0,1.4827127E1,2.1352642E0,4.7360587E0,1.6203893E0,8.037207E0,1.045757E0,5.670944E0,1.2934272E1,1.0799624E1,1.7793798E0,2.579221E0,2.0742126E0,2.3805943E0,1.6315119E0,3.2050743E0],"tree_param":{"num_deleted":"0","num_feature":"10","num_nodes":"39","size_leaf_vector":"1"}},{"base_weights":[-2.844594E-2,-5.528937E-1,3.636202E-1,-2.2267053E-2,-8.97743E-4,6.6057295E-1,-1.8573323E-2,8.9643425E-1,3.4193563E-1,2.6515666E-1,-3.4005195E-1,1.1854346E0,2.1322858E-1,1.3468683E0,1.6913795E-1,3.7217414E-1,-2.0415641E-2,-2.223072E-2,8.075028E-2,2.9057592E-1,1.3290862E0,6.618775E-2,-3.5620102E-1,1.4342852E0,1.746552E-2,3.0715686E-1,-2.0875448E-2,1.6206205E-1,9.9839777E-1,6.006338E-1,-2.0675654E-2,-1.6625255E-2,6.853122E-2,5.9942555E-2,2.3509E-2,9.770215E-4,-2.1763021E-2,3.0313231E-2,6.815219E-2,8.107323E-4,3.4006327E-2,6.959246E-2,-1.0153438E-3,-1.8790053E-2,5.876187E-2,5.526483E-2,-5.5535277E-3],"categories":[],"categories_nodes":[],"categories_segments":[],"categories_sizes":[],"default_left":[0,0,0,0,0,0,0,0,0,0,0,0,0,0,0,0,0,0,0,0,0,0,0,0,0,0,0,0,0,0,0,0,0,0,0,0,0,0,0,0,0,0,0,0,0,0,0],"id":30,"left_children":[1,3,5,-1,-1,7,9,11,13,15,17,19,21,23,25,27,-1,-1,29,31,33,-1,35,37,-1,39,-1,41,43,45,-1,-1,-1,-1,-1,-1,-1,-1,-1,-1,-1,-1,-1,-1,-1,-1,-1],"loss_changes":[1.2170093E2,4.9549103E-1,3.845572E1,0E0,0E0,1.402153E1,1.3688189E1,2.1256638E1,1.4134945E1,6.8090577E0,6.4288826E0,9.426567E0,2.8170723E1,3.279209E-1,7.0004683E0,9.135296E0,0E0,0E0,7.987194E0,1.2606895E1,7.3485107E0,0E0,1.7946067E0,6.237583E-1,0E0,9.393309E0,0E0,1.604414E1,1.2822231E1,8.08989E0,0E0,0E0,0E0,0E0,0E0,0E0,0E0,0E0,0E0,0E0,0E0,0E0,0E0,0E0,0E0,0E0,0E0],"parents":[2147483647,0,0,1,1,2,2,5,5,6,6,7,7,8,8,9,9,10,10,11,11,12,12,13,13,14,14,15,15,18,18,19,19,20,20,22,22,23,23,25,25,27,27,28,28,29,29],"right_children":[2,4,6,-1,-1,8,10,12,14,16,18,20,22,24,26,28,-1,-1,30,32,34,-1,36,38,-1,40,-1,42,44,46,-1,-1,-1,-1,-1,-1,-1,-1,-1,-1,-1,-1,-1,-1,-1,-1,-1],"split_conditions":[8.018829E-1,7.9766804E-1,7.7487534E-1,-2.2267053E-2,-8.97743E-4,8.5E-1,8.468398E-1,3.4E-1,1.6666667E-1,8.933333E-1,3.4E-1,6.581871E-1,2E-1,8.2183486E-1,8.933333E-1,3.4E-1,-2.0415641E-2,-2.223072E-2,8.933333E-1,6.079206E-1,6.737677E-1,6.618775E-2,7E-1,4.8790526E-1,1.746552E-2,3.4E-1,-2.0875448E-2,5.842208E-1,6.7346513E-1,8.987072E-1,-2.0675654E-2,-1.6625255E-2,6.853122E-2,5.9942555E-2,2.3509E-2,9.770215E-4,-2.1763021E-2,3.0313231E-2,6.815219E-2,8.107323E-4,3.4006327E-2,6.959246E-2,-1.0153438E-3,-1.8790053E-2,5.876187E-2,5.526483E-2,-5.5535277E-3],"split_indices":[2,0,3,0,0,0,0,7,7,7,7,0,9,5,7,7,0,0,7,3,3,0,9,5,0,7,0,0,0,0,0,0,0,0,0,0,0,0,0,0,0,0,0,0,0,0,0],"split_type":[0,0,0,0,0,0,0,0,0,0,0,0,0,0,0,0,0,0,0,0,0,0,0,0,0,0,0,0,0,0,0,0,0,0,0,0,0,0,0,0,0,0,0,0,0,0,0],"sum_hessian":[5.899004E2,2.5217201E2,3.377284E2,2.5033742E2,1.8346062E0,1.8964873E2,1.4807967E2,1.0793781E2,8.171092E1,7.875098E1,6.932869E1,7.533537E1,3.2602444E1,1.0991809E1,7.071912E1,6.96589E1,9.092085E0,4.5621155E1,2.3707535E1,1.0838871E1,6.44965E1,8.692415E0,2.3910028E1,9.503382E0,1.4884272E0,5.9408836E1,1.1310276E1,5.310108E1,1.6557812E1,1.2675882E1,1.1031652E1,7.716423E0,3.1224477E0,5.166446E1,1.2832039E1,8.189138E0,1.5720889E1,3.7936544E0,5.709727E0,3.9550243E1,1.9858593E1,4.759361E0,4.834172E1,4.019921E0,1.2537891E1,5.74255E0,6.9333324E0],"tree_param":{"num_deleted":"0","num_feature":"10","num_nodes":"47","size_leaf_vector":"1"}},{"base_weights":[-5.3624758E-3,-5.498499E-1,6.925257E-1,-6.263459E-1,4.6753448E-1,-5.405283E-2,9.832375E-1,-2.6288547E-2,-3.5328087E-1,-2.6430931E-2,1.0089552E0,-3.9386004E-1,5.5233157E-1,-6.2215384E-2,1.0338297E0,-6.8489957E-1,4.2684E-2,3.0355316E-1,1.0856328E0,-2.715689E-2,-9.4956E-2,-8.01697E-2,4.7196522E-2,3.3481535E-2,-4.944395E-1,6.358759E-1,1.0817515E0,-3.6787194E-1,-2.8136108E-2,2.9724015E-2,-7.004708E-3,1.2558705E-2,4.4711832E-2,-5.8936167E-1,5.30766E-1,-4.2319793E-1,4.4366655E-1,-2.5718676E-2,8.989133E-3,-2.8179593E-2,4.43292E-2,7.6035E-1,4.524759E-2,9.3384023E-4,-2.065226E-2,-2.6527368E-2,9.397916E-3,-2.4403403E-2,4.5710158E-2,-2.5615543E-2,3.5327135E-4,-1.5188434E-2,3.947419E-2,3.9301105E-2,-2.394545E-2,-3.5892741E-3,4.564311E-2],"categories":[],"categories_nodes":[],"categories_segments":[],"categories_sizes":[],"default_left":[0,0,0,0,0,0,0,0,0,0,0,0,0,0,0,0,0,0,0,0,0,0,0,0,0,0,0,0,0,0,0,0,0,0,0,0,0,0,0,0,0,0,0,0,0,0,0,0,0,0,0,0,0,0,0,0,0],"id":31,"left_children":[1,3,5,7,9,11,13,-1,15,-1,17,19,21,23,25,27,-1,29,31,-1,33,35,-1,-1,37,39,41,43,-1,-1,-1,-1,-1,45,47,49,51,-1,-1,53,-1,55,-1,-1,-1,-1,-1,-1,-1,-1,-1,-1,-1,-1,-1,-1,-1],"loss_changes":[4.1480182E2,4.8014908E1,1.03887985E2,4.578537E0,2.7211994E1,2.804076E1,1.827951E1,0E0,2.9052292E1,0E0,1.2800846E0,7.358659E0,1.9508984E1,6.959116E0,5.577759E0,3.0757904E-2,0E0,1.0360681E0,3.055954E-1,0E0,1.382873E1,4.7331395E0,0E0,0E0,1.426486E0,1.1868357E1,3.7766113E0,2.918446E-1,0E0,0E0,0E0,0E0,0E0,1.6698112E0,1.4528355E1,1.4879937E0,5.0699162E0,0E0,0E0,1.0194331E1,0E0,1.3680355E1,0E0,0E0,0E0,0E0,0E0,0E0,0E0,0E0,0E0,0E0,0E0,0E0,0E0,0E0,0E0],"parents":[2147483647,0,0,1,1,2,2,3,3,4,4,5,5,6,6,8,8,10,10,11,11,12,12,13,13,14,14,15,15,17,17,18,18,20,20,21,21,24,24,25,25,26,26,27,27,33,33,34,34,35,35,36,36,39,39,41,41],"right_children":[2,4,6,8,10,12,14,-1,16,-1,18,20,22,24,26,28,-1,30,32,-1,34,36,-1,-1,38,40,42,44,-1,-1,-1,-1,-1,46,48,50,52,-1,-1,54,-1,56,-1,-1,-1,-1,-1,-1,-1,-1,-1,-1,-1,-1,-1,-1,-1],"split_conditions":[5.212062E-1,8.8133675E-1,4.9E-1,7.0685035E-1,4.9E-1,8.8133675E-1,5.9438336E-1,-2.6288547E-2,8.933333E-1,-2.6430931E-2,9.152619E-1,8.5743904E-1,8.757742E-1,5E-1,5.977317E-1,2.0802407E-1,4.2684E-2,7E-1,1.09808505E-1,-2.715689E-2,2.8E-1,2.8E-1,4.7196522E-2,3.3481535E-2,8.194613E-1,8.012367E-1,7.018658E-1,7E-1,-2.8136108E-2,2.9724015E-2,-7.004708E-3,1.2558705E-2,4.4711832E-2,8.503964E-1,7.6412255E-1,7.5657266E-1,6.312809E-1,-2.5718676E-2,8.989133E-3,5E-1,4.43292E-2,8.3708405E-1,4.524759E-2,9.3384023E-4,-2.065226E-2,-2.6527368E-2,9.397916E-3,-2.4403403E-2,4.5710158E-2,-2.5615543E-2,3.5327135E-4,-1.5188434E-2,3.947419E-2,3.9301105E-2,-2.394545E-2,-3.5892741E-3,4.564311E-2],"split_indices":[3,0,6,0,6,0,0,0,7,0,0,3,3,6,3,5,0,9,1,0,6,6,0,0,5,0,0,9,0,0,0,0,0,0,0,3,3,0,0,6,0,3,0,0,0,0,0,0,0,0,0,0,0,0,0,0,0],"split_type":[0,0,0,0,0,0,0,0,0,0,0,0,0,0,0,0,0,0,0,0,0,0,0,0,0,0,0,0,0,0,0,0,0,0,0,0,0,0,0,0,0,0,0,0,0,0,0,0,0,0,0,0,0,0,0,0,0],"sum_hessian":[1.0896064E3,6.121913E2,4.774152E2,5.6973773E2,4.2453545E1,1.3402892E2,3.433863E2,5.1061044E2,5.912727E1,1.3694367E1,2.8759176E1,8.6119514E1,4.7909393E1,1.5839729E1,3.2754657E2,4.835545E1,1.077182E1,3.3058205E0,2.5453356E1,4.3429657E1,4.2689857E1,2.4295595E1,2.36138E1,4.837857E0,1.1001872E1,3.6737595E1,2.9080896E2,3.8181431E0,4.4537308E1,1.4353566E0,1.870464E0,1.4490488E0,2.4004307E1,2.3879728E1,1.881013E1,1.4797645E1,9.4979515E0,9.206451E0,1.795421E0,1.5661016E1,2.1076576E1,4.095265E1,2.4985632E2,1.2819973E0,2.5361457E0,2.2096317E1,1.7834095E0,6.568473E0,1.2241657E1,9.526292E0,5.2713523E0,3.8949115E0,5.6030397E0,5.389612E0,1.0271404E1,1.2904357E1,2.8048292E1],"tree_param":{"num_deleted":"0","num_feature":"10","num_nodes":"57","size_leaf_vector":"1"}},{"base_weights":[-2.8930288E-3,3.1775035E-2,-7.758696E-1,-4.5184106E-2,-7.826802E-1,2.4557697E-2,-3.4136316E-1,-6.291107E-1,-3.2417245E-2,9.475867E-3,-2.494159E-2,7.711198E-2,-7.6320136E-1,7.47939E-1,-3.1083206E-2,-2.9363006E-1,-3.300176E-2,3.273172E-2,8.420854E-3,3.0170254E-2,-3.0482091E-2],"categories":[],"categories_nodes":[],"categories_segments":[],"categories_sizes":[],"default_left":[0,0,0,0,0,0,0,0,0,0,0,0,0,0,0,0,0,0,0,0,0],"id":32,"left_children":[1,-1,3,5,7,-1,9,11,-1,-1,-1,13,15,17,-1,19,-1,-1,-1,-1,-1],"loss_changes":[7.625025E2,0E0,3.0908508E0,1.5492979E0,2.1424255E0,0E0,1.0251913E0,9.502106E0,0E0,0E0,0E0,1.0219752E1,2.1941338E0,2.0322514E-1,0E0,6.1293726E0,0E0,0E0,0E0,0E0,0E0],"parents":[2147483647,0,0,2,2,3,3,4,4,6,6,7,7,11,11,12,12,13,13,15,15],"right_children":[2,-1,4,6,8,-1,10,12,-1,-1,-1,14,16,18,-1,20,-1,-1,-1,-1,-1],"split_conditions":[8.666667E-1,3.1775035E-2,3.1046218E-1,6.778976E-1,2.8E-1,2.4557697E-2,4.9E-1,6.7346513E-1,-3.2417245E-2,9.475867E-3,-2.494159E-2,7.18384E-1,4.1787553E-1,7.8828925E-1,-3.1083206E-2,8.130233E-1,-3.300176E-2,3.273172E-2,8.420854E-3,3.0170254E-2,-3.0482091E-2],"split_indices":[4,0,3,0,6,0,6,0,0,0,0,3,3,5,0,0,0,0,0,0,0],"split_type":[0,0,0,0,0,0,0,0,0,0,0,0,0,0,0,0,0,0,0,0,0],"sum_hessian":[1.2352859E3,6.080741E2,6.272118E2,5.8626375E0,