{"learner":{"attributes":{"scikit_learn":"{\"_estimator_type\": \"classifier\"}"},"feature_names":[],"feature_types":[],"gradient_booster":{"model":{"cats":{"enc":[],"feature_segments":[],"sorted_idx":[]},"gbtree_model_param":{"num_parallel_tree":"1","num_trees":"1200"},"iteration_indptr":[0,4,8,12,16,20,24,28,32,36,40,44,48,52,56,60,64,68,72,76,80,84,88,92,96,100,104,108,112,116,120,124,128,132,136,140,144,148,152,156,160,164,168,172,176,180,184,188,192,196,200,204,208,212,216,220,224,228,232,236,240,244,248,252,256,260,264,268,272,276,280,284,288,292,296,300,304,308,312,316,320,324,328,332,336,340,344,348,352,356,360,364,368,372,376,380,384,388,392,396,400,404,408,412,416,420,424,428,432,436,440,444,448,452,456,460,464,468,472,476,480,484,488,492,496,500,504,508,512,516,520,524,528,532,536,540,544,548,552,556,560,564,568,572,576,580,584,588,592,596,600,604,608,612,616,620,624,628,632,636,640,644,648,652,656,660,664,668,672,676,680,684,688,692,696,700,704,708,712,716,720,724,728,732,736,740,744,748,752,756,760,764,768,772,776,780,784,788,792,796,800,804,808,812,816,820,824,828,832,836,840,844,848,852,856,860,864,868,872,876,880,884,888,892,896,900,904,908,912,916,920,924,928,932,936,940,944,948,952,956,960,964,968,972,976,980,984,988,992,996,1000,1004,1008,1012,1016,1020,1024,1028,1032,1036,1040,1044,1048,1052,1056,1060,1064,1068,1072,1076,1080,1084,1088,1092,1096,1100,1104,1108,1112,1116,1120,1124,1128,1132,1136,1140,1144,1148,1152,1156,1160,1164,1168,1172,1176,1180,1184,1188,1192,1196,1200],"tree_info":[0,1,2,3,0,1,2,3,0,1,2,3,0,1,2,3,0,1,2,3,0,1,2,3,0,1,2,3,0,1,2,3,0,1,2,3,0,1,2,3,0,1,2,3,0,1,2,3,0,1,2,3,0,1,2,3,0,1,2,3,0,1,2,3,0,1,2,3,0,1,2,3,0,1,2,3,0,1,2,3,0,1,2,3,0,1,2,3,0,1,2,3,0,1,2,3,0,1,2,3,0,1,2,3,0,1,2,3,0,1,2,3,0,1,2,3,0,1,2,3,0,1,2,3,0,1,2,3,0,1,2,3,0,1,2,3,0,1,2,3,0,1,2,3,0,1,2,3,0,1,2,3,0,1,2,3,0,1,2,3,0,1,2,3,0,1,2,3,0,1,2,3,0,1,2,3,0,1,2,3,0,1,2,3,0,1,2,3,0,1,2,3,0,1,2,3,0,1,2,3,0,1,2,3,0,1,2,3,0,1,2,3,0,1,2,3,0,1,2,3,0,1,2,3,0,1,2,3,0,1,2,3,0,1,2,3,0,1,2,3,0,1,2,3,0,1,2,3,0,1,2,3,0,1,2,3,0,1,2,3,0,1,2,3,0,1,2,3,0,1,2,3,0,1,2,3,0,1,2,3,0,1,2,3,0,1,2,3,0,1,2,3,0,1,2,3,0,1,2,3,0,1,2,3,0,1,2,3,0,1,2,3,0,1,2,3,0,1,2,3,0,1,2,3,0,1,2,3,0,1,2,3,0,1,2,3,0,1,2,3,0,1,2,3,0,1,2,3,0,1,2,3,0,1,2,3,0,1,2,3,0,1,2,3,0,1,2,3,0,1,2,3,0,1,2,3,0,1,2,3,0,1,2,3,0,1,2,3,0,1,2,3,0,1,2,3,0,1,2,3,0,1,2,3,0,1,2,3,0,1,2,3,0,1,2,3,0,1,2,3,0,1,2,3,0,1,2,3,0,1,2,3,0,1,2,3,0,1,2,3,0,1,2,3,0,1,2,3,0,1,2,3,0,1,2,3,0,1,2,3,0,1,2,3,0,1,2,3,0,1,2,3,0,1,2,3,0,1,2,3,0,1,2,3,0,1,2,3,0,1,2,3,0,1,2,3,0,1,2,3,0,1,2,3,0,1,2,3,0,1,2,3,0,1,2,3,0,1,2,3,0,1,2,3,0,1,2,3,0,1,2,3,0,1,2,3,0,1,2,3,0,1,2,3,0,1,2,3,0,1,2,3,0,1,2,3,0,1,2,3,0,1,2,3,0,1,2,3,0,1,2,3,0,1,2,3,0,1,2,3,0,1,2,3,0,1,2,3,0,1,2,3,0,1,2,3,0,1,2,3,0,1,2,3,0,1,2,3,0,1,2,3,0,1,2,3,0,1,2,3,0,1,2,3,0,1,2,3,0,1,2,3,0,1,2,3,0,1,2,3,0,1,2,3,0,1,2,3,0,1,2,3,0,1,2,3,0,1,2,3,0,1,2,3,0,1,2,3,0,1,2,3,0,1,2,3,0,1,2,3,0,1,2,3,0,1,2,3,0,1,2,3,0,1,2,3,0,1,2,3,0,1,2,3,0,1,2,3,0,1,2,3,0,1,2,3,0,1,2,3,0,1,2,3,0,1,2,3,0,1,2,3,0,1,2,3,0,1,2,3,0,1,2,3,0,1,2,3,0,1,2,3,0,1,2,3,0,1,2,3,0,1,2,3,0,1,2,3,0,1,2,3,0,1,2,3,0,1,2,3,0,1,2,3,0,1,2,3,0,1,2,3,0,1,2,3,0,1,2,3,0,1,2,3,0,1,2,3,0,1,2,3,0,1,2,3,0,1,2,3,0,1,2,3,0,1,2,3,0,1,2,3,0,1,2,3,0,1,2,3,0,1,2,3,0,1,2,3,0,1,2,3,0,1,2,3,0,1,2,3,0,1,2,3,0,1,2,3,0,1,2,3,0,1,2,3,0,1,2,3,0,1,2,3,0,1,2,3,0,1,2,3,0,1,2,3,0,1,2,3,0,1,2,3,0,1,2,3,0,1,2,3,0,1,2,3,0,1,2,3,0,1,2,3,0,1,2,3,0,1,2,3,0,1,2,3,0,1,2,3,0,1,2,3,0,1,2,3,0,1,2,3,0,1,2,3,0,1,2,3,0,1,2,3,0,1,2,3,0,1,2,3,0,1,2,3,0,1,2,3,0,1,2,3,0,1,2,3,0,1,2,3,0,1,2,3,0,1,2,3,0,1,2,3,0,1,2,3,0,1,2,3,0,1,2,3,0,1,2,3,0,1,2,3,0,1,2,3,0,1,2,3,0,1,2,3,0,1,2,3,0,1,2,3,0,1,2,3,0,1,2,3,0,1,2,3,0,1,2,3,0,1,2,3,0,1,2,3,0,1,2,3,0,1,2,3,0,1,2,3,0,1,2,3,0,1,2,3,0,1,2,3,0,1,2,3,0,1,2,3,0,1,2,3,0,1,2,3,0,1,2,3,0,1,2,3,0,1,2,3,0,1,2,3,0,1,2,3,0,1,2,3,0,1,2,3,0,1,2,3,0,1,2,3,0,1,2,3,0,1,2,3,0,1,2,3,0,1,2,3,0,1,2,3,0,1,2,3,0,1,2,3,0,1,2,3,0,1,2,3,0,1,2,3,0,1,2,3,0,1,2,3,0,1,2,3,0,1,2,3],"trees":[{"base_weights":[-5.1715306E-4,4.858707E-1,-7.9293644E-1,5.8768004E-1,1.8491904E-1,2.3987863E-2,-2.1939716E0,2.3953084E-2,4.5500138E-1,2.3739977E-2,-2.0392235E-1,-5.9944916E-1,-2.4809432E0,5.147615E-1,-1.4284254E-2,5.3650546E-1,-6.5493953E-1,2.0022778E-2,-9.215601E-1,-1.4953651E0,-1.0411079E-1,2.3153344E-2,1.7903459E-1,2.2936849E-2,2.8241807E-1,-2.6080647E-1,-1.087349E0,-5.4881006E-1,-6.6539526E-2,-2.6783064E-1,-7.1364075E-2,-1.0626614E-2,1.8313386E-2,1.7880868E-2,-5.8275233E-3,-4.419691E-2,-4.133363E-3,1.2866805E-2,-4.8041154E-2,-3.7295092E-2,-2.2142127E-3,-2.9046964E-2,1.4193494E-2],"categories":[],"categories_nodes":[],"categories_segments":[],"categories_sizes":[],"default_left":[0,0,0,0,0,0,0,0,0,0,0,0,0,0,0,0,0,0,0,0,0,0,0,0,0,0,0,0,0,0,0,0,0,0,0,0,0,0,0,0,0,0,0],"id":0,"left_children":[1,3,5,7,9,-1,11,-1,13,-1,15,17,19,21,-1,23,25,-1,27,29,-1,-1,31,-1,33,35,37,39,-1,41,-1,-1,-1,-1,-1,-1,-1,-1,-1,-1,-1,-1,-1],"loss_changes":[2.8771823E2,1.406443E1,5.5529395E2,2.3804474E-1,1.892963E1,0E0,6.337567E1,0E0,1.684267E0,0E0,2.0856768E1,8.589225E0,1.0493774E1,5.2463865E-1,0E0,6.1237335E-2,6.2965336E0,0E0,4.091381E0,5.026886E0,0E0,0E0,8.814676E-1,0E0,4.1668272E-1,2.7456198E0,3.2847881E0,2.5104928E0,0E0,1.4375393E0,0E0,0E0,0E0,0E0,0E0,0E0,0E0,0E0,0E0,0E0,0E0,0E0,0E0],"parents":[2147483647,0,0,1,1,2,2,3,3,4,4,6,6,8,8,10,10,11,11,12,12,13,13,15,15,16,16,18,18,19,19,22,22,24,24,25,25,26,26,27,27,29,29],"right_children":[2,4,6,8,10,-1,12,-1,14,-1,16,18,20,22,-1,24,26,-1,28,30,-1,-1,32,-1,34,36,38,40,-1,42,-1,-1,-1,-1,-1,-1,-1,-1,-1,-1,-1,-1,-1],"split_conditions":[6.0155654E-1,4.76268E-1,8.0074203E-1,4.4576037E-1,3E-1,2.3987863E-2,2.8E-1,2.3953084E-2,9.5518756E-1,2.3739977E-2,4.9E-1,6.690921E-1,6.3732326E-1,1E0,-1.4284254E-2,9.0195686E-1,5.406653E-1,2.0022778E-2,8.208895E-1,4.9E-1,-1.0411079E-1,2.3153344E-2,4.6189168E-1,2.2936849E-2,9.6666664E-1,4.8159721E-1,8.155605E-1,7.378853E-1,-6.6539526E-2,6.266064E-1,-7.1364075E-2,-1.0626614E-2,1.8313386E-2,1.7880868E-2,-5.8275233E-3,-4.419691E-2,-4.133363E-3,1.2866805E-2,-4.8041154E-2,-3.7295092E-2,-2.2142127E-3,-2.9046964E-2,1.4193494E-2],"split_indices":[1,1,2,1,9,0,6,0,2,0,6,1,1,9,0,3,1,0,1,6,0,0,1,0,4,1,2,1,0,1,0,0,0,0,0,0,0,0,0,0,0,0,0],"split_type":[0,0,0,0,0,0,0,0,0,0,0,0,0,0,0,0,0,0,0,0,0,0,0,0,0,0,0,0,0,0,0,0,0,0,0,0,0,0,0,0,0,0,0],"sum_hessian":[7.445001E2,4.6157297E2,2.8292712E2,3.4418527E2,1.17387695E2,1.4217587E2,1.4075127E2,3.1426852E2,2.9916767E1,5.6984318E1,6.0403378E1,2.1938963E1,1.188123E2,2.8207237E1,1.7095295E0,2.2793728E1,3.760965E1,4.843667E0,1.7095295E1,1.4531001E1,1.042813E2,2.3078648E1,5.1285887E0,1.8804825E1,3.988902E0,2.0514355E1,1.7095295E1,1.253655E1,4.5587454E0,3.1341374E0,1.1396864E1,1.994451E0,3.1341374E0,2.849216E0,1.1396863E0,2.2793727E0,1.8234982E1,1.1396863E0,1.5955608E1,6.5531964E0,5.983353E0,1.7095295E0,1.424608E0],"tree_param":{"num_deleted":"0","num_feature":"10","num_nodes":"43","size_leaf_vector":"1"}},{"base_weights":[-2.2546338E-2,-2.2625448E-2,5.4842925E-1,-4.7638828E-1,1.6303064E0,-5.5362153E-1,-1.3981076E-1,4.7823358E-1,1.8427364E0,-2.2493912E-2,-2.9873747E-1,-4.5057076E-1,1.5376653E-1,-2.0235404E-2,1.1179497E0,2.0846412E0,6.036099E-1,-1.7955678E-2,7.884061E-3,-2.083432E-2,5.0417394E-3,-1.8155606E-2,4.237913E-1,6.1044353E-1,7.855234E-2,2.2128453E0,-1.8339386E-2,8.6409295E-1,5.8114592E-2,4.7730826E-2,3.360203E-4,-1.4233224E-2,3.4143467E-2,5.4113314E-2,9.549127E-2,4.830575E-2,4.7399243E-3,-1.6942853E-2,1.9202823E-2],"categories":[],"categories_nodes":[],"categories_segments":[],"categories_sizes":[],"default_left":[0,0,0,0,0,0,0,0,0,0,0,0,0,0,0,0,0,0,0,0,0,0,0,0,0,0,0,0,0,0,0,0,0,0,0,0,0,0,0],"id":1,"left_children":[1,-1,3,5,7,9,11,13,15,-1,17,19,21,-1,23,25,27,-1,-1,-1,-1,-1,29,31,-1,33,-1,35,37,-1,-1,-1,-1,-1,-1,-1,-1,-1,-1],"loss_changes":[1.6958276E2,0E0,2.963809E2,3.5019112E0,3.0915558E1,8.034897E-2,2.535894E0,1.414973E1,3.151828E1,0E0,5.2248895E-1,6.082647E-1,2.5958743E0,0E0,4.548565E0,3.0709656E1,2.6875691E0,0E0,0E0,0E0,0E0,0E0,3.3968854E0,2.6106067E0,0E0,9.8038025E0,0E0,3.1787653E0,1.6869069E0,0E0,0E0,0E0,0E0,0E0,0E0,0E0,0E0,0E0,0E0],"parents":[2147483647,0,0,2,2,3,3,4,4,5,5,6,6,7,7,8,8,10,10,11,11,12,12,14,14,15,15,16,16,22,22,23,23,25,25,27,27,28,28],"right_children":[2,-1,4,6,8,10,12,14,16,-1,18,20,22,-1,24,26,28,-1,-1,-1,-1,-1,30,32,-1,34,-1,36,38,-1,-1,-1,-1,-1,-1,-1,-1,-1,-1],"split_conditions":[3E-1,-2.2625448E-2,5.330995E-1,4.4576037E-1,2.8E-1,9.9242383E-1,5E-1,6.714546E-1,8.272408E-1,-2.2493912E-2,3.1216237E-1,5.263737E-1,8.3554816E-1,-2.0235404E-2,8.090674E-1,1E0,9.23394E-1,-1.7955678E-2,7.884061E-3,-2.083432E-2,5.0417394E-3,-1.8155606E-2,8.7556064E-1,8.3978546E-1,7.855234E-2,6.0155654E-1,-1.8339386E-2,1E0,9.646609E-1,4.7730826E-2,3.360203E-4,-1.4233224E-2,3.4143467E-2,5.4113314E-2,9.549127E-2,4.830575E-2,4.7399243E-3,-1.6942853E-2,1.9202823E-2],"split_indices":[9,0,1,1,6,2,6,1,1,0,1,1,2,0,1,5,2,0,0,0,0,0,2,2,0,1,0,9,2,0,0,0,0,0,0,0,0,0,0],"split_type":[0,0,0,0,0,0,0,0,0,0,0,0,0,0,0,0,0,0,0,0,0,0,0,0,0,0,0,0,0,0,0,0,0,0,0,0,0,0,0],"sum_hessian":[5.448802E2,2.7926422E2,2.6561597E2,1.3669249E2,1.2892348E2,1.1065582E2,2.6036663E1,2.0577364E1,1.08346115E2,1.0582644E2,4.829381E0,1.2388412E1,1.3648252E1,8.188951E0,1.2388412E1,9.007846E1,1.826766E1,3.7795157E0,1.0498655E0,1.1128574E1,1.2598386E0,3.9894888E0,9.658762E0,8.818871E0,3.5695426E0,8.5879E1,4.199462E0,1.1968467E1,6.299193E0,2.7296503E0,6.9291124E0,1.6797848E0,7.1390853E0,1.5957955E1,6.992104E1,7.769005E0,4.199462E0,2.9396234E0,3.3595695E0],"tree_param":{"num_deleted":"0","num_feature":"10","num_nodes":"39","size_leaf_vector":"1"}},{"base_weights":[1.9049499E-3,-4.915215E-1,9.173429E-1,-5.161266E-1,1.0152855E-1,-1.8598333E-1,1.4234073E0,-2.0901795E-2,-1.9259945E-1,4.8255015E-2,-2.7897832E-1,-3.783351E-1,7.432887E-1,4.9702093E-1,1.7304068E0,-1.50999185E-2,8.94932E-3,8.94932E-3,-1.6949125E-2,2.0852756E-2,-4.5809904E-1,-1.5253755E-2,8.312772E-2,5.8233093E-2,2.7631623E-1,1.8177671E0,-2.90686E-2,-2.7515522E-1,-1.983092E-2,8.9771456E-1,-1.5000409E-1,1.0231105E0,1.9851334E0,-1.0703527E-2,8.94932E-3,-1.6872805E-2,8.94932E-3,1.5509599E-2,6.790786E-2,1.9873785E-2,-1.800531E-2,5.594732E-2,1.10982545E-2,2.9731547E-2,8.5367106E-2],"categories":[],"categories_nodes":[],"categories_segments":[],"categories_sizes":[],"default_left":[0,0,0,0,0,0,0,0,0,0,0,0,0,0,0,0,0,0,0,0,0,0,0,0,0,0,0,0,0,0,0,0,0,0,0,0,0,0,0,0,0,0,0,0,0],"id":2,"left_children":[1,3,5,7,9,11,13,-1,15,-1,17,19,21,23,25,-1,-1,-1,-1,-1,27,-1,-1,-1,29,31,33,35,-1,37,39,41,43,-1,-1,-1,-1,-1,-1,-1,-1,-1,-1,-1,-1],"loss_changes":[1.1127018E2,2.3880615E0,4.8435844E1,2.1883011E-1,3.3684783E0,5.288395E0,1.5993736E1,0E0,4.3676117E-1,0E0,5.4426014E-1,1.951822E0,8.511042E0,3.016012E0,6.8325043E0,0E0,0E0,0E0,0E0,0E0,1.8381596E-2,0E0,0E0,0E0,3.9402008E0,3.5597992E0,2.450232E-1,5.394295E-1,0E0,1.7848258E0,2.0440278E0,2.2378588E0,4.643814E0,0E0,0E0,0E0,0E0,0E0,0E0,0E0,0E0,0E0,0E0,0E0,0E0],"parents":[2147483647,0,0,1,1,2,2,3,3,4,4,5,5,6,6,8,8,10,10,11,11,12,12,13,13,14,14,20,20,24,24,25,25,26,26,27,27,29,29,30,30,31,31,32,32],"right_children":[2,4,6,8,10,12,14,-1,16,-1,18,20,22,24,26,-1,-1,-1,-1,-1,28,-1,-1,-1,30,32,34,36,-1,38,40,42,44,-1,-1,-1,-1,-1,-1,-1,-1,-1,-1,-1,-1],"split_conditions":[7.7150875E-1,7.3824453E-1,4.9E-1,7.2541696E-1,4.4651183E-1,1E0,8.4844255E-1,-2.0901795E-2,9.445868E-1,4.8255015E-2,8.581688E-1,8.0723995E-1,2.8E-1,2.60919E-1,9.413379E-1,-1.50999185E-2,8.94932E-3,8.94932E-3,-1.6949125E-2,2.0852756E-2,4.209717E-1,-1.5253755E-2,8.312772E-2,5.8233093E-2,8E-1,8.174996E-1,8.851904E-1,3.8142014E-1,-1.983092E-2,9.7007555E-1,5E-1,6.7364836E-1,4.4042128E-1,-1.0703527E-2,8.94932E-3,-1.6872805E-2,8.94932E-3,1.5509599E-2,6.790786E-2,1.9873785E-2,-1.800531E-2,5.594732E-2,1.10982545E-2,2.9731547E-2,8.5367106E-2],"split_indices":[0,0,6,0,3,0,2,0,2,0,2,2,6,5,5,0,0,0,0,0,5,0,0,0,9,0,0,5,0,0,6,5,3,0,0,0,0,0,0,0,0,0,0,0,0],"split_type":[0,0,0,0,0,0,0,0,0,0,0,0,0,0,0,0,0,0,0,0,0,0,0,0,0,0,0,0,0,0,0,0,0,0,0,0,0,0,0,0,0,0,0,0,0],"sum_hessian":[2.4433752E2,1.590641E2,8.5273415E1,1.5285213E2,6.211971E0,2.7012661E1,5.8260757E1,1.4927554E2,3.5765893E0,1.0353285E0,5.1766424E0,2.2871347E1,4.141314E0,1.5153444E1,4.310731E1,2.5412607E0,1.0353285E0,1.0353285E0,4.141314E0,1.4118116E0,2.1459536E1,2.6353817E0,1.5059323E0,1.7882947E0,1.33651495E1,4.1036655E1,2.070657E0,5.0825214E0,1.6377014E1,4.988401E0,8.376749E0,8.376749E0,3.265991E1,1.0353285E0,1.0353285E0,4.047193E0,1.0353285E0,3.9530723E0,1.0353285E0,2.44714E0,5.9296083E0,4.988401E0,3.3883476E0,4.141314E0,2.8518593E1],"tree_param":{"num_deleted":"0","num_feature":"10","num_nodes":"45","size_leaf_vector":"1"}},{"base_weights":[7.077558E-3,-1.8907636E-2,1.4001961E-1],"categories":[],"categories_nodes":[],"categories_segments":[],"categories_sizes":[],"default_left":[0,0,0],"id":3,"left_children":[1,-1,-1],"loss_changes":[3.295617E1,0E0,0E0],"parents":[2147483647,0,0],"right_children":[2,-1,-1],"split_conditions":[9.75E-1,-1.8907636E-2,1.4001961E-1],"split_indices":[0,0,0],"split_type":[0,0,0],"sum_hessian":[1.7675999E1,1.6301868E1,1.3741295E0],"tree_param":{"num_deleted":"0","num_feature":"10","num_nodes":"3","size_leaf_vector":"1"}},{"base_weights":[9.776058E-3,4.9421096E-1,-7.5113195E-1,5.794651E-1,1.3215916E-1,5.554867E-1,-2.0705044E0,5.925369E-1,3.1181884E-1,5.6365526E-1,-1.2817583E0,2.3802597E-2,-1.5797003E-1,-5.158669E-1,-2.3158097E0,2.3812763E-2,2.3686607E-1,2.2622459E-2,-9.579212E-1,2.3105709E-2,4.0475384E-4,3.8719314E-1,-2.0531206E0,3.6486027E-1,-4.6017665E-2,2.1324086E-1,-1.2936103E0,-1.3216954E0,-9.646904E-2,-5.8176797E-3,1.6642634E-2,-2.4593815E-3,-6.050551E-2,1.986187E-2,4.866175E-4,-1.2644371E0,-9.692846E-2,1.9969037E-2,-4.0971753E-3,2.1822575E-2,-4.819768E-2,1.8086685E-2,-8.3660506E-2,1.8717641E-2,-1.917954E0,5.376585E-3,-8.25039E-2,-3.947694E-3,-8.658603E-2],"categories":[],"categories_nodes":[],"categories_segments":[],"categories_sizes":[],"default_left":[0,0,0,0,0,0,0,0,0,0,0,0,0,0,0,0,0,0,0,0,0,0,0,0,0,0,0,0,0,0,0,0,0,0,0,0,0,0,0,0,0,0,0,0,0,0,0,0,0],"id":4,"left_children":[1,3,5,7,9,11,13,15,17,19,21,-1,23,25,27,-1,29,-1,31,-1,-1,33,35,37,-1,39,41,43,-1,-1,-1,-1,-1,-1,-1,45,-1,-1,-1,-1,-1,-1,-1,-1,47,-1,-1,-1,-1],"loss_changes":[2.753515E2,1.401104E1,5.0209534E2,1.1066589E0,5.4584553E1,4.23888E0,5.402588E1,2.0615387E-1,6.7597327E0,5.232506E-1,2.7762814E1,0E0,4.8329935E0,1.21957035E1,8.710266E0,0E0,3.6084262E-1,0E0,1.6900022E0,0E0,0E0,3.000152E-1,1.1640129E0,4.485665E-1,0E0,6.175285E0,1.5310654E1,1.4974762E1,0E0,0E0,0E0,0E0,0E0,0E0,0E0,7.7773905E0,0E0,0E0,0E0,0E0,0E0,0E0,0E0,0E0,4.3154907E0,0E0,0E0,0E0,0E0],"parents":[2147483647,0,0,1,1,2,2,3,3,4,4,5,5,6,6,7,7,8,8,9,9,10,10,12,12,13,13,14,14,16,16,18,18,21,21,22,22,23,23,25,25,26,26,27,27,35,35,44,44],"right_children":[2,4,6,8,10,12,14,16,18,20,22,-1,24,26,28,-1,30,-1,32,-1,-1,34,36,38,-1,40,42,44,-1,-1,-1,-1,-1,-1,-1,46,-1,-1,-1,-1,-1,-1,-1,-1,48,-1,-1,-1,-1],"split_conditions":[6.0155654E-1,5.086584E-1,6.0792077E-1,1E0,8.3706164E-1,5.1852083E-1,2.8E-1,9.956583E-1,4.333328E-1,8.2613105E-1,4.9E-1,2.3802597E-2,8.117848E-1,8.7198734E-1,6.9330037E-1,2.3812763E-2,9.971289E-1,2.2622459E-2,5E-1,2.3105709E-2,4.0475384E-4,9.0195686E-1,8.793836E-1,7.6563036E-1,-4.6017665E-2,7.948978E-1,6.690921E-1,6.7412806E-1,-9.646904E-2,-5.8176797E-3,1.6642634E-2,-2.4593815E-3,-6.050551E-2,1.986187E-2,4.866175E-4,5.6501323E-1,-9.692846E-2,1.9969037E-2,-4.0971753E-3,2.1822575E-2,-4.819768E-2,1.8086685E-2,-8.3660506E-2,1.8717641E-2,4.9E-1,5.376585E-3,-8.25039E-2,-3.947694E-3,-8.658603E-2],"split_indices":[1,1,0,0,0,3,6,2,1,0,6,0,1,0,0,0,2,0,6,0,0,3,0,1,0,1,1,1,0,0,0,0,0,0,0,1,0,0,0,0,0,0,0,0,6,0,0,0,0],"split_type":[0,0,0,0,0,0,0,0,0,0,0,0,0,0,0,0,0,0,0,0,0,0,0,0,0,0,0,0,0,0,0,0,0,0,0,0,0,0,0,0,0,0,0,0,0,0,0,0,0],"sum_hessian":[7.449917E2,4.5540616E2,2.895855E2,3.681221E2,8.728404E1,1.4578688E2,1.4379863E2,3.4982288E2,1.8299242E1,6.733596E1,1.9948084E1,1.3828178E2,7.505092E0,2.002049E1,1.23778145E2,3.4643912E2,3.3837583E0,1.5713641E1,2.585602E0,6.563389E1,1.7020713E0,6.462845E0,1.3485238E1,5.3297644E0,2.1753278E0,1.0707964E1,9.312528E0,1.2192259E1,1.11585884E2,1.1400135E0,2.2437449E0,1.4129984E0,1.1726036E0,4.752923E0,1.7099221E0,5.7175007E0,7.767738E0,4.0864058E0,1.2433589E0,9.173614E0,1.5343504E0,3.0570762E0,6.255451E0,3.1007466E0,9.091512E0,2.3792443E0,3.3382561E0,1.252801E0,7.8387113E0],"tree_param":{"num_deleted":"0","num_feature":"10","num_nodes":"49","size_leaf_vector":"1"}},{"base_weights":[7.0107263E-3,-5.356616E-1,5.9905225E-1,-2.25099E-2,-6.996424E-2,-4.809392E-1,1.5591882E0,-2.1188585E-2,1.4275218E0,-5.422061E-1,3.6275543E-2,1.7227436E0,3.4631354E-1,7.49139E-2,5.7412004E-3,-5.507622E-1,-1.1598463E-1,-2.0588111E-2,6.484553E-2,8.136607E-1,1.9929973E0,8.762986E-2,-3.5570156E-2,-2.3002586E-1,-2.2387104E-2,8.147923E-3,-1.3381887E-2,-4.1068614E-1,2.0914164E0,2.177347E0,9.533983E-1,4.6929657E-2,-2.5483638E-1,8.238665E-3,-1.6389288E-2,7.5314436E-3,-1.8624436E-2,1.0279476E-1,2.8022973E-2,9.837465E-2,5.1465888E-2,7.391208E-2,7.7618416E-3,-2.0847993E-2,1.6088566E-2],"categories":[],"categories_nodes":[],"categories_segments":[],"categories_sizes":[],"default_left":[0,0,0,0,0,0,0,0,0,0,0,0,0,0,0,0,0,0,0,0,0,0,0,0,0,0,0,0,0,0,0,0,0,0,0,0,0,0,0,0,0,0,0,0,0],"id":5,"left_children":[1,3,5,-1,7,9,11,-1,13,15,17,19,21,-1,-1,23,25,-1,-1,27,29,-1,31,33,-1,-1,-1,35,37,39,41,-1,43,-1,-1,-1,-1,-1,-1,-1,-1,-1,-1,-1,-1],"loss_changes":[1.7824567E2,3.6119843E0,2.7587134E2,0E0,1.249655E1,4.000683E0,2.7312317E1,0E0,2.176365E0,3.4597397E-1,1.3271622E1,2.8774414E1,1.2734681E1,0E0,0E0,1.8555069E-1,3.1118953E-1,0E0,0E0,4.785621E1,1.6069366E1,0E0,4.5055976E0,4.5031226E-1,0E0,0E0,0E0,6.1987185E-1,8.091042E0,1.684076E1,1.0534893E1,0E0,2.7045784E0,0E0,0E0,0E0,0E0,0E0,0E0,0E0,0E0,0E0,0E0,0E0,0E0],"parents":[2147483647,0,0,1,1,2,2,4,4,5,5,6,6,8,8,9,9,10,10,11,11,12,12,15,15,16,16,19,19,20,20,22,22,23,23,27,27,28,28,29,29,30,30,32,32],"right_children":[2,4,6,-1,8,10,12,-1,14,16,18,20,22,-1,-1,24,26,-1,-1,28,30,-1,32,34,-1,-1,-1,36,38,40,42,-1,44,-1,-1,-1,-1,-1,-1,-1,-1,-1,-1,-1,-1],"split_conditions":[6.0792077E-1,5.411346E-1,5.086584E-1,-2.25099E-2,7.6563036E-1,1E0,8.397863E-1,-2.1188585E-2,9.8502094E-1,9.956583E-1,4.275601E-1,6.0155654E-1,7.1306616E-1,7.49139E-2,5.7412004E-3,3.3942732E-1,5.1852083E-1,-2.0588111E-2,6.484553E-2,8.4911174E-1,9.5385087E-1,8.762986E-2,1.6666667E-1,4.0913042E-1,-2.2387104E-2,8.147923E-3,-1.3381887E-2,1.9860819E-1,3.4E-1,3.4E-1,6.950254E-1,4.6929657E-2,3.4E-1,8.238665E-3,-1.6389288E-2,7.5314436E-3,-1.8624436E-2,1.0279476E-1,2.8022973E-2,9.837465E-2,5.1465888E-2,7.391208E-2,7.7618416E-3,-2.0847993E-2,1.6088566E-2],"split_indices":[0,0,1,0,1,0,1,0,3,2,1,1,0,0,0,3,3,0,0,0,0,0,7,5,0,0,0,5,7,7,1,0,7,0,0,0,0,0,0,0,0,0,0,0,0],"split_type":[0,0,0,0,0,0,0,0,0,0,0,0,0,0,0,0,0,0,0,0,0,0,0,0,0,0,0,0,0,0,0,0,0,0,0,0,0,0,0,0,0,0,0,0,0],"sum_hessian":[5.5279193E2,2.8847113E2,2.6432083E2,2.7241827E2,1.6052845E1,1.24631004E2,1.3968982E2,1.27765255E1,3.2763188E0,1.1138815E2,1.3242851E1,1.22720634E2,1.6969185E1,2.0921035E0,1.1842154E0,1.0890968E2,2.4784684E0,1.032767E1,2.9151814E0,2.9041422E1,9.3679214E1,2.09826E0,1.4870924E1,3.6703029E0,1.0523938E2,1.0340358E0,1.4444327E0,1.5177201E1,1.3864222E1,7.86398E1,1.5039417E1,1.6152595E0,1.3255665E1,1.0286142E0,2.6416888E0,1.0708762E0,1.4106325E1,9.684892E0,4.17933E0,5.8390606E1,2.0249193E1,6.247454E0,8.791963E0,9.579119E0,3.6765454E0],"tree_param":{"num_deleted":"0","num_feature":"10","num_nodes":"45","size_leaf_vector":"1"}},{"base_weights":[-5.1352922E-2,-4.4182125E-1,1.4259676E0,-5.118145E-1,3.4208274E-1,-4.2278248E-1,4.735312E0,-2.0905368E-2,-3.047796E-1,-4.239206E-1,1.6640438E-1,-2.0363528E-2,5.6978095E-1,1.0015354E0,6.109446E0,-1.8988252E-2,2.431568E-2,-1.953941E-2,8.136513E-3,-1.1485629E-2,4.872811E-2,-3.0943086E-2,1.19721554E-1,6.469213E0,9.909996E-2,-1.5819587E-2,2.7378794E-2,6.677001E-2,2.716813E-1],"categories":[],"categories_nodes":[],"categories_segments":[],"categories_sizes":[],"default_left":[0,0,0,0,0,0,0,0,0,0,0,0,0,0,0,0,0,0,0,0,0,0,0,0,0,0,0,0,0],"id":6,"left_children":[1,3,5,7,9,11,13,-1,15,17,-1,-1,19,21,23,-1,-1,-1,-1,-1,-1,25,-1,27,-1,-1,-1,-1,-1],"loss_changes":[1.4342975E2,1.0960148E1,3.2007416E2,2.4583435E-1,5.0638554E1,3.2260137E0,8.9904724E1,0E0,2.0536194E0,6.998918E-1,0E0,0E0,2.1354094E0,1.2904539E1,1.5921936E0,0E0,0E0,0E0,0E0,0E0,0E0,1.5990314E0,0E0,6.7120667E0,0E0,0E0,0E0,0E0,0E0],"parents":[2147483647,0,0,1,1,2,2,3,3,4,4,5,5,6,6,8,8,9,9,12,12,13,13,14,14,21,21,23,23],"right_children":[2,4,6,8,10,12,14,-1,16,18,-1,-1,20,22,24,-1,-1,-1,-1,-1,-1,26,-1,28,-1,-1,-1,-1,-1],"split_conditions":[7.344938E-1,9.75E-1,7.556337E-1,7.036585E-1,6.7412806E-1,7.196046E-1,4.9E-1,-2.0905368E-2,8.503964E-1,6.24427E-1,1.6640438E-1,-2.0363528E-2,7.9857E-1,9.7007555E-1,1E0,-1.8988252E-2,2.431568E-2,-1.953941E-2,8.136513E-3,-1.1485629E-2,4.872811E-2,8.323507E-1,1.19721554E-1,7.524728E-1,9.909996E-2,-1.5819587E-2,2.7378794E-2,6.677001E-2,2.716813E-1],"split_indices":[1,0,0,1,1,0,6,0,0,1,0,0,1,0,0,0,0,0,0,0,0,1,0,1,0,0,0,0,0],"split_type":[0,0,0,0,0,0,0,0,0,0,0,0,0,0,0,0,0,0,0,0,0,0,0,0,0,0,0,0,0],"sum_hessian":[2.4655225E2,1.9556396E2,5.0988285E1,1.798524E2,1.5711565E1,3.3272823E1,1.7715462E1,1.6947139E2,1.0381004E1,1.3826541E1,1.8850235E0,3.1059244E1,2.213578E0,5.230922E0,1.248454E1,9.156132E0,1.2248725E0,1.2736991E1,1.0895503E0,1.1934905E0,1.0200875E0,4.093265E0,1.1376569E0,1.0648539E1,1.8360012E0,3.0077963E0,1.085469E0,1.0598993E0,9.588639E0],"tree_param":{"num_deleted":"0","num_feature":"10","num_nodes":"29","size_leaf_vector":"1"}},{"base_weights":[9.0085035E-3,-1.8895531E-2,1.3334465E-1],"categories":[],"categories_nodes":[],"categories_segments":[],"categories_sizes":[],"default_left":[0,0,0],"id":7,"left_children":[1,-1,-1],"loss_changes":[3.1352106E1,0E0,0E0],"parents":[2147483647,0,0],"right_children":[2,-1,-1],"split_conditions":[8.323507E-1,-1.8895531E-2,1.3334465E-1],"split_indices":[1,0,0],"split_type":[0,0,0],"sum_hessian":[1.7605541E1,1.6128132E1,1.4774106E0],"tree_param":{"num_deleted":"0","num_feature":"10","num_nodes":"3","size_leaf_vector":"1"}},{"base_weights":[-3.091213E-3,4.813971E-1,-7.188249E-1,5.6528413E-1,3.9559145E-2,5.220001E-1,-1.8045516E0,2.3753889E-2,3.31536E-1,4.9520072E-1,-1.3185503E0,2.3616835E-2,-2.937964E-1,-5.9150994E-1,-1.9994838E0,5.5529016E-1,-1.032709E0,2.337581E-2,-1.4742921E-1,3.8462108E-1,-9.045663E-2,2.0790942E-2,-1.0997523E0,3.4614873E-1,-1.175289E0,-1.0303712E0,-2.0783262E0,-5.854014E-3,2.3247352E-2,1.3120391E-2,-1.3990084E0,1.9193511E-2,-4.1887045E-2,-6.103997E-3,2.019453E-2,1.3772746E-2,-1.5372602E0,2.1474835E-2,-2.067814E-2,1.890256E-2,-1.7560511E0,1.9301282E-2,-1.6255332E0,-1.6106129E0,-8.652047E-2,-3.687749E-3,-7.172653E-2,-2.099012E-2,-7.0030734E-2,-3.497585E-2,-7.766972E-2,4.5201302E-4,-7.938783E-2,-2.7002063E-2,-8.16155E-2],"categories":[],"categories_nodes":[],"categories_segments":[],"categories_sizes":[],"default_left":[0,0,0,0,0,0,0,0,0,0,0,0,0,0,0,0,0,0,0,0,0,0,0,0,0,0,0,0,0,0,0,0,0,0,0,0,0,0,0,0,0,0,0,0,0,0,0,0,0,0,0,0,0,0,0],"id":8,"left_children":[1,3,5,7,9,11,13,-1,15,17,19,-1,21,23,25,27,29,-1,31,33,-1,-1,35,37,39,41,43,-1,-1,-1,45,-1,-1,-1,-1,-1,47,-1,-1,-1,49,-1,51,53,-1,-1,-1,-1,-1,-1,-1,-1,-1,-1,-1],"loss_changes":[2.5895255E2,1.6483452E1,4.070445E2,2.3014374E0,4.5290024E1,8.068798E0,3.6885925E1,0E0,1.3702455E1,3.223774E0,3.040812E1,0E0,8.186338E0,1.3385038E1,8.424377E0,7.681732E-1,3.6537814E0,0E0,4.7185054E0,5.5563986E-1,0E0,0E0,4.417853E0,1.9022413E0,1.5031498E1,1.1937848E1,1.5424805E0,0E0,0E0,0E0,2.5338945E0,0E0,0E0,0E0,0E0,0E0,1.4199352E-1,0E0,0E0,0E0,1.3323975E-1,0E0,5.3831997E0,8.019119E0,0E0,0E0,0E0,0E0,0E0,0E0,0E0,0E0,0E0,0E0,0E0],"parents":[2147483647,0,0,1,1,2,2,3,3,4,4,5,5,6,6,8,8,9,9,10,10,12,12,13,13,14,14,15,15,16,16,18,18,19,19,22,22,23,23,24,24,25,25,26,26,30,30,36,36,40,40,42,42,43,43],"right_children":[2,4,6,8,10,12,14,-1,16,18,20,-1,22,24,26,28,30,-1,32,34,-1,-1,36,38,40,42,44,-1,-1,-1,46,-1,-1,-1,-1,-1,48,-1,-1,-1,50,-1,52,54,-1,-1,-1,-1,-1,-1,-1,-1,-1,-1,-1],"split_conditions":[6.0155654E-1,8.961586E-1,6.180436E-1,5.5310297E-1,4.782056E-1,8.138833E-1,2.8E-1,2.3753889E-2,8.3254826E-1,4.275601E-1,4.9E-1,2.3616835E-2,7.6563036E-1,8.3706164E-1,6.9330037E-1,1.6480006E-1,4.9E-1,2.337581E-2,9.763992E-1,3.545458E-1,-9.045663E-2,2.0790942E-2,4.9E-1,8.436741E-1,6.690921E-1,7.0588005E-1,4.9E-1,-5.854014E-3,2.3247352E-2,1.3120391E-2,5.6501323E-1,1.9193511E-2,-4.1887045E-2,-6.103997E-3,2.019453E-2,1.3772746E-2,7.823926E-1,2.1474835E-2,-2.067814E-2,1.890256E-2,8.503964E-1,1.9301282E-2,4.9E-1,6.950254E-1,-8.652047E-2,-3.687749E-3,-7.172653E-2,-2.099012E-2,-7.0030734E-2,-3.497585E-2,-7.766972E-2,4.5201302E-4,-7.938783E-2,-2.7002063E-2,-8.16155E-2],"split_indices":[1,0,0,1,1,2,6,0,0,1,6,0,1,0,0,5,6,0,0,5,0,0,6,1,1,1,6,0,0,0,1,0,0,0,0,0,1,0,0,0,0,0,6,1,0,0,0,0,0,0,0,0,0,0,0],"split_type":[0,0,0,0,0,0,0,0,0,0,0,0,0,0,0,0,0,0,0,0,0,0,0,0,0,0,0,0,0,0,0,0,0,0,0,0,0,0,0,0,0,0,0,0,0,0,0,0,0,0,0,0,0,0,0],"sum_hessian":[7.4476953E2,4.4432697E2,3.0044257E2,3.7319336E2,7.11336E1,1.4044916E2,1.5999341E2,3.311835E2,4.2009876E1,5.373953E1,1.7394072E1,1.2983607E2,1.0613085E1,2.270946E1,1.3728395E2,3.6599968E1,5.4099083E0,4.7269352E1,6.4701777E0,6.4090233E0,1.0985049E1,5.4583015E0,5.1547832E0,8.869858E0,1.3839601E1,1.1386936E1,1.2589702E2,1.1370585E0,3.546291E1,1.1696088E0,4.2402997E0,4.087344E0,2.3828335E0,1.1229177E0,5.2861056E0,1.2481261E0,3.9066572E0,7.574152E0,1.2957063E0,3.655056E0,1.0184545E1,3.2682586E0,8.118678E0,2.2369661E1,1.0352736E2,1.2685024E0,2.9717972E0,1.2825E0,2.6241572E0,2.7650576E0,7.419487E0,1.6351668E0,6.483511E0,7.8506255E0,1.4519035E1],"tree_param":{"num_deleted":"0","num_feature":"10","num_nodes":"55","size_leaf_vector":"1"}},{"base_weights":[9.861368E-3,-2.2396643E-2,5.336702E-1,-2.5757732E-2,6.3126534E-1,-3.2818183E-1,4.6592695E-1,6.5105593E-1,-1.7987663E-2,-4.3769434E-1,-3.9123047E-2,-1.5169861E-2,6.068321E-1,-1.7681424E-2,6.6875064E-1,-4.8259026E-1,4.942713E-3,1.8965024E-1,-1.6350182E-2,9.1777515E-1,1.754496E-1,9.547576E-1,6.116459E-1,-5.704127E-3,-2.124858E-2,2.1859577E-2,-6.2705046E-3,4.8324984E-2,6.5884343E-3,-1.1239918E-2,3.8228203E-2,4.3636918E-2,1.36422645E-2,1.9373119E-2,3.22124E-2],"categories":[],"categories_nodes":[],"categories_segments":[],"categories_sizes":[],"default_left":[0,0,0,0,0,0,0,0,0,0,0,0,0,0,0,0,0,0,0,0,0,0,0,0,0,0,0,0,0,0,0,0,0,0,0],"id":9,"left_children":[1,-1,3,5,7,9,11,13,-1,15,17,-1,19,-1,21,23,-1,25,-1,27,29,31,33,-1,-1,-1,-1,-1,-1,-1,-1,-1,-1,-1,-1],"loss_changes":[1.6386745E2,0E0,1.5634232E1,6.6141157E0,5.5041656E0,8.5311127E-1,2.2500508E0,4.93058E0,0E0,5.5954695E-1,8.091146E-1,0E0,1.8405786E0,0E0,3.2739716E0,2.3129892E-1,0E0,8.3070314E-1,0E0,1.6454058E0,2.9349916E0,2.7641983E0,4.533531E0,0E0,0E0,0E0,0E0,0E0,0E0,0E0,0E0,0E0,0E0,0E0,0E0],"parents":[2147483647,0,0,2,2,3,3,4,4,5,5,6,6,7,7,9,9,10,10,12,12,14,14,15,15,17,17,19,19,20,20,21,21,22,22],"right_children":[2,-1,4,6,8,10,12,14,-1,16,18,-1,20,-1,22,24,-1,26,-1,28,30,32,34,-1,-1,-1,-1,-1,-1,-1,-1,-1,-1,-1,-1],"split_conditions":[5.411346E-1,-2.2396643E-2,2.8E-1,8.793836E-1,1E0,8.5E-1,8.260605E-1,3.14258E-1,-1.7987663E-2,9.872182E-1,7.0280033E-1,-1.5169861E-2,9.0557206E-1,-1.7681424E-2,4.724859E-1,8.303626E-1,4.942713E-3,8E-1,-1.6350182E-2,9.763992E-1,9.763992E-1,9.612562E-1,6.9774103E-1,-5.704127E-3,-2.124858E-2,2.1859577E-2,-6.2705046E-3,4.8324984E-2,6.5884343E-3,-1.1239918E-2,3.8228203E-2,4.3636918E-2,1.36422645E-2,1.9373119E-2,3.22124E-2],"split_indices":[0,0,6,0,5,0,2,3,0,2,5,0,2,0,3,2,0,9,0,0,0,2,5,0,0,0,0,0,0,0,0,0,0,0,0],"split_type":[0,0,0,0,0,0,0,0,0,0,0,0,0,0,0,0,0,0,0,0,0,0,0,0,0,0,0,0,0,0,0,0,0,0,0],"sum_hessian":[5.4705225E2,2.6199548E2,2.8505676E2,4.245208E1,2.4260468E2,2.6490753E1,1.5961327E1,2.3863338E2,3.9712994E0,1.8839163E1,7.651591E0,2.039078E0,1.3922249E1,3.4193876E0,2.3521399E2,1.7573603E1,1.2655603E0,5.027116E0,2.6244748E0,7.435311E0,6.4869375E0,3.6530933E1,1.9868304E2,2.6909418E0,1.4882661E1,2.1917903E0,2.8353257E0,4.9301696E0,2.5051413E0,4.496412E0,1.990526E0,2.926101E1,7.2699265E0,1.2198741E2,7.669563E1],"tree_param":{"num_deleted":"0","num_feature":"10","num_nodes":"35","size_leaf_vector":"1"}},{"base_weights":[-5.2814432E-3,-4.88494E-1,1.299953E0,-5.1576334E-1,-1.1854029E-1,-2.0234264E-2,2.6262722E0,-2.0863833E-2,-3.131541E-1,-1.8233307E-2,2.680492E-1,1.5041175E0,3.4524143E0,7.0836614E-3,-1.7556304E-2,4.629503E-2,-9.668848E-2,2.159765E0,6.280396E-1,1.4934577E0,3.7194529E0,-1.6025921E-2,1.569437E-2,3.0415912E0,7.4656546E-1,9.924893E-1,-1.4507183E-2,5.9141843E-3,8.0653526E-2,4.985837E-2,1.5504895E-1,3.4486413E-2,1.4517473E-1,-5.168176E-3,7.549946E-2,4.1201324E-3,4.8106935E-2],"categories":[],"categories_nodes":[],"categories_segments":[],"categories_sizes":[],"default_left":[0,0,0,0,0,0,0,0,0,0,0,0,0,0,0,0,0,0,0,0,0,0,0,0,0,0,0,0,0,0,0,0,0,0,0,0,0],"id":10,"left_children":[1,3,5,7,9,-1,11,-1,13,-1,15,17,19,-1,-1,-1,21,23,25,27,29,-1,-1,31,33,35,-1,-1,-1,-1,-1,-1,-1,-1,-1,-1,-1],"loss_changes":[1.5373267E2,1.7334023E0,1.5906381E2,3.2081604E-2,1.8838083E0,0E0,3.015738E1,0E0,5.1727396E-1,0E0,2.3580751E0,8.948887E0,5.5302887E0,0E0,0E0,0E0,1.0243651E0,1.00061E1,3.6419132E0,2.6661034E0,2.1381989E0,0E0,0E0,4.2251015E0,5.350261E0,1.1684961E0,0E0,0E0,0E0,0E0,0E0,0E0,0E0,0E0,0E0,0E0,0E0],"parents":[2147483647,0,0,1,1,2,2,3,3,4,4,6,6,8,8,10,10,11,11,12,12,16,16,17,17,18,18,19,19,20,20,23,23,24,24,25,25],"right_children":[2,4,6,8,10,-1,12,-1,14,-1,16,18,20,-1,-1,-1,22,24,26,28,30,-1,-1,32,34,36,-1,-1,-1,-1,-1,-1,-1,-1,-1,-1,-1],"split_conditions":[7.036585E-1,6.6604656E-1,8.666667E-1,6.4650047E-1,8.3554816E-1,-2.0234264E-2,7.8946006E-1,-2.0863833E-2,6.499874E-1,-1.8233307E-2,8.468765E-1,6.164972E-1,1.6666667E-1,7.0836614E-3,-1.7556304E-2,4.629503E-2,1E0,8.95E-1,9.4902563E-1,5.1920944E-1,8.1798124E-1,-1.6025921E-2,1.569437E-2,8.639705E-1,8.933333E-1,6E-1,-1.4507183E-2,5.9141843E-3,8.0653526E-2,4.985837E-2,1.5504895E-1,3.4486413E-2,1.4517473E-1,-5.168176E-3,7.549946E-2,4.1201324E-3,4.8106935E-2],"split_indices":[1,1,4,1,2,0,1,0,1,0,2,5,7,0,0,0,9,8,2,5,2,0,0,2,7,9,0,0,0,0,0,0,0,0,0,0,0],"split_type":[0,0,0,0,0,0,0,0,0,0,0,0,0,0,0,0,0,0,0,0,0,0,0,0,0,0,0,0,0,0,0,0,0,0,0,0,0],"sum_hessian":[2.4174023E2,1.7688219E2,6.485805E1,1.6437216E2,1.2510029E1,2.7726488E1,3.7131557E1,1.5824246E2,6.1297064E0,6.5853324E0,5.924697E0,1.6941053E1,2.0190504E1,1.1680115E0,4.9616947E0,1.0911103E0,4.8335867E0,8.851455E0,8.0896E0,3.2130084E0,1.6977495E1,3.0923476E0,1.7412388E0,4.7408967E0,4.1105576E0,5.9127326E0,2.176867E0,1.2581083E0,1.9549003E0,1.5456952E0,1.54318E1,1.5309758E0,3.209921E0,2.8271751E0,1.2833825E0,1.4149246E0,4.497808E0],"tree_param":{"num_deleted":"0","num_feature":"10","num_nodes":"37","size_leaf_vector":"1"}},{"base_weights":[1.2720072E-1,-4.1435283E-1,1.8095274E-1,-1.8826434E-2,9.849272E-3],"categories":[],"categories_nodes":[],"categories_segments":[],"categories_sizes":[],"default_left":[0,0,0,0,0],"id":11,"left_children":[1,3,-1,-1,-1],"loss_changes":[4.5420464E1,7.5564146E-1,0E0,0E0,0E0],"parents":[2147483647,0,0,1,1],"right_children":[2,4,-1,-1,-1],"split_conditions":[9.763992E-1,8.5353196E-1,1.8095274E-1,-1.8826434E-2,9.849272E-3],"split_indices":[0,1,0,0,0],"split_type":[0,0,0,0,0],"sum_hessian":[1.7288927E1,1.619933E1,1.0895966E0,1.5191887E1,1.0074427E0],"tree_param":{"num_deleted":"0","num_feature":"10","num_nodes":"5","size_leaf_vector":"1"}},{"base_weights":[-1.0905773E-2,5.7094073E-1,-5.798259E-1,2.356014E-2,2.3327284E-1,3.6908817E-1,-1.631297E0,2.2560256E-2,-8.872435E-1,5.7753265E-1,-2.4197672E-1,-5.671208E-1,-1.792809E0,1.38400085E-2,-5.5668324E-2,2.3617145E-2,3.8607016E-1,3.396414E-1,-1.2012132E0,3.4581032E-1,-1.1012744E0,-1.0966189E0,-1.8883271E0,2.1662382E-2,-2.1803841E-2,2.2790432E-2,-2.7775971E-2,3.635112E-1,-1.8876001E0,2.1462385E-2,-2.725736E-2,1.9385885E-2,-1.7041152E0,3.184153E-2,-1.6246E0,-6.7173415E-1,-7.716445E-2,1.5965108E-2,-2.1616274E-2,1.9243844E-2,1.332364E-4,-1.6715296E-2,-8.149521E-2,-2.7385507E-2,-7.635888E-2,2.0006984E-2,-2.329957E-2,-5.674557E-3,-7.6313965E-2,1.6860241E-2,-6.2213115E-2],"categories":[],"categories_nodes":[],"categories_segments":[],"categories_sizes":[],"default_left":[0,0,0,0,0,0,0,0,0,0,0,0,0,0,0,0,0,0,0,0,0,0,0,0,0,0,0,0,0,0,0,0,0,0,0,0,0,0,0,0,0,0,0,0,0,0,0,0,0,0,0],"id":12,"left_children":[1,3,5,-1,7,9,11,-1,13,15,17,19,21,-1,-1,-1,23,25,27,29,31,33,35,-1,-1,-1,37,39,41,-1,-1,-1,43,45,47,49,-1,-1,-1,-1,-1,-1,-1,-1,-1,-1,-1,-1,-1,-1,-1],"loss_changes":[2.4575078E2,2.1012344E0,3.7511743E2,0E0,8.020718E0,2.537445E1,2.9618927E1,0E0,3.6004114E0,1.3753128E-1,2.8915028E1,1.2547591E1,8.189392E0,0E0,0E0,0E0,2.0659337E0,2.7712018E0,2.1637264E1,2.3193457E0,1.610307E1,1.2563711E1,5.3673706E0,0E0,0E0,0E0,3.170936E0,2.85819E-1,2.169056E0,0E0,0E0,0E0,1.1573677E0,2.499369E0,5.74588E0,6.3452816E0,0E0,0E0,0E0,0E0,0E0,0E0,0E0,0E0,0E0,0E0,0E0,0E0,0E0,0E0,0E0],"parents":[2147483647,0,0,1,1,2,2,4,4,5,5,6,6,8,8,9,9,10,10,11,11,12,12,16,16,17,17,18,18,19,19,20,20,21,21,22,22,26,26,27,27,28,28,32,32,33,33,34,34,35,35],"right_children":[2,4,6,-1,8,10,12,-1,14,16,18,20,22,-1,-1,-1,24,26,28,30,32,34,36,-1,-1,-1,38,40,42,-1,-1,-1,44,46,48,50,-1,-1,-1,-1,-1,-1,-1,-1,-1,-1,-1,-1,-1,-1,-1],"split_conditions":[6.0792077E-1,5.411346E-1,5.86627E-1,2.356014E-2,7.6563036E-1,4.76268E-1,2.8E-1,2.2560256E-2,4.9E-1,4.4576037E-1,8.5675687E-1,8.3706164E-1,7.1306616E-1,1.38400085E-2,-5.5668324E-2,2.3617145E-2,9.763992E-1,5.5310297E-1,4.9E-1,7.948978E-1,6.690921E-1,7.0588005E-1,6.0155654E-1,2.1662382E-2,-2.1803841E-2,2.2790432E-2,8.222068E-1,5.6501323E-1,8.793836E-1,2.1462385E-2,-2.725736E-2,1.9385885E-2,8.503964E-1,6.7050135E-1,4.9E-1,8.293849E-1,-7.716445E-2,1.5965108E-2,-2.1616274E-2,1.9243844E-2,1.332364E-4,-1.6715296E-2,-8.149521E-2,-2.7385507E-2,-7.635888E-2,2.0006984E-2,-2.329957E-2,-5.674557E-3,-7.6313965E-2,1.6860241E-2,-6.2213115E-2],"split_indices":[0,0,1,0,1,1,6,0,6,1,0,0,0,0,0,0,0,1,6,1,1,1,1,0,0,0,0,1,0,0,0,0,0,0,6,0,0,0,0,0,0,0,0,0,0,0,0,0,0,0,0],"split_type":[0,0,0,0,0,0,0,0,0,0,0,0,0,0,0,0,0,0,0,0,0,0,0,0,0,0,0,0,0,0,0,0,0,0,0,0,0,0,0,0,0,0,0,0,0,0,0,0,0,0,0],"sum_hessian":[7.403952E2,3.6603748E2,3.7435776E2,3.467448E2,1.9292667E1,1.9711641E2,1.7724133E2,1.5279422E1,4.0132456E0,1.4702022E2,5.0096195E1,2.3950012E1,1.5329132E2,1.256255E0,2.7569904E0,1.3579027E2,1.1229951E1,3.1588766E1,1.850743E1,8.970675E0,1.4979336E1,2.000009E1,1.3329123E2,9.981596E0,1.2483552E0,1.9084879E1,1.2503886E1,5.786533E0,1.2720896E1,7.9686465E0,1.0020295E0,4.1796904E0,1.0799645E1,6.6744347E0,1.3325655E1,4.8900824E0,1.2840115E2,6.9432054E0,5.560681E0,4.1092978E0,1.6772352E0,1.5270174E0,1.1193879E1,2.5335207E0,8.266125E0,3.892682E0,2.7817523E0,2.378045E0,1.0947611E1,2.4194918E0,2.47059E0],"tree_param":{"num_deleted":"0","num_feature":"10","num_nodes":"51","size_leaf_vector":"1"}},{"base_weights":[-1.8348141E-3,-5.5357224E-1,4.8260996E-1,-2.2288283E-2,-2.9645875E-1,-4.716202E-1,1.2046609E0,7.1015474E-3,-1.7881932E-2,-5.315056E-1,1.4395079E-1,4.3402383E-1,1.3148886E0,-2.2265226E-2,-2.4064149E-1,-4.0150493E-1,6.3931935E-2,-2.0506416E-2,1.2070845E0,1.5408863E0,6.9471127E-1,-2.023126E-2,4.201349E-2,-1.9946681E-2,8.030859E-3,-1.6263396E-1,8.850537E-2,4.8454148E-1,1.7277862E0,1.02112405E-1,-4.4198737E-2,-1.7893089E-2,1.6140396E-2,-8.705898E-3,7.6982304E-2,7.344102E-2,-1.7980961E-2,5.6286138E-2,-1.4923836E-2],"categories":[],"categories_nodes":[],"categories_segments":[],"categories_sizes":[],"default_left":[0,0,0,0,0,0,0,0,0,0,0,0,0,0,0,0,0,0,0,0,0,0,0,0,0,0,0,0,0,0,0,0,0,0,0,0,0,0,0],"id":13,"left_children":[1,3,5,-1,7,9,11,-1,-1,13,15,17,19,-1,21,23,-1,-1,25,27,29,-1,-1,-1,-1,31,-1,33,35,-1,37,-1,-1,-1,-1,-1,-1,-1,-1],"loss_changes":[1.4707239E2,7.524109E-2,2.0243951E2,0E0,4.8787594E-1,4.7553673E0,1.3620926E1,0E0,0E0,7.129288E-1,1.0192668E1,1.7011293E1,1.9346268E1,0E0,4.2881207E0,6.59268E-1,0E0,0E0,1.7752937E1,2.0079086E1,5.602888E1,0E0,0E0,0E0,0E0,1.1923041E0,0E0,1.7928476E1,2.194751E1,0E0,1.4903496E1,0E0,0E0,0E0,0E0,0E0,0E0,0E0,0E0],"parents":[2147483647,0,0,1,1,2,2,4,4,5,5,6,6,9,9,10,10,11,11,12,12,14,14,15,15,18,18,19,19,20,20,25,25,27,27,28,28,30,30],"right_children":[2,4,6,-1,8,10,12,-1,-1,14,16,18,20,-1,22,24,-1,-1,26,28,30,-1,-1,-1,-1,32,-1,34,36,-1,38,-1,-1,-1,-1,-1,-1,-1,-1],"split_conditions":[5.653856E-1,5.411346E-1,5.086584E-1,-2.2288283E-2,3.8142014E-1,4.76268E-1,2.8E-1,7.1015474E-3,-1.7881932E-2,4.4576037E-1,9.7007555E-1,6.714546E-1,7.924941E-1,-2.2265226E-2,9.763992E-1,9.891469E-1,6.3931935E-2,-2.0506416E-2,8.3706164E-1,7.1306616E-1,7.446008E-1,-2.023126E-2,4.201349E-2,-1.9946681E-2,8.030859E-3,7.8946006E-1,8.850537E-2,7.242412E-1,1E0,1.02112405E-1,4.9E-1,-1.7893089E-2,1.6140396E-2,-8.705898E-3,7.6982304E-2,7.344102E-2,-1.7980961E-2,5.6286138E-2,-1.4923836E-2],"split_indices":[0,0,1,0,5,1,6,0,0,1,0,1,1,0,0,2,0,0,0,0,0,0,0,0,0,1,0,1,5,0,6,0,0,0,0,0,0,0,0],"split_type":[0,0,0,0,0,0,0,0,0,0,0,0,0,0,0,0,0,0,0,0,0,0,0,0,0,0,0,0,0,0,0,0,0,0,0,0,0,0,0],"sum_hessian":[5.4824335E2,2.5625272E2,2.9199066E2,2.5152963E2,4.7230735E0,1.25923134E2,1.6606752E2,1.0955981E0,3.6274753E0,1.14883354E2,1.1039781E1,2.1398848E1,1.4466867E2,1.0490763E2,9.975717E0,8.555101E0,2.4846787E0,9.770639E0,1.1628208E1,1.0494227E2,3.97264E1,8.780586E0,1.1951302E0,7.5148067E0,1.0402951E0,5.277576E0,6.350632E0,1.6316292E1,8.862598E1,1.0604635E1,2.9121765E1,3.651326E0,1.6262501E0,1.1538621E1,4.777671E0,8.457814E1,4.047839E0,4.7745047E0,2.434726E1],"tree_param":{"num_deleted":"0","num_feature":"10","num_nodes":"39","size_leaf_vector":"1"}},{"base_weights":[1.9575363E-2,-4.817342E-1,1.2255081E0,-5.152123E-1,9.8343864E-2,-4.1197667E-1,3.0863621E0,-2.0127785E-1,-2.0845875E-2,-1.8744878E-2,9.30219E-2,-2.0428916E-2,5.759474E-1,1.4375323E0,3.4846966E0,-1.5219656E-2,8.638374E-3,-1.4257304E-2,6.6024534E-2,-1.7399725E-2,3.6022673E0,4.129661E0,2.3376029E0,1.648677E-1,4.626295E-2,1.7799844E-1,5.1553965E-2,6.9833946E-1,1.5286991E-1,-1.7316997E-2,1.12118654E-1],"categories":[],"categories_nodes":[],"categories_segments":[],"categories_sizes":[],"default_left":[0,0,0,0,0,0,0,0,0,0,0,0,0,0,0,0,0,0,0,0,0,0,0,0,0,0,0,0,0,0,0],"id":14,"left_children":[1,3,5,7,9,11,13,15,-1,-1,-1,-1,17,19,21,-1,-1,-1,-1,-1,23,25,27,-1,-1,-1,-1,29,-1,-1,-1],"loss_changes":[1.5035074E2,3.462757E0,2.2378154E2,2.0488739E-1,1.4256046E1,4.169478E0,1.751715E1,4.3467176E-1,0E0,0E0,0E0,0E0,4.676302E0,3.551873E1,1.0264435E1,0E0,0E0,0E0,0E0,0E0,3.0493546E-1,8.758118E0,2.6510773E1,0E0,0E0,0E0,0E0,1.76955E1,0E0,0E0,0E0],"parents":[2147483647,0,0,1,1,2,2,3,3,4,4,5,5,6,6,7,7,12,12,13,13,14,14,20,20,21,21,22,22,27,27],"right_children":[2,4,6,8,10,12,14,16,-1,-1,-1,-1,18,20,22,-1,-1,-1,-1,-1,24,26,28,-1,-1,-1,-1,30,-1,-1,-1],"split_conditions":[7.036585E-1,1E0,7.556337E-1,1.0249428E-1,6.4650047E-1,7.2541696E-1,7.4692684E-1,4.5668513E-1,-2.0845875E-2,-1.8744878E-2,9.30219E-2,-2.0428916E-2,8.090674E-1,9.2152494E-1,8.95E-1,-1.5219656E-2,8.638374E-3,-1.4257304E-2,6.6024534E-2,-1.7399725E-2,3.4E-1,9.763992E-1,8.933333E-1,1.648677E-1,4.626295E-2,1.7799844E-1,5.1553965E-2,9.7007555E-1,1.5286991E-1,-1.7316997E-2,1.12118654E-1],"split_indices":[1,0,0,5,1,0,1,1,0,0,0,0,1,0,8,0,0,0,0,0,7,0,7,0,0,0,0,0,0,0,0],"split_type":[0,0,0,0,0,0,0,0,0,0,0,0,0,0,0,0,0,0,0,0,0,0,0,0,0,0,0,0,0,0,0],"sum_hessian":[2.4672385E2,1.7470078E2,7.202306E1,1.6527412E2,9.426658E0,3.8725033E1,3.329803E1,3.7141848E0,1.6155994E2,8.143267E0,1.2833906E0,3.5645214E1,3.0798216E0,7.375871E0,2.592216E1,2.6598036E0,1.0543811E0,2.006936E0,1.0728855E0,4.383306E0,2.9925652E0,1.492841E1,1.099375E1,1.9030931E0,1.0894722E0,1.2906742E1,2.0216675E0,5.922633E0,5.0711164E0,4.368699E0,1.5539342E0],"tree_param":{"num_deleted":"0","num_feature":"10","num_nodes":"31","size_leaf_vector":"1"}},{"base_weights":[1.9288238E-2,-4.135207E-1,1.343556E-1,-1.8813565E-2,9.747297E-3],"categories":[],"categories_nodes":[],"categories_segments":[],"categories_sizes":[],"default_left":[0,0,0,0,0],"id":15,"left_children":[1,3,-1,-1,-1],"loss_changes":[2.7750072E1,7.5075054E-1,0E0,0E0,0E0],"parents":[2147483647,0,0,1,1],"right_children":[2,4,-1,-1,-1],"split_conditions":[8.5353196E-1,8.147655E-1,1.343556E-1,-1.8813565E-2,9.747297E-3],"split_indices":[1,1,0,0,0],"split_type":[0,0,0,0,0],"sum_hessian":[1.7237806E1,1.6035765E1,1.2020417E0,1.5021421E1,1.0143439E0],"tree_param":{"num_deleted":"0","num_feature":"10","num_nodes":"5","size_leaf_vector":"1"}},{"base_weights":[-1.0411984E-2,5.609901E-1,-5.523126E-1,5.823254E-1,9.625058E-2,4.2532822E-1,-1.3965884E0,2.340386E-2,1.2915386E-1,2.2094412E-2,-5.367588E-2,5.1758564E-1,-3.3014476E-1,-7.060025E-1,-1.6302959E0,1.3144435E-2,-5.1939664E-3,5.722702E-1,9.8901086E-2,2.2069553E-2,-1.420059E0,-1.3905944E0,5.2094016E-2,-1.727019E0,-1.3357222E0,5.7920647E-1,1.661456E-1,2.2098336E-2,-4.8790623E-2,-6.415667E-2,-5.510437E-1,5.9016906E-2,-1.7360332E0,3.398421E-1,-9.6634716E-1,-7.3220307E-1,-6.967036E-2,-7.5184643E-1,-6.928181E-2,1.3887563E-2,2.3456132E-2,1.4530991E-2,-6.097114E-3,1.2309799E-2,-4.6316847E-2,-2.5057213E-2,1.2786435E-2,-2.300565E-2,-7.287362E-2,2.0279747E-2,-8.601608E-3,-1.5733122E-4,-5.252268E-2,-5.218741E-3,-3.8874984E-2,1.1622706E-2,-5.7942018E-2],"categories":[],"categories_nodes":[],"categories_segments":[],"categories_sizes":[],"default_left":[0,0,0,0,0,0,0,0,0,0,0,0,0,0,0,0,0,0,0,0,0,0,0,0,0,0,0,0,0,0,0,0,0,0,0,0,0,0,0,0,0,0,0,0,0,0,0,0,0,0,0,0,0,0,0,0,0],"id":16,"left_children":[1,3,5,7,9,11,13,-1,15,-1,-1,17,19,21,23,-1,-1,25,27,-1,29,31,33,35,37,39,41,-1,-1,-1,43,45,47,49,51,53,-1,55,-1,-1,-1,-1,-1,-1,-1,-1,-1,-1,-1,-1,-1,-1,-1,-1,-1,-1,-1],"loss_changes":[2.250994E2,3.452591E0,3.0855365E2,3.4905243E-1,1.1715273E1,1.2274839E1,3.119928E1,0E0,2.1513039E-1,0E0,0E0,3.495716E0,1.9536146E1,2.72909E1,1.938385E0,0E0,0E0,2.8974915E-1,1.2116857E1,0E0,5.550518E-1,1.3920628E1,7.9040227E0,3.1936646E-1,8.241592E0,2.0690918E-2,2.8792936E-1,0E0,0E0,0E0,1.9699079E0,1.3217626E0,1.1752777E0,2.047079E0,1.9819293E0,3.5101247E-1,0E0,1.3815123E1,0E0,0E0,0E0,0E0,0E0,0E0,0E0,0E0,0E0,0E0,0E0,0E0,0E0,0E0,0E0,0E0,0E0,0E0,0E0],"parents":[2147483647,0,0,1,1,2,2,3,3,4,4,5,5,6,6,8,8,11,11,12,12,13,13,14,14,17,17,18,18,20,20,21,21,22,22,23,23,24,24,25,25,26,26,30,30,31,31,32,32,33,33,34,34,35,35,37,37],"right_children":[2,4,6,8,10,12,14,-1,16,-1,-1,18,20,22,24,-1,-1,26,28,-1,30,32,34,36,38,40,42,-1,-1,-1,44,46,48,50,52,54,-1,56,-1,-1,-1,-1,-1,-1,-1,-1,-1,-1,-1,-1,-1,-1,-1,-1,-1,-1,-1],"split_conditions":[6.180436E-1,5.653856E-1,5.5838215E-1,9.8502094E-1,7.6563036E-1,5.086584E-1,6.525414E-1,2.340386E-2,3.4E-1,2.2094412E-2,-5.367588E-2,1E0,8.5675687E-1,8.95E-1,3.4E-1,1.3144435E-2,-5.1939664E-3,9.956583E-1,4.275601E-1,2.2069553E-2,3.4E-1,7.757536E-1,8.933333E-1,1.1553174E-1,8.933333E-1,3.3942732E-1,1E0,2.2098336E-2,-4.8790623E-2,-6.415667E-2,8.8071775E-1,4.1388294E-1,8.3252037E-1,8.536747E-1,8.222068E-1,6.998628E-1,-6.967036E-2,8.3706164E-1,-6.928181E-2,1.3887563E-2,2.3456132E-2,1.4530991E-2,-6.097114E-3,1.2309799E-2,-4.6316847E-2,-2.5057213E-2,1.2786435E-2,-2.300565E-2,-7.287362E-2,2.0279747E-2,-8.601608E-3,-1.5733122E-4,-5.252268E-2,-5.218741E-3,-3.8874984E-2,1.1622706E-2,-5.7942018E-2],"split_indices":[0,0,1,3,1,1,1,0,7,0,0,0,0,8,7,0,0,2,1,0,7,0,7,5,7,3,4,0,0,0,3,3,2,3,0,0,0,0,0,0,0,0,0,0,0,0,0,0,0,0,0,0,0,0,0,0,0],"split_type":[0,0,0,0,0,0,0,0,0,0,0,0,0,0,0,0,0,0,0,0,0,0,0,0,0,0,0,0,0,0,0,0,0,0,0,0,0,0,0,0,0,0,0,0,0,0,0,0,0,0,0,0,0,0,0,0,0],"sum_hessian":[7.249633E2,3.5285907E2,3.7210422E2,3.3712912E2,1.5729948E1,1.7266298E2,1.9944125E2,3.3479074E2,2.3383787E0,1.2410021E1,3.3199265E0,1.541529E2,1.8510075E1,5.1445377E1,1.4799586E2,1.1692171E0,1.1691616E0,1.3602037E2,1.8132523E1,1.0504408E1,8.005667E0,2.6594835E1,2.485054E1,1.0775261E2,4.0243263E1,1.3331726E2,2.703116E0,1.392429E1,4.2082324E0,5.909683E0,2.0959835E0,5.2774634E0,2.1317371E1,1.9895596E1,4.9549456E0,2.313106E0,1.054395E2,1.7442888E1,2.2800377E1,5.492338E0,1.2782492E2,1.5831598E0,1.1199563E0,1.0719616E0,1.0240219E0,1.067289E0,4.2101746E0,1.9973819E0,1.931999E1,1.535607E1,4.5395255E0,1.580153E0,3.3747923E0,1.0987868E0,1.2143193E0,7.221284E0,1.0221604E1],"tree_param":{"num_deleted":"0","num_feature":"10","num_nodes":"57","size_leaf_vector":"1"}},{"base_weights":[-1.7006877E-3,-5.467167E-1,4.504833E-1,-2.2181647E-2,-1.0743665E-1,2.9460784E-2,5.194115E-1,1.6501583E-2,-1.6958693E-2,-2.979691E-1,4.5178196E-1,5.36506E-1,-1.7855769E-2,-4.6305934E-1,-3.6977148E-3,1.8094668E-1,1.00785E0,2.3307748E-1,5.833729E-1,7.928911E-4,-2.0859987E-2,-3.1608647E-1,4.2285788E-1,-2.8267643E-1,4.300874E-1,6.1611473E-3,4.7114577E-2,-2.1575917E-1,4.686047E-1,3.91829E-1,6.540645E-1,8.083447E-3,-1.8296516E-2,3.0778311E-2,-1.2294228E-2,7.4737975E-3,-1.7534455E-2,-1.1917588E-2,2.258857E-2,2.7536906E-2,-1.4107633E-2,5.2683413E-2,1.0152729E-2,4.558632E-2,1.3120093E-2,-9.39527E-3,2.7041776E-2],"categories":[],"categories_nodes":[],"categories_segments":[],"categories_sizes":[],"default_left":[0,0,0,0,0,0,0,0,0,0,0,0,0,0,0,0,0,0,0,0,0,0,0,0,0,0,0,0,0,0,0,0,0,0,0,0,0,0,0,0,0,0,0,0,0,0,0],"id":17,"left_children":[1,3,5,-1,7,9,11,-1,-1,13,15,17,-1,19,21,23,25,27,29,-1,-1,31,33,35,37,-1,-1,39,41,43,45,-1,-1,-1,-1,-1,-1,-1,-1,-1,-1,-1,-1,-1,-1,-1,-1],"loss_changes":[1.3333305E2,7.8364563E-1,8.565853E0,0E0,1.0856653E0,6.0336146E0,4.433586E0,0E0,0E0,1.1949418E0,2.6832528E0,3.4202347E0,0E0,4.5540357E-1,1.4475893E0,1.740338E0,6.9147635E-1,3.8140721E0,2.6677628E0,0E0,0E0,5.5117697E-1,1.3997842E0,4.840886E-1,1.1005754E0,0E0,0E0,1.8241761E0,3.9211478E0,2.5238657E0,3.211563E0,0E0,0E0,0E0,0E0,0E0,0E0,0E0,0E0,0E0,0E0,0E0,0E0,0E0,0E0,0E0,0E0],"parents":[2147483647,0,0,1,1,2,2,4,4,5,5,6,6,9,9,10,10,11,11,13,13,14,14,15,15,16,16,17,17,18,18,21,21,22,22,23,23,24,24,27,27,28,28,29,29,30,30],"right_children":[2,4,6,-1,8,10,12,-1,-1,14,16,18,-1,20,22,24,26,28,30,-1,-1,32,34,36,38,-1,-1,40,42,44,46,-1,-1,-1,-1,-1,-1,-1,-1,-1,-1,-1,-1,-1,-1,-1,-1],"split_conditions":[5.653856E-1,5.411346E-1,2.8E-1,-2.2181647E-2,8.560347E-1,8.793836E-1,1E0,1.6501583E-2,-1.6958693E-2,9.6666664E-1,8.536747E-1,6.9330037E-1,-1.7855769E-2,2.2689894E-1,8.4911174E-1,8.772637E-1,8.3978546E-1,5E-1,4.7601873E-1,7.928911E-4,-2.0859987E-2,8.3252037E-1,7.2609425E-1,4.0803987E-1,3.8618422E-1,6.1611473E-3,4.7114577E-2,4.0803987E-1,2.7608117E-1,3.538211E-1,3.3319566E-1,8.083447E-3,-1.8296516E-2,3.0778311E-2,-1.2294228E-2,7.4737975E-3,-1.7534455E-2,-1.1917588E-2,2.258857E-2,2.7536906E-2,-1.4107633E-2,5.2683413E-2,1.0152729E-2,4.558632E-2,1.3120093E-2,-9.39527E-3,2.7041776E-2],"split_indices":[0,0,6,0,2,0,5,0,0,4,3,0,0,5,0,2,2,6,5,0,0,2,5,3,3,0,0,3,5,3,3,0,0,0,0,0,0,0,0,0,0,0,0,0,0,0,0],"split_type":[0,0,0,0,0,0,0,0,0,0,0,0,0,0,0,0,0,0,0,0,0,0,0,0,0,0,0,0,0,0,0,0,0,0,0,0,0,0,0,0,0,0,0,0,0,0,0],"sum_hessian":[5.3902075E2,2.4432613E2,2.946946E2,2.3979256E2,4.5335727E0,4.165963E1,2.5303497E2,1.6007111E0,2.9328616E0,2.3631971E1,1.8027658E1,2.49071E2,3.9639845E0,1.4771423E1,8.860548E0,1.3014362E1,5.013295E0,3.4122997E1,2.14948E2,1.6660433E0,1.310538E1,5.264247E0,3.5963013E0,4.502013E0,8.51235E0,1.1489884E0,3.864307E0,1.1772485E1,2.2350512E1,5.9707905E1,1.552401E2,1.0359641E0,4.2282825E0,2.402295E0,1.1940062E0,1.0712236E0,3.4307895E0,1.1391336E0,7.373216E0,1.0186543E0,1.075383E1,3.4782312E0,1.887228E1,3.3698108E0,5.6338093E1,3.5120993E0,1.51728E2],"tree_param":{"num_deleted":"0","num_feature":"10","num_nodes":"47","size_leaf_vector":"1"}},{"base_weights":[-4.1909916E-3,-4.7508886E-1,1.1376276E0,-5.144666E-1,1.901093E-1,-2.4611786E-1,2.87106E0,-2.1943656E-1,-2.0817602E-2,-1.8654725E-2,9.2663735E-2,-2.0361194E-2,9.3136185E-1,6.4104235E-1,3.3878481E0,-1.557824E-2,8.261137E-3,-1.7443944E-2,1.0396661E-1,-7.322183E-2,7.390424E-2,3.9709102E-2,1.3901104E-1,-1.6421799E-2,2.651398E-2],"categories":[],"categories_nodes":[],"categories_segments":[],"categories_sizes":[],"default_left":[0,0,0,0,0,0,0,0,0,0,0,0,0,0,0,0,0,0,0,0,0,0,0,0,0],"id":18,"left_children":[1,3,5,7,9,11,13,15,-1,-1,-1,-1,17,19,21,-1,-1,-1,-1,23,-1,-1,-1,-1,-1],"loss_changes":[1.3230595E2,4.6611176E0,1.7304968E2,1.7613983E-1,1.5691721E1,1.3128375E1,3.4676758E1,4.4243112E-1,0E0,0E0,0E0,0E0,1.895569E1,6.3825507E0,1.9368591E0,0E0,0E0,0E0,0E0,1.6415578E0,0E0,0E0,0E0,0E0,0E0],"parents":[2147483647,0,0,1,1,2,2,3,3,4,4,5,5,6,6,7,7,12,12,13,13,14,14,19,19],"right_children":[2,4,6,8,10,12,14,16,-1,-1,-1,-1,18,20,22,-1,-1,-1,-1,24,-1,-1,-1,-1,-1],"split_conditions":[7.087101E-1,1E0,7.960139E-1,1.0249428E-1,6.4650047E-1,7.2541696E-1,4.9E-1,7.2541696E-1,-2.0817602E-2,-1.8654725E-2,9.2663735E-2,-2.0361194E-2,8.208895E-1,9.7007555E-1,7.178139E-1,-1.557824E-2,8.261137E-3,-1.7443944E-2,1.0396661E-1,8.272408E-1,7.390424E-2,3.9709102E-2,1.3901104E-1,-1.6421799E-2,2.651398E-2],"split_indices":[1,0,0,5,1,0,6,0,0,0,0,0,1,0,1,0,0,0,0,1,0,0,0,0,0],"split_type":[0,0,0,0,0,0,0,0,0,0,0,0,0,0,0,0,0,0,0,0,0,0,0,0,0],"sum_hessian":[2.4406303E2,1.7321237E2,7.085066E1,1.6374571E2,9.466656E0,3.98765E1,3.0974163E1,3.9984224E0,1.5974728E2,7.830079E0,1.6365765E0,3.3061993E1,6.814508E0,6.249046E0,2.4725119E1,2.919031E0,1.0793916E0,4.1502037E0,2.6643043E0,4.515352E0,1.7336942E0,1.3058469E0,2.3419271E1,3.399633E0,1.1157187E0],"tree_param":{"num_deleted":"0","num_feature":"10","num_nodes":"25","size_leaf_vector":"1"}},{"base_weights":[8.13208E-2,-4.114687E-1,1.4087757E-1,-1.877935E-2,9.279615E-3],"categories":[],"categories_nodes":[],"categories_segments":[],"categories_sizes":[],"default_left":[0,0,0,0,0],"id":19,"left_children":[1,3,-1,-1,-1],"loss_changes":[3.1988354E1,7.3049164E-1,0E0,0E0,0E0],"parents":[2147483647,0,0,1,1],"right_children":[2,4,-1,-1,-1],"split_conditions":[8.5353196E-1,8.147655E-1,1.4087757E-1,-1.877935E-2,9.279615E-3],"split_indices":[1,1,0,0,0],"split_type":[0,0,0,0,0],"sum_hessian":[1.7011896E1,1.56507015E1,1.3611946E0,1.4604332E1,1.0463697E0],"tree_param":{"num_deleted":"0","num_feature":"10","num_nodes":"5","size_leaf_vector":"1"}},{"base_weights":[-1.4856711E-2,5.5687296E-1,-5.281823E-1,2.324719E-2,1.7182766E-1,3.2302102E-1,-1.4109462E0,2.2333011E-2,-9.024713E-1,5.2288973E-1,-4.0651387E-1,-8.317128E-1,-1.5012424E0,-5.3148698E-2,2.2856623E-3,2.3392987E-2,1.9455169E-1,5.1940876E-1,-1.1545671E0,3.7557855E-1,-1.1280826E0,-1.5952182E0,-1.2078747E0,2.2423629E-2,-7.9043716E-1,-5.2116765E-3,2.2680787E-2,-6.333426E-2,-3.0545115E-1,2.029907E-2,-2.529238E-3,-6.504893E-2,-5.6318355E-1,-1.5842754E-2,-6.4281754E-2,-6.431228E-1,-6.335565E-2,1.3026124E-2,-4.1760955E-2,8.888725E-3,-5.014066E-2,2.2762974E-3,-5.913771E-2,1.6179606E-2,-5.1457122E-2],"categories":[],"categories_nodes":[],"categories_segments":[],"categories_sizes":[],"default_left":[0,0,0,0,0,0,0,0,0,0,0,0,0,0,0,0,0,0,0,0,0,0,0,0,0,0,0,0,0,0,0,0,0,0,0,0,0,0,0,0,0,0,0,0,0],"id":20,"left_children":[1,3,5,-1,7,9,11,-1,13,15,17,19,21,-1,-1,-1,23,25,27,29,31,33,35,-1,37,-1,-1,-1,39,-1,-1,-1,41,-1,-1,43,-1,-1,-1,-1,-1,-1,-1,-1,-1],"loss_changes":[2.1551266E2,3.1516495E0,2.9118536E2,0E0,9.658779E0,2.9052624E1,8.69516E0,0E0,2.6183972E0,3.05233E0,3.0450756E1,1.0400316E1,2.5735474E0,0E0,0E0,0E0,9.891688E0,6.9095135E-1,8.30872E0,3.9359003E-1,5.4541683E0,1.0725403E0,8.266087E0,0E0,2.4669676E0,0E0,0E0,0E0,4.9519844E0,0E0,0E0,0E0,6.9726906E0,0E0,0E0,1.3432329E1,0E0,0E0,0E0,0E0,0E0,0E0,0E0,0E0,0E0],"parents":[2147483647,0,0,1,1,2,2,4,4,5,5,6,6,8,8,9,9,10,10,11,11,12,12,16,16,17,17,18,18,19,19,20,20,21,21,22,22,24,24,28,28,32,32,35,35],"right_children":[2,4,6,-1,8,10,12,-1,14,16,18,20,22,-1,-1,-1,24,26,28,30,32,34,36,-1,38,-1,-1,-1,40,-1,-1,-1,42,-1,-1,44,-1,-1,-1,-1,-1,-1,-1,-1,-1],"split_conditions":[6.0792077E-1,5.411346E-1,6.0155654E-1,2.324719E-2,7.524728E-1,5.086584E-1,6.4650047E-1,2.2333011E-2,8.95E-1,9.75E-1,8.4911174E-1,7.446008E-1,3.4E-1,-5.3148698E-2,2.2856623E-3,2.3392987E-2,4.275601E-1,1.81059E-1,8.95E-1,9.4107884E-1,8.95E-1,1.1553174E-1,8.933333E-1,2.2423629E-2,1.6666667E-1,-5.2116765E-3,2.2680787E-2,-6.333426E-2,8.933333E-1,2.029907E-2,-2.529238E-3,-6.504893E-2,8.933333E-1,-1.5842754E-2,-6.4281754E-2,8.3706164E-1,-6.335565E-2,1.3026124E-2,-4.1760955E-2,8.888725E-3,-5.014066E-2,2.2762974E-3,-5.913771E-2,1.6179606E-2,-5.1457122E-2],"split_indices":[0,0,1,0,1,1,1,0,8,0,0,0,7,0,0,0,1,5,8,2,8,5,7,0,7,0,0,0,7,0,0,0,7,0,0,0,0,0,0,0,0,0,0,0,0],"split_type":[0,0,0,0,0,0,0,0,0,0,0,0,0,0,0,0,0,0,0,0,0,0,0,0,0,0,0,0,0,0,0,0,0,0,0,0,0,0,0,0,0,0,0,0,0],"sum_hessian":[7.3232416E2,3.4641293E2,3.8591122E2,3.253643E2,2.1048645E1,1.9679047E2,1.8912074E2,1.5832807E1,5.2158375E0,1.5469292E2,4.2097546E1,2.6882896E1,1.6223785E2,3.3452754E0,1.8705621E0,1.294865E2,2.5206417E1,1.8948809E1,2.3148735E1,5.2459097E0,2.1636988E1,1.19515366E2,4.2722485E1,1.8691278E1,6.51514E0,1.1752132E0,1.7773596E1,1.4806826E1,8.341909E0,3.9131906E0,1.3327192E0,1.0499504E1,1.1137484E1,1.5039668E0,1.180114E2,1.8159092E1,2.4563395E1,1.15362E0,5.36152E0,5.8509994E0,2.4909096E0,7.1983814E0,3.9391022E0,7.049812E0,1.1109281E1],"tree_param":{"num_deleted":"0","num_feature":"10","num_nodes":"45","size_leaf_vector":"1"}},{"base_weights":[-2.5566489E-2,-5.368418E-1,4.0921625E-1,-2.2084935E-2,-1.8740232E-1,-4.7910693E-1,1.0023869E0,-2.0399913E-2,4.5061257E-2,-5.3563225E-1,1.1081799E-1,1.1034801E0,2.8745967E-1,-2.2137377E-2,-2.9346442E-1,-3.8221163E-1,5.1399786E-2,2.632181E-1,1.218179E0,7.3369704E-2,-1.4648323E-1,-1.9728381E-2,2.422876E-2,-1.94606E-2,5.0809514E-3,-2.0173933E-2,9.120252E-1,1.2653112E0,-1.7307295E-2,4.7861498E-2,-4.9641037E-1,-1.8030087E-2,6.894368E-2,5.8229156E-2,3.1418793E-2,5.755711E-3,-2.2255156E-2],"categories":[],"categories_nodes":[],"categories_segments":[],"categories_sizes":[],"default_left":[0,0,0,0,0,0,0,0,0,0,0,0,0,0,0,0,0,0,0,0,0,0,0,0,0,0,0,0,0,0,0,0,0,0,0,0,0],"id":21,"left_children":[1,3,5,-1,7,9,11,-1,-1,13,15,17,19,-1,21,23,-1,25,27,-1,29,-1,-1,-1,-1,-1,31,33,-1,-1,35,-1,-1,-1,-1,-1,-1],"loss_changes":[1.2013925E2,1.2227478E0,1.5440024E2,0E0,5.62695E0,3.9819126E0,1.2365158E1,0E0,0E0,3.0111504E-1,6.9252844E0,1.4462097E1,1.5767844E1,0E0,2.00349E0,5.1849973E-1,0E0,1.0269827E1,1.1027237E1,0E0,9.503626E0,0E0,0E0,0E0,0E0,0E0,1.2977154E1,1.0844559E1,0E0,0E0,6.8469334E-1,0E0,0E0,0E0,0E0,0E0,0E0],"parents":[2147483647,0,0,1,1,2,2,4,4,5,5,6,6,9,9,10,10,11,11,12,12,14,14,15,15,17,17,18,18,20,20,26,26,27,27,30,30],"right_children":[2,4,6,-1,8,10,12,-1,-1,14,16,18,20,-1,22,24,-1,26,28,-1,30,-1,-1,-1,-1,-1,32,34,-1,-1,36,-1,-1,-1,-1,-1,-1],"split_conditions":[6.0235316E-1,5.411346E-1,5.086584E-1,-2.2084935E-2,8.090674E-1,4.76268E-1,8.397863E-1,-2.0399913E-2,4.5061257E-2,4.4576037E-1,9.7007555E-1,2.8E-1,7.1306616E-1,-2.2137377E-2,9.252088E-1,9.8570526E-1,5.1399786E-2,6.714546E-1,1E0,7.3369704E-2,4.9E-1,-1.9728381E-2,2.422876E-2,-1.94606E-2,5.0809514E-3,-2.0173933E-2,8.3706164E-1,7.4692684E-1,-1.7307295E-2,4.7861498E-2,4E-1,-1.8030087E-2,6.894368E-2,5.8229156E-2,3.1418793E-2,5.755711E-3,-2.2255156E-2],"split_indices":[0,0,1,0,1,1,1,0,0,1,0,6,0,0,0,2,0,1,5,0,6,0,0,0,0,0,0,1,0,0,9,0,0,0,0,0,0],"split_type":[0,0,0,0,0,0,0,0,0,0,0,0,0,0,0,0,0,0,0,0,0,0,0,0,0,0,0,0,0,0,0,0,0,0,0,0,0],"sum_hessian":[5.3846454E2,2.4735588E2,2.9110864E2,2.3643611E2,1.0919765E1,1.16633064E2,1.7447559E2,9.258487E0,1.6612787E0,1.0651871E2,1.0114357E1,1.5238441E2,2.2091179E1,9.802721E1,8.491496E0,7.5983443E0,2.516013E0,1.869839E1,1.3368602E2,4.132834E0,1.7958345E1,7.3174787E0,1.1740171E0,6.3436356E0,1.2547088E0,8.667281E0,1.0031109E1,1.3020227E2,3.4837465E0,3.2118545E0,1.4746491E1,3.91002E0,6.1210885E0,9.17564E1,3.8445873E1,1.1429868E0,1.3603504E1],"tree_param":{"num_deleted":"0","num_feature":"10","num_nodes":"37","size_leaf_vector":"1"}},{"base_weights":[3.037529E-2,-4.7747916E-1,1.0934149E0,-5.1311195E-1,1.06352046E-1,-3.7839052E-1,2.377332E0,-2.0631394E-1,-2.077929E-2,-1.8585263E-2,7.798014E-2,-2.0324267E-2,5.108976E-1,4.071995E-1,2.830891E0,-1.5391578E-2,9.457038E-3,-1.6145024E-2,7.612412E-2,-1.6898566E-1,6.299167E-2,1.6475343E0,1.1943189E-1,-1.7673979E-2,2.7397389E-2,-1.5666854E-2,1.308161E-1],"categories":[],"categories_nodes":[],"categories_segments":[],"categories_sizes":[],"default_left":[0,0,0,0,0,0,0,0,0,0,0,0,0,0,0,0,0,0,0,0,0,0,0,0,0,0,0],"id":22,"left_children":[1,3,5,7,9,11,13,15,-1,-1,-1,-1,17,19,21,-1,-1,-1,-1,23,-1,25,-1,-1,-1,-1,-1],"loss_changes":[1.3088008E2,3.468338E0,1.4898639E2,1.9541931E-1,1.1711337E1,4.570902E0,3.6370132E1,4.7091353E-1,0E0,0E0,0E0,0E0,7.4604363E0,6.338493E0,1.3070374E0,0E0,0E0,0E0,0E0,1.9212763E0,0E0,2.1675537E1,0E0,0E0,0E0,0E0,0E0],"parents":[2147483647,0,0,1,1,2,2,3,3,4,4,5,5,6,6,7,7,12,12,13,13,14,14,19,19,21,21],"right_children":[2,4,6,8,10,12,14,16,-1,-1,-1,-1,18,20,22,-1,-1,-1,-1,24,-1,26,-1,-1,-1,-1,-1],"split_conditions":[7.036585E-1,1E0,7.6750934E-1,1.0249428E-1,6.4650047E-1,7.2541696E-1,4.9E-1,7E-1,-2.077929E-2,-1.8585263E-2,7.798014E-2,-2.0324267E-2,8.2987404E-1,9.7007555E-1,7.344938E-1,-1.5391578E-2,9.457038E-3,-1.6145024E-2,7.612412E-2,8.436741E-1,6.299167E-2,8.851904E-1,1.1943189E-1,-1.7673979E-2,2.7397389E-2,-1.5666854E-2,1.308161E-1],"split_indices":[1,0,0,5,1,0,6,9,0,0,0,0,1,0,1,0,0,0,0,1,0,0,0,0,0,0,0],"split_type":[0,0,0,0,0,0,0,0,0,0,0,0,0,0,0,0,0,0,0,0,0,0,0,0,0,0,0],"sum_hessian":[2.4046213E2,1.6309586E2,7.7366264E1,1.5382843E2,9.267428E0,3.637427E1,4.0991997E1,3.808249E0,1.5002019E2,7.6465454E0,1.6208829E0,3.2118008E1,4.256263E0,8.026207E0,3.2965786E1,2.8074226E0,1.0008265E0,2.9973927E0,1.2588702E0,5.946828E0,2.0793793E0,5.162703E0,2.7803083E1,4.8724403E0,1.0743877E0,2.6240826E0,2.5386207E0],"tree_param":{"num_deleted":"0","num_feature":"10","num_nodes":"27","size_leaf_vector":"1"}},{"base_weights":[1.3398373E-1,-4.1049057E-1,1.4057735E-1,-1.8767102E-2,9.918163E-3],"categories":[],"categories_nodes":[],"categories_segments":[],"categories_sizes":[],"default_left":[0,0,0,0,0],"id":23,"left_children":[1,3,-1,-1,-1],"loss_changes":[3.474228E1,7.5306773E-1,0E0,0E0,0E0],"parents":[2147483647,0,0,1,1],"right_children":[2,4,-1,-1,-1],"split_conditions":[8.5353196E-1,8.147655E-1,1.4057735E-1,-1.8767102E-2,9.918163E-3],"split_indices":[1,1,0,0,0],"split_type":[0,0,0,0,0],"sum_hessian":[1.7092045E1,1.547769E1,1.6143546E0,1.4474984E1,1.002706E0],"tree_param":{"num_deleted":"0","num_feature":"10","num_nodes":"5","size_leaf_vector":"1"}},{"base_weights":[-4.948397E-4,4.5536876E-1,-5.7456684E-1,5.4628575E-1,2.2294307E-2,5.5922985E-1,-1.260385E0,5.7395834E-1,2.5897658E-1,4.968065E-1,-1.067064E0,2.2991762E-2,-1.8957378E-1,-2.803523E-1,-1.3906279E0,2.3198416E-2,4.0560526E-1,2.2555701E-2,-1.068186E0,2.292067E-2,-1.3931377E-1,1.9861903E-2,-1.5692092E0,-2.678363E-2,1.3419686E-2,4.529159E-1,-7.998665E-1,-9.701668E-1,-6.0070362E-2,2.1573376E-2,-1.3883384E-2,1.3245625E-2,-5.869313E-2,1.742537E-2,-7.601177E-1,-2.1114975E-2,-6.4842574E-2,2.1392357E-2,-6.5731695E-3,1.8447287E-2,-1.2269413E0,6.1690345E-2,-1.4159706E0,-3.0811636E-3,-4.6547998E-2,-2.986306E-2,-5.9897345E-2,2.1359017E-2,-1.5537969E-2,-2.8572709E-3,-6.210657E-2],"categories":[],"categories_nodes":[],"categories_segments":[],"categories_sizes":[],"default_left":[0,0,0,0,0,0,0,0,0,0,0,0,0,0,0,0,0,0,0,0,0,0,0,0,0,0,0,0,0,0,0,0,0,0,0,0,0,0,0,0,0,0,0,0,0,0,0,0,0,0,0],"id":24,"left_children":[1,3,5,7,9,11,13,15,17,19,21,-1,23,25,27,-1,29,-1,31,-1,33,-1,35,-1,-1,37,39,41,-1,-1,-1,-1,-1,-1,43,-1,-1,-1,-1,-1,45,47,49,-1,-1,-1,-1,-1,-1,-1,-1],"loss_changes":[1.8874133E2,1.5815971E1,2.4892343E2,2.4925842E0,3.712373E1,1.5192604E0,2.5038055E1,7.0121765E-2,1.3150387E1,2.5035229E0,1.7893826E1,0E0,1.0351971E0,9.741651E0,6.747711E0,0E0,1.5691273E0,0E0,3.9144897E0,0E0,2.5274072E0,0E0,4.8187256E-2,0E0,0E0,6.3626575E-1,8.5218935E0,1.8272705E1,0E0,0E0,0E0,0E0,0E0,0E0,8.264402E-1,0E0,0E0,0E0,0E0,0E0,3.5143661E-1,2.9467292E0,4.970463E0,0E0,0E0,0E0,0E0,0E0,0E0,0E0,0E0],"parents":[2147483647,0,0,1,1,2,2,3,3,4,4,5,5,6,6,7,7,8,8,9,9,10,10,12,12,13,13,14,14,16,16,18,18,20,20,22,22,25,25,26,26,27,27,34,34,40,40,41,41,42,42],"right_children":[2,4,6,8,10,12,14,16,18,20,22,-1,24,26,28,-1,30,-1,32,-1,34,-1,36,-1,-1,38,40,42,-1,-1,-1,-1,-1,-1,44,-1,-1,-1,-1,-1,46,48,50,-1,-1,-1,-1,-1,-1,-1,-1],"split_conditions":[6.0155654E-1,8.961586E-1,5.653856E-1,5.704713E-1,4.76268E-1,5.411346E-1,2.8E-1,5.459855E-1,8.293849E-1,4.275601E-1,2.8E-1,2.2991762E-2,5.5477595E-1,8.222068E-1,7.3824453E-1,2.3198416E-2,8.2613105E-1,2.2555701E-2,4.9E-1,2.292067E-2,9.763992E-1,1.9861903E-2,4.9E-1,-2.678363E-2,1.3419686E-2,8.436741E-1,6.690921E-1,7.087101E-1,-6.0070362E-2,2.1573376E-2,-1.3883384E-2,1.3245625E-2,-5.869313E-2,1.742537E-2,8E-1,-2.1114975E-2,-6.4842574E-2,2.1392357E-2,-6.5731695E-3,1.8447287E-2,7.378853E-1,6.7050135E-1,4.9E-1,-3.0811636E-3,-4.6547998E-2,-2.986306E-2,-5.9897345E-2,2.1359017E-2,-1.5537969E-2,-2.8572709E-3,-6.210657E-2],"split_indices":[1,0,0,1,1,0,6,1,0,1,6,0,0,0,0,0,0,0,6,0,0,0,6,0,0,1,1,1,0,0,0,0,0,0,9,0,0,0,0,0,1,0,6,0,0,0,0,0,0,0,0],"split_type":[0,0,0,0,0,0,0,0,0,0,0,0,0,0,0,0,0,0,0,0,0,0,0,0,0,0,0,0,0,0,0,0,0,0,0,0,0,0,0,0,0,0,0,0,0,0,0,0,0,0,0],"sum_hessian":[7.1921686E2,4.009969E2,3.1821997E2,3.3120444E2,6.979247E1,1.2000762E2,1.9821236E2,3.0119656E2,3.0007854E1,4.8994823E1,2.0797646E1,1.1779166E2,2.2159686E0,2.3621464E1,1.745909E2,2.8846738E2,1.2729186E1,2.4869251E1,5.138603E0,4.384159E1,5.153234E0,5.058212E0,1.5739434E1,1.0138514E0,1.2021172E0,9.848705E0,1.3772759E1,3.853287E1,1.3605803E2,1.1049498E1,1.6796881E0,1.1782442E0,3.9603589E0,2.8302839E0,2.32295E0,1.2769066E0,1.4462528E1,8.812996E0,1.0357094E0,3.4641373E0,1.0308621E1,1.1885144E1,2.6647728E1,1.3050067E0,1.0179431E0,5.0681696E0,5.240452E0,5.7090173E0,6.1761274E0,2.5996609E0,2.4048067E1],"tree_param":{"num_deleted":"0","num_feature":"10","num_nodes":"51","size_leaf_vector":"1"}},{"base_weights":[-4.5655618E-4,-5.417498E-1,4.1422874E-1,-2.1995973E-2,-2.3576206E-2,-4.7041044E-1,9.738165E-1,-1.6274106E-2,2.6846085E-2,-5.335967E-1,9.516253E-2,1.0648463E0,3.9644116E-1,-2.2044713E-2,-2.9144305E-1,-2.0079907E-2,6.708567E-2,3.4114856E-1,1.1648027E0,1.5177022E0,-7.8646615E-2,-1.9423272E-2,1.3351073E-2,-4.243537E-1,1.0770502E0,1.1998022E0,-1.6424911E-2,1.7219781E0,5.578831E-3,1.1544311E0,-2.2336444E-2,-2.0099213E-2,2.1160052E-3,-1.7812356E-2,7.700203E-2,5.1446006E-2,2.5788257E-2,7.524696E-2,2.1806039E-2,5.8547523E-2,1.8559434E-2],"categories":[],"categories_nodes":[],"categories_segments":[],"categories_sizes":[],"default_left":[0,0,0,0,0,0,0,0,0,0,0,0,0,0,0,0,0,0,0,0,0,0,0,0,0,0,0,0,0,0,0,0,0,0,0,0,0,0,0,0,0],"id":25,"left_children":[1,3,5,-1,7,9,11,-1,-1,13,15,17,19,-1,21,-1,-1,23,25,27,29,-1,-1,31,33,35,-1,37,-1,39,-1,-1,-1,-1,-1,-1,-1,-1,-1,-1,-1],"loss_changes":[1.22330635E2,9.853363E-1,1.53216E2,0E0,1.5259402E0,4.347681E0,9.529388E0,0E0,0E0,2.9890442E-1,1.3058594E1,1.1391052E1,1.4704391E1,0E0,1.3067043E0,0E0,0E0,1.2394606E1,8.3650055E0,2.0678005E0,1.2583993E1,0E0,0E0,4.4060445E-1,1.5170104E1,5.8775635E0,0E0,2.9551888E-1,0E0,5.975218E-1,0E0,0E0,0E0,0E0,0E0,0E0,0E0,0E0,0E0,0E0,0E0],"parents":[2147483647,0,0,1,1,2,2,4,4,5,5,6,6,9,9,10,10,11,11,12,12,14,14,17,17,18,18,19,19,20,20,23,23,24,24,25,25,27,27,29,29],"right_children":[2,4,6,-1,8,10,12,-1,-1,14,16,18,20,-1,22,-1,-1,24,26,28,30,-1,-1,32,34,36,-1,38,-1,40,-1,-1,-1,-1,-1,-1,-1,-1,-1,-1,-1],"split_conditions":[5.653856E-1,9E-1,5.086584E-1,-2.1995973E-2,7.496875E-1,1E0,8.3753705E-1,-1.6274106E-2,2.6846085E-2,4.782056E-1,4.275601E-1,2.8E-1,7.339323E-1,-2.2044713E-2,8.7198734E-1,-2.0079907E-2,6.708567E-2,6.919157E-1,1E0,3.4E-1,4.9E-1,-1.9423272E-2,1.3351073E-2,6.714546E-1,8.3706164E-1,9.75E-1,-1.6424911E-2,7.1306616E-1,5.578831E-3,2.8E-1,-2.2336444E-2,-2.0099213E-2,2.1160052E-3,-1.7812356E-2,7.700203E-2,5.1446006E-2,2.5788257E-2,7.524696E-2,2.1806039E-2,5.8547523E-2,1.8559434E-2],"split_indices":[0,9,1,0,1,0,1,0,0,1,1,6,0,0,0,0,0,1,5,7,6,0,0,1,0,0,0,0,0,6,0,0,0,0,0,0,0,0,0,0,0],"split_type":[0,0,0,0,0,0,0,0,0,0,0,0,0,0,0,0,0,0,0,0,0,0,0,0,0,0,0,0,0,0,0,0,0,0,0,0,0,0,0,0,0],"sum_hessian":[5.4298456E2,2.3540347E2,3.0758112E2,2.3169823E2,3.7052462E0,1.1923874E2,1.8834238E2,2.654919E0,1.0503274E0,1.0730687E2,1.19318695E1,1.619628E2,2.6379572E1,9.88767E1,8.430167E0,9.157721E0,2.7741487E0,2.0190891E1,1.4177191E2,7.1976733E0,1.9181898E1,6.6031475E0,1.8270198E0,1.0103915E1,1.0086976E1,1.3892401E2,2.8479016E0,6.051355E0,1.1463182E0,4.9789333E0,1.4202965E1,8.637153E0,1.4667623E0,3.7785213E0,6.308455E0,1.1908304E2,1.9840967E1,4.803099E0,1.2482556E0,2.6652317E0,2.3137014E0],"tree_param":{"num_deleted":"0","num_feature":"10","num_nodes":"41","size_leaf_vector":"1"}},{"base_weights":[-2.0664645E-2,-4.881218E-1,8.993919E-1,-5.122443E-1,-8.296103E-2,-4.2941374E-1,1.9619023E0,-2.0746915E-2,-2.713117E-1,-1.861525E-2,5.435588E-2,-2.0313974E-2,2.9832765E-1,-1.6712027E-2,2.1743197E0,8.926348E-3,-1.6770383E-2,-1.460549E-2,4.6004914E-2,9.977261E-1,2.4411256E0,-1.804722E-2,1.0961282E-1,1.5184256E0,2.6664398E0,-8.8073775E-6,1.0042294E-1,1.1544763E-1,6.84824E-2],"categories":[],"categories_nodes":[],"categories_segments":[],"categories_sizes":[],"default_left":[0,0,0,0,0,0,0,0,0,0,0,0,0,0,0,0,0,0,0,0,0,0,0,0,0,0,0,0,0],"id":26,"left_children":[1,3,5,7,9,11,13,-1,15,-1,-1,-1,17,-1,19,-1,-1,-1,-1,21,23,-1,-1,25,27,-1,-1,-1,-1],"loss_changes":[1.0330342E2,1.513855E0,1.1510399E2,9.175873E-2,6.2243533E0,2.2508783E0,2.373146E1,0E0,5.323311E-1,0E0,0E0,0E0,2.7982104E0,0E0,1.0627213E1,0E0,0E0,0E0,0E0,2.4926958E1,2.8593445E0,0E0,0E0,1.3326357E1,3.8241577E-1,0E0,0E0,0E0,0E0],"parents":[2147483647,0,0,1,1,2,2,3,3,4,4,5,5,6,6,8,8,12,12,14,14,19,19,20,20,23,23,24,24],"right_children":[2,4,6,8,10,12,14,-1,16,-1,-1,-1,18,-1,20,-1,-1,-1,-1,22,24,-1,-1,26,28,-1,-1,-1,-1],"split_conditions":[7.008649E-1,1E0,7.556337E-1,9.75E-1,6.4650047E-1,7.2541696E-1,2.8E-1,-2.0746915E-2,4.4989756E-1,-1.861525E-2,5.435588E-2,-2.0313974E-2,8.174336E-1,-1.6712027E-2,7.4692684E-1,8.926348E-3,-1.6770383E-2,-1.460549E-2,4.6004914E-2,9.2152494E-1,8.145081E-1,-1.804722E-2,1.0961282E-1,8.174336E-1,8.5353196E-1,-8.8073775E-6,1.0042294E-1,1.1544763E-1,6.84824E-2],"split_indices":[1,0,0,0,1,0,6,0,3,0,0,0,1,0,1,0,0,0,0,0,0,0,0,1,1,0,0,0,0],"split_type":[0,0,0,0,0,0,0,0,0,0,0,0,0,0,0,0,0,0,0,0,0,0,0,0,0,0,0,0,0],"sum_hessian":[2.3817116E2,1.5824194E2,7.9929214E1,1.491005E2,9.141443E0,3.5778923E1,4.4150288E1,1.4410277E2,4.9977384E0,7.760406E0,1.3810371E0,3.2570633E1,3.2082913E0,3.5387652E0,4.0611523E1,1.0338967E0,3.9638417E0,2.1246946E0,1.0835966E0,8.382938E0,3.2228584E1,4.9818177E0,3.401121E0,7.8442364E0,2.4384348E1,3.4947402E0,4.349496E0,1.817525E1,6.2091E0],"tree_param":{"num_deleted":"0","num_feature":"10","num_nodes":"29","size_leaf_vector":"1"}},{"base_weights":[1.3379923E-1,-4.1199374E-1,1.5811284E-1,-1.8784616E-2,9.084287E-3],"categories":[],"categories_nodes":[],"categories_segments":[],"categories_sizes":[],"default_left":[0,0,0,0,0],"id":27,"left_children":[1,3,-1,-1,-1],"loss_changes":[3.9346806E1,7.2306347E-1,0E0,0E0,0E0],"parents":[2147483647,0,0,1,1],"right_children":[2,4,-1,-1,-1],"split_conditions":[9.763992E-1,8.748226E-1,1.5811284E-1,-1.8784616E-2,9.084287E-3],"split_indices":[0,1,0,0,0],"split_type":[0,0,0,0,0],"sum_hessian":[1.7095545E1,1.573842E1,1.3571252E0,1.4680052E1,1.0583676E0],"tree_param":{"num_deleted":"0","num_feature":"10","num_nodes":"5","size_leaf_vector":"1"}},{"base_weights":[1.6536434E-3,5.568929E-1,-4.5206064E-1,2.2960577E-2,2.1101645E-1,3.720281E-1,-1.1655046E0,2.163069E-2,-6.7875195E-1,5.424905E-1,-1.6501337E-1,-1.2767933E-1,-1.294288E0,1.3551386E-2,-4.403597E-2,2.3069E-2,2.4622206E-1,3.9937982E-1,-9.8263735E-1,2.126841E-2,-5.1293963E-1,-1.3354979E0,1.8568348E-2,2.1685412E-2,-4.6725232E-2,4.9047837E-1,-1.7350355E-1,3.2736585E-1,-5.8940727E-2,1.9971073E-2,-1.0907396E0,-9.6645504E-1,-1.4009235E0,-6.821397E-3,2.1176169E-2,1.5853964E-2,-3.041367E-2,1.888222E-2,-6.080962E-3,-8.626404E-3,-5.0775122E-2,1.9374426E-2,-4.6741117E-2,-5.639197E-2,-1.3563584E-2],"categories":[],"categories_nodes":[],"categories_segments":[],"categories_sizes":[],"default_left":[0,0,0,0,0,0,0,0,0,0,0,0,0,0,0,0,0,0,0,0,0,0,0,0,0,0,0,0,0,0,0,0,0,0,0,0,0,0,0,0,0,0,0,0,0],"id":28,"left_children":[1,3,5,-1,7,9,11,-1,13,15,17,19,21,-1,-1,-1,23,25,27,-1,29,31,-1,-1,-1,33,35,37,-1,-1,39,41,43,-1,-1,-1,-1,-1,-1,-1,-1,-1,-1,-1,-1],"loss_changes":[1.7945512E2,1.7758713E0,2.3091629E2,0E0,5.2640758E0,1.6811295E1,2.7949738E1,0E0,2.5020103E0,1.266655E0,2.1054934E1,6.4536653E0,1.4173126E1,0E0,0E0,0E0,7.3845773E0,1.5047073E0,1.2427036E1,0E0,9.824404E0,3.0645752E0,0E0,0E0,0E0,7.008829E-1,1.7964226E0,4.7970778E-1,0E0,0E0,1.3543358E0,9.590374E0,9.659729E-1,0E0,0E0,0E0,0E0,0E0,0E0,0E0,0E0,0E0,0E0,0E0,0E0],"parents":[2147483647,0,0,1,1,2,2,4,4,5,5,6,6,8,8,9,9,10,10,11,11,12,12,16,16,17,17,18,18,20,20,21,21,25,25,26,26,27,27,30,30,31,31,32,32],"right_children":[2,4,6,-1,8,10,12,-1,14,16,18,20,22,-1,-1,-1,24,26,28,-1,30,32,-1,-1,-1,34,36,38,-1,-1,40,42,44,-1,-1,-1,-1,-1,-1,-1,-1,-1,-1,-1,-1],"split_conditions":[6.0792077E-1,5.411346E-1,5.749423E-1,2.2960577E-2,7.178139E-1,4.76268E-1,2.8E-1,2.163069E-2,4.9E-1,1E0,8.793836E-1,8.3706164E-1,1E0,1.3551386E-2,-4.403597E-2,2.3069E-2,4.275601E-1,5.704713E-1,4.9E-1,2.126841E-2,6.690921E-1,7.339323E-1,1.8568348E-2,2.1685412E-2,-4.6725232E-2,2.5506872E-1,6.919839E-1,8.8071775E-1,-5.8940727E-2,1.9971073E-2,9.3333334E-1,6.3732326E-1,9.89507E-1,-6.821397E-3,2.1176169E-2,1.5853964E-2,-3.041367E-2,1.888222E-2,-6.080962E-3,-8.626404E-3,-5.0775122E-2,1.9374426E-2,-4.6741117E-2,-5.639197E-2,-1.3563584E-2],"split_indices":[0,0,1,0,1,1,6,0,6,0,0,0,5,0,0,0,1,1,6,0,1,0,0,0,0,5,3,3,0,0,4,1,5,0,0,0,0,0,0,0,0,0,0,0,0],"split_type":[0,0,0,0,0,0,0,0,0,0,0,0,0,0,0,0,0,0,0,0,0,0,0,0,0,0,0,0,0,0,0,0,0,0,0,0,0,0,0,0,0,0,0,0,0],"sum_hessian":[7.103504E2,3.193338E2,3.9101663E2,3.0364328E2,1.5690516E1,1.8166109E2,2.0935555E2,1.1734073E1,3.9564443E0,1.378849E2,4.37762E1,2.3330862E1,1.8602469E2,1.218021E0,2.7384233E0,1.2275377E2,1.5131126E1,2.620135E1,1.7574848E1,8.464084E0,1.4866778E1,1.820001E2,4.0245757E0,1.3023102E1,2.1080246E0,2.2730621E1,3.4707274E0,4.881309E0,1.2693541E1,5.45186E0,9.414918E0,2.9782032E1,1.5221808E2,1.0760938E0,2.1654528E1,1.9255314E0,1.545196E0,3.7613544E0,1.1199543E0,1.9703236E0,7.4445944E0,3.4702E0,2.6311832E1,1.5063127E2,1.5868078E0],"tree_param":{"num_deleted":"0","num_feature":"10","num_nodes":"45","size_leaf_vector":"1"}},{"base_weights":[5.7072745E-4,-2.1909883E-2,4.0332824E-1,-4.549008E-1,8.920803E-1,-5.199653E-1,6.1459556E-2,9.775709E-1,3.0602422E-1,-2.1933367E-2,-2.1896704E-1,-1.9929685E-2,4.8774246E-2,3.147999E-1,1.0549499E0,1.3598015E0,-1.233373E-1,-1.9551808E-2,5.4165673E-1,-4.0791106E-1,9.604221E-1,4.387097E-1,1.1134332E0,1.8489467E-2,5.958771E-2,1.1062139E0,-2.2400279E-2,4.6241015E-2,-1.2210105E-2,-1.9921886E-2,4.0019657E-3,-1.771146E-2,7.1430236E-2,-1.682557E-2,7.068143E-2,4.8276752E-2,1.800738E-2,5.4721713E-2,1.3223729E-2],"categories":[],"categories_nodes":[],"categories_segments":[],"categories_sizes":[],"default_left":[0,0,0,0,0,0,0,0,0,0,0,0,0,0,0,0,0,0,0,0,0,0,0,0,0,0,0,0,0,0,0,0,0,0,0,0,0,0,0],"id":29,"left_children":[1,-1,3,5,7,9,11,13,15,-1,17,-1,-1,19,21,23,25,-1,27,29,31,33,35,-1,-1,37,-1,-1,-1,-1,-1,-1,-1,-1,-1,-1,-1,-1,-1],"loss_changes":[1.1886781E2,0E0,1.3057147E2,3.8371372E0,9.623871E0,7.3973846E-1,9.401119E0,8.508682E0,1.2234137E1,0E0,2.3864157E0,0E0,0E0,9.46593E0,5.0594788E0,2.2121143E-1,1.1285312E1,0E0,2.0081477E0,5.020906E-1,1.3031601E1,1.7858067E1,8.133881E0,0E0,0E0,6.732497E-1,0E0,0E0,0E0,0E0,0E0,0E0,0E0,0E0,0E0,0E0,0E0,0E0,0E0],"parents":[2147483647,0,0,2,2,3,3,4,4,5,5,6,6,7,7,8,8,10,10,13,13,14,14,15,15,16,16,18,18,19,19,20,20,21,21,22,22,25,25],"right_children":[2,-1,4,6,8,10,12,14,16,-1,18,-1,-1,20,22,24,26,-1,28,30,32,34,36,-1,-1,38,-1,-1,-1,-1,-1,-1,-1,-1,-1,-1,-1,-1,-1],"split_conditions":[5.653856E-1,-2.1909883E-2,5.086584E-1,1E0,8.3753705E-1,4.782056E-1,4.275601E-1,2.8E-1,7.339323E-1,-2.1933367E-2,8.7198734E-1,-1.9929685E-2,4.8774246E-2,8.7198734E-1,5.5838215E-1,4.9E-1,4.9E-1,-1.9551808E-2,4.8789105E-1,7.823926E-1,6.690921E-1,8.5675687E-1,9.75E-1,1.8489467E-2,5.958771E-2,8.503964E-1,-2.2400279E-2,4.6241015E-2,-1.2210105E-2,-1.9921886E-2,4.0019657E-3,-1.771146E-2,7.1430236E-2,-1.682557E-2,7.068143E-2,4.8276752E-2,1.800738E-2,5.4721713E-2,1.3223729E-2],"split_indices":[0,0,1,0,1,1,1,6,0,0,0,0,0,0,1,6,6,0,1,1,1,0,0,0,0,0,0,0,0,0,0,0,0,0,0,0,0,0,0],"split_type":[0,0,0,0,0,0,0,0,0,0,0,0,0,0,0,0,0,0,0,0,0,0,0,0,0,0,0,0,0,0,0,0,0,0,0,0,0,0,0],"sum_hessian":[5.362549E2,2.2693857E2,3.0931628E2,1.12260544E2,1.9705574E2,9.96918E1,1.2568741E1,1.7138675E2,2.566899E1,9.035425E1,9.337556E0,8.85711E0,3.7116308E0,1.8447487E1,1.5293927E2,6.803703E0,1.8865286E1,7.156273E0,2.181283E0,8.877822E0,9.569665E0,1.3993293E1,1.3894597E2,1.4364302E0,5.3672724E0,4.5422273E0,1.4323059E1,1.0526627E0,1.1286204E0,7.556465E0,1.3213573E0,3.715754E0,5.853911E0,8.911444E0,5.081849E0,1.210624E2,1.7883572E1,2.8248343E0,1.7173929E0],"tree_param":{"num_deleted":"0","num_feature":"10","num_nodes":"39","size_leaf_vector":"1"}},{"base_weights":[1.854162E-2,-4.868535E-1,9.003474E-1,-2.0455768E-2,-4.574578E-2,-4.5569068E-1,1.8090614E0,-1.837655E-2,5.1312506E-2,-2.0304281E-2,1.8070711E-1,8.943133E-1,2.0085707E0,2.7857048E-2,-1.2815427E-2,-1.8312784E-2,2.259128E0,1.2642545E0,8.7339126E-2,9.899703E-2,2.705094E-2,-6.0969617E-2,8.4474966E-2,-1.6204162E-2,1.9608509E-2],"categories":[],"categories_nodes":[],"categories_segments":[],"categories_sizes":[],"default_left":[0,0,0,0,0,0,0,0,0,0,0,0,0,0,0,0,0,0,0,0,0,0,0,0,0],"id":30,"left_children":[1,3,5,-1,7,9,11,-1,-1,-1,13,15,17,-1,-1,-1,19,21,-1,-1,-1,23,-1,-1,-1],"loss_changes":[1.092768E2,1.6641502E0,1.1089691E2,0E0,5.7082E0,1.3023052E0,8.00145E0,0E0,0E0,0E0,1.1278836E0,2.2099962E1,2.8728333E0,0E0,0E0,0E0,3.243065E-1,1.2045506E1,0E0,0E0,0E0,1.1679342E0,0E0,0E0,0E0],"parents":[2147483647,0,0,1,1,2,2,4,4,5,5,6,6,10,10,11,11,12,12,16,16,17,17,21,21],"right_children":[2,4,6,-1,8,10,12,-1,-1,-1,14,16,18,-1,-1,-1,20,22,-1,-1,-1,24,-1,-1,-1],"split_conditions":[7.008649E-1,6.7735976E-1,7.446008E-1,-2.0455768E-2,9.42438E-1,7.2541696E-1,7.4692684E-1,-1.837655E-2,5.1312506E-2,-2.0304281E-2,7.339323E-1,9.2152494E-1,8.040697E-1,2.7857048E-2,-1.2815427E-2,-1.8312784E-2,3.4E-1,8.174336E-1,8.7339126E-2,9.899703E-2,2.705094E-2,7.9857E-1,8.4474966E-2,-1.6204162E-2,1.9608509E-2],"split_indices":[1,1,0,0,0,0,1,0,0,0,0,0,0,0,0,0,7,1,0,0,0,1,0,0,0],"split_type":[0,0,0,0,0,0,0,0,0,0,0,0,0,0,0,0,0,0,0,0,0,0,0,0,0],"sum_hessian":[2.4321844E2,1.5489204E2,8.83264E1,1.4657796E2,8.314094E0,3.564031E1,5.2686092E1,6.8388953E0,1.4751983E0,3.3139233E1,2.501074E0,1.04151745E1,4.227092E1,1.040445E0,1.4606291E0,5.565724E0,4.849451E0,9.608826E0,3.266209E1,3.77166E0,1.0777909E0,4.1104107E0,5.4984155E0,2.693643E0,1.4167674E0],"tree_param":{"num_deleted":"0","num_feature":"10","num_nodes":"25","size_leaf_vector":"1"}},{"base_weights":[2.553579E-2,-1.8799331E-2,2.4795406E0,-1.0901759E-2,1.6989218E-1],"categories":[],"categories_nodes":[],"categories_segments":[],"categories_sizes":[],"default_left":[0,0,0,0,0],"id":31,"left_children":[1,-1,3,-1,-1],"loss_changes":[2.3073357E1,0E0,1.6657993E1,0E0,0E0],"parents":[2147483647,0,0,2,2],"right_children":[2,-1,4,-1,-1],"split_conditions":[9.75E-1,-1.8799331E-2,6.266064E-1,-1.0901759E-2,1.6989218E-1],"split_indices":[0,0,1,0,0],"split_type":[0,0,0,0,0],"sum_hessian":[1.7016363E1,1.4830277E1,2.1860855E0,1.1858147E0,1.0002707E0],"tree_param":{"num_deleted":"0","num_feature":"10","num_nodes":"5","size_leaf_vector":"1"}},{"base_weights":[2.0362516E-3,4.9513394E-1,-4.9383113E-1,2.282759E-2,7.9511456E-2,4.920387E-1,-1.0482606E0,5.488019E-1,-8.9144844E-1,5.5622846E-1,4.9858455E-2,-5.224891E-1,-1.2455869E0,2.2809062E-2,1.8351181E-1,2.0102732E-2,-5.1448587E-2,2.2903698E-2,3.264413E-1,2.1335121E-2,-9.8842716E-1,3.67944E-1,-1.0100476E0,-6.8730587E-1,-1.3249367E0,1.5126315E-2,-5.8416724E-3,-1.7076802E-2,2.062825E-2,-5.063199E-2,-1.9508151E-3,5.2038527E-1,-2.5031167E-1,-5.16997E-1,-1.2574824E0,2.1106154E-2,-1.2337606E0,-5.320094E-2,-1.772002E-2,2.2766782E-2,3.891541E-3,1.5813714E-2,-3.1380236E-2,1.4151059E-2,-4.1775182E-2,-1.6901858E-2,-5.2613128E-2,-1.7753186E-2,-5.331997E-2],"categories":[],"categories_nodes":[],"categories_segments":[],"categories_sizes":[],"default_left":[0,0,0,0,0,0,0,0,0,0,0,0,0,0,0,0,0,0,0,0,0,0,0,0,0,0,0,0,0,0,0,0,0,0,0,0,0,0,0,0,0,0,0,0,0,0,0,0,0],"id":32,"left_children":[1,3,5,-1,7,9,11,13,15,17,19,21,23,-1,25,-1,-1,-1,27,-1,29,31,33,35,37,-1,-1,-1,-1,-1,-1,39,41,43,45,-1,47,-1,-1,-1,-1,-1,-1,-1,-1,-1,-1,-1,-1],"loss_changes":[1.7266913E2,1.1073608E1,1.9297406E2,0E0,2.5836834E1,3.58889E0,2.2763565E1,1.9370174E-1,1.083094E1,2.3110199E-1,9.18765E0,2.785671E1,6.326782E0,0E0,2.8528887E-1,0E0,0E0,0E0,1.6056116E0,0E0,1.4581728E0,2.3104937E0,4.3733253E0,1.5528783E1,4.7668457E-2,0E0,0E0,0E0,0E0,0E0,0E0,3.3436346E-1,2.1211934E0,7.467987E0,7.346802E-1,0E0,6.435509E-1,0E0,0E0,0E0,0E0,0E0,0E0,0E0,0E0,0E0,0E0,0E0,0E0],"parents":[2147483647,0,0,1,1,2,2,4,4,5,5,6,6,7,7,8,8,9,9,10,10,11,11,12,12,14,14,18,18,20,20,21,21,22,22,23,23,24,24,31,31,32,32,33,33,34,34,36,36],"right_children":[2,4,6,-1,8,10,12,14,16,18,20,22,24,-1,26,-1,-1,-1,28,-1,30,32,34,36,38,-1,-1,-1,-1,-1,-1,40,42,44,46,-1,48,-1,-1,-1,-1,-1,-1,-1,-1,-1,-1,-1,-1],"split_conditions":[6.9330037E-1,5.411346E-1,5.086584E-1,2.282759E-2,7.087101E-1,1E0,4.9E-1,6.7412806E-1,4.9E-1,4.782056E-1,4.131527E-1,6.525414E-1,5.749423E-1,2.2809062E-2,6.369217E-1,2.0102732E-2,-5.1448587E-2,2.2903698E-2,4.8159721E-1,2.1335121E-2,1E0,8.8071775E-1,8.3706164E-1,8.2613105E-1,9.824856E-1,1.5126315E-2,-5.8416724E-3,-1.7076802E-2,2.062825E-2,-5.063199E-2,-1.9508151E-3,1E0,2.8E-1,2.8E-1,3.2103556E-1,2.1106154E-2,5.1234883E-1,-5.320094E-2,-1.772002E-2,2.2766782E-2,3.891541E-3,1.5813714E-2,-3.1380236E-2,1.4151059E-2,-4.1775182E-2,-1.6901858E-2,-5.2613128E-2,-1.7753186E-2,-5.331997E-2],"split_indices":[0,0,1,0,1,0,6,1,6,1,1,1,1,0,0,0,0,0,1,0,4,3,0,0,5,0,0,0,0,0,0,0,6,6,5,0,1,0,0,0,0,0,0,0,0,0,0,0,0],"split_type":[0,0,0,0,0,0,0,0,0,0,0,0,0,0,0,0,0,0,0,0,0,0,0,0,0,0,0,0,0,0,0,0,0,0,0,0,0,0,0,0,0,0,0,0,0,0,0,0,0],"sum_hessian":[7.0418134E2,3.5307745E2,3.5110385E2,2.984494E2,5.4628067E1,1.2642003E2,2.246838E2,3.7121197E1,1.7506866E1,1.1016923E2,1.6250803E1,6.2309498E1,1.6237431E2,3.453468E1,2.5865192E0,3.8033228E0,1.3703545E1,1.0145259E2,8.71664E0,1.1419255E1,4.8315473E0,2.2133036E1,4.017646E1,2.1408983E1,1.4096533E2,1.5333707E0,1.0531485E0,1.498048E0,7.218592E0,3.4624085E0,1.3691385E0,1.7882185E1,4.2508507E0,1.4457391E1,2.571907E1,6.6525173E0,1.4756465E1,1.3965178E2,1.3135548E0,1.5723925E1,2.1582608E0,2.0423224E0,2.2085285E0,5.577477E0,8.879914E0,2.2044964E0,2.3514574E1,2.2577026E0,1.2498763E1],"tree_param":{"num_deleted":"0","num_feature":"10","num_nodes":"49","size_leaf_vector":"1"}},{"base_weights":[8.545354E-3,-2.1810722E-2,3.6526445E-1,-4.6493733E-1,8.2391053E-1,-5.2847755E-1,7.6587774E-2,9.2819655E-1,4.8173496E-1,-2.1497337E-2,-1.0496913E-1,-1.9793654E-2,1.2445294E0,-9.645059E-2,1.0125768E0,1.5060111E0,2.1441117E-2,8.597151E-3,-1.3034808E-2,5.8465473E-2,1.8199218E-2,-2.0829467E-2,9.1912854E-1,1.2427993E0,6.9203377E-1,6.702818E-2,6.65392E-1,-5.348823E-1,7.183962E-1,5.9219776E-3,4.6030115E-2,5.3651914E-2,1.8797632E-2,-3.514487E-3,3.677023E-2,-1.2616251E-2,4.5312464E-2,4.664767E-3,-2.3218924E-2,5.281943E-2,-1.49649065E-2],"categories":[],"categories_nodes":[],"categories_segments":[],"categories_sizes":[],"default_left":[0,0,0,0,0,0,0,0,0,0,0,0,0,0,0,0,0,0,0,0,0,0,0,0,0,0,0,0,0,0,0,0,0,0,0,0,0,0,0,0,0],"id":33,"left_children":[1,-1,3,5,7,9,11,13,15,-1,17,-1,19,21,23,25,27,-1,-1,-1,-1,-1,29,31,33,-1,35,37,39,-1,-1,-1,-1,-1,-1,-1,-1,-1,-1,-1,-1],"loss_changes":[1.0668978E2,0E0,1.2545024E2,4.084318E0,7.1156006E0,3.4300995E-1,9.435533E0,1.40481415E1,2.4287737E1,0E0,3.1196705E-1,0E0,1.279583E-1,6.1619167E0,1.0147583E1,1.1643944E0,1.4576997E1,0E0,0E0,0E0,0E0,0E0,5.883651E-1,5.882614E0,1.1529755E1,0E0,2.348082E0,6.89343E-1,1.1462947E1,0E0,0E0,0E0,0E0,0E0,0E0,0E0,0E0,0E0,0E0,0E0,0E0],"parents":[2147483647,0,0,2,2,3,3,4,4,5,5,6,6,7,7,8,8,10,10,12,12,13,13,14,14,15,15,16,16,22,22,23,23,24,24,26,26,27,27,28,28],"right_children":[2,-1,4,6,8,10,12,14,16,-1,18,-1,20,22,24,26,28,-1,-1,-1,-1,-1,30,32,34,-1,36,38,40,-1,-1,-1,-1,-1,-1,-1,-1,-1,-1,-1,-1],"split_conditions":[5.411346E-1,-2.1810722E-2,5.086584E-1,1E0,7.9857E-1,9.956583E-1,4.275601E-1,6.5960366E-1,7.446008E-1,-2.1497337E-2,5.259114E-1,-1.9793654E-2,1E0,7.211236E-1,8.95E-1,3.4E-1,8.95E-1,8.597151E-3,-1.3034808E-2,5.8465473E-2,1.8199218E-2,-2.0829467E-2,6.0235316E-1,9.763992E-1,6.0155654E-1,6.702818E-2,8.933333E-1,8.138833E-1,8.933333E-1,5.9219776E-3,4.6030115E-2,5.3651914E-2,1.8797632E-2,-3.514487E-3,3.677023E-2,-1.2616251E-2,4.5312464E-2,4.664767E-3,-2.3218924E-2,5.281943E-2,-1.49649065E-2],"split_indices":[0,0,1,0,1,2,1,0,0,0,3,0,4,1,8,7,8,0,0,0,0,0,0,0,1,0,7,2,7,0,0,0,0,0,0,0,0,0,0,0,0],"split_type":[0,0,0,0,0,0,0,0,0,0,0,0,0,0,0,0,0,0,0,0,0,0,0,0,0,0,0,0,0,0,0,0,0,0,0,0,0,0,0,0,0],"sum_hessian":[5.380406E2,2.1058095E2,3.2745963E2,1.1652407E2,2.1093558E2,1.0430899E2,1.2215078E1,1.6035193E2,5.0583633E1,1.0188544E2,2.4235535E0,8.589082E0,3.625996E0,1.2189473E1,1.4816246E2,1.4979165E1,3.560447E1,1.0009965E0,1.4225571E0,2.1763263E0,1.4496697E0,8.941265E0,3.2482083E0,8.455537E1,6.3607094E1,1.1636683E1,3.3424814E0,1.9929161E1,1.5675308E1,1.128986E0,2.1192224E0,7.434483E1,1.0210535E1,1.4489156E1,4.911794E1,1.1837686E0,2.1587129E0,1.2015033E0,1.8727657E1,9.971391E0,5.703918E0],"tree_param":{"num_deleted":"0","num_feature":"10","num_nodes":"41","size_leaf_vector":"1"}},{"base_weights":[1.7457211E-2,-4.7171158E-1,8.266874E-1,-5.1040155E-1,1.514078E-1,-4.8007292E-1,1.606452E0,-2.0687278E-2,-2.658923E-1,-1.826102E-2,7.111295E-2,-2.0276975E-2,1.9806358E-3,2.4942897E-1,1.9236343E0,9.010417E-3,-1.6648902E-2,-1.7910396E-1,5.8912158E-2,1.2282338E0,2.1171978E0,-1.8726693E-2,2.3655081E-2,-1.7420381E-2,1.9917539E0,9.3507774E-2,1.0877299E0,3.3076573E-2,9.072591E-2,7.802948E-2,-8.441645E-3],"categories":[],"categories_nodes":[],"categories_segments":[],"categories_sizes":[],"default_left":[0,0,0,0,0,0,0,0,0,0,0,0,0,0,0,0,0,0,0,0,0,0,0,0,0,0,0,0,0,0,0],"id":34,"left_children":[1,3,5,7,9,11,13,-1,15,-1,-1,-1,-1,17,19,-1,-1,21,-1,23,25,-1,-1,-1,27,-1,29,-1,-1,-1,-1],"loss_changes":[9.534325E1,3.6968613E0,9.322649E1,9.722519E-2,1.0252611E1,5.182409E-1,2.4078339E1,0E0,5.278026E-1,0E0,0E0,0E0,0E0,6.5330215E0,3.604477E0,0E0,0E0,2.4478545E0,0E0,1.6643206E1,5.329056E0,0E0,0E0,0E0,9.2282104E-1,0E0,9.364548E0,0E0,0E0,0E0,0E0],"parents":[2147483647,0,0,1,1,2,2,3,3,4,4,5,5,6,6,8,8,13,13,14,14,17,17,19,19,20,20,24,24,26,26],"right_children":[2,4,6,8,10,12,14,-1,16,-1,-1,-1,-1,18,20,-1,-1,22,-1,24,26,-1,-1,-1,28,-1,30,-1,-1,-1,-1],"split_conditions":[7.008649E-1,1E0,7.3824453E-1,9.75E-1,6.4650047E-1,7.2541696E-1,4.9E-1,-2.0687278E-2,4.4989756E-1,-1.826102E-2,7.111295E-2,-2.0276975E-2,1.9806358E-3,1E0,8.174996E-1,9.010417E-3,-1.6648902E-2,8.436741E-1,5.8912158E-2,7.924941E-1,8.5353196E-1,-1.8726693E-2,2.3655081E-2,-1.7420381E-2,8.117848E-1,9.3507774E-2,9.252088E-1,3.3076573E-2,9.072591E-2,7.802948E-2,-8.441645E-3],"split_indices":[1,0,0,0,1,0,6,0,3,0,0,0,0,0,0,0,0,1,0,1,1,0,0,0,1,0,0,0,0,0,0],"split_type":[0,0,0,0,0,0,0,0,0,0,0,0,0,0,0,0,0,0,0,0,0,0,0,0,0,0,0,0,0,0,0],"sum_hessian":[2.3887183E2,1.4913737E2,8.973446E1,1.4058899E2,8.548386E0,3.36787E1,5.6055756E1,1.3571043E2,4.878558E0,6.74609E0,1.8022954E0,3.209424E1,1.5844622E0,1.0958338E1,4.509742E1,1.026473E0,3.8520854E0,8.74772E0,2.210618E0,1.1418923E1,3.3678497E1,6.6465034E0,2.101216E0,3.7270732E0,7.69185E0,2.6690922E1,6.9875736E0,2.240643E0,5.4512076E0,3.8964648E0,3.091109E0],"tree_param":{"num_deleted":"0","num_feature":"10","num_nodes":"31","size_leaf_vector":"1"}},{"base_weights":[3.1319164E-2,-1.8799264E-2,1.0730769E-1],"categories":[],"categories_nodes":[],"categories_segments":[],"categories_sizes":[],"default_left":[0,0,0],"id":35,"left_children":[1,-1,-1],"loss_changes":[2.4944796E1,0E0,0E0],"parents":[2147483647,0,0],"right_children":[2,-1,-1],"split_conditions":[8.5353196E-1,-1.8799264E-2,1.0730769E-1],"split_indices":[1,0,0],"split_type":[0,0,0],"sum_hessian":[1.6819088E1,1.4836635E1,1.9824538E0],"tree_param":{"num_deleted":"0","num_feature":"10","num_nodes":"3","size_leaf_vector":"1"}},{"base_weights":[-3.0220589E-3,4.6895814E-1,-5.0430626E-1,5.593362E-1,2.0380782E-1,2.257967E-2,-1.0205243E0,2.278026E-2,4.380608E-1,2.2203736E-2,-2.4138844E-2,-2.3026763E-1,-1.1280415E0,5.0849736E-1,-2.0257457E-1,4.8547214E-1,-2.0413075E-1,5.4351836E-2,-9.583954E-1,-1.1519927E0,1.6988281E-2,2.1778518E-2,2.2423665E-1,-2.6148409E-2,1.24712335E-2,2.1636447E-2,1.5902418E-1,-4.1409287E-1,3.5104986E-2,2.0275772E-2,-1.7263588E-1,-4.2675536E-2,-1.282471E-2,-8.4952515E-1,-1.2056638E0,1.5603908E-2,-3.3532241E-3,-6.3463347E-3,1.4405223E-2,-1.1989386E-2,-4.0783063E-2,9.1247745E-3,-2.3998018E-2,8.158526E-3,-1.5113364E-2,-4.3829365E-4,-4.111178E-2,-2.4265805E-2,-4.854021E-2],"categories":[],"categories_nodes":[],"categories_segments":[],"categories_sizes":[],"default_left":[0,0,0,0,0,0,0,0,0,0,0,0,0,0,0,0,0,0,0,0,0,0,0,0,0,0,0,0,0,0,0,0,0,0,0,0,0,0,0,0,0,0,0,0,0,0,0,0,0],"id":36,"left_children":[1,3,5,7,9,-1,11,-1,13,-1,15,17,19,21,23,25,27,29,31,33,-1,-1,35,-1,-1,-1,37,39,41,-1,43,-1,-1,45,47,-1,-1,-1,-1,-1,-1,-1,-1,-1,-1,-1,-1,-1,-1],"loss_changes":[1.6511192E2,8.499573E0,1.8729515E2,8.0451965E-2,7.4559875E0,0E0,1.916008E1,0E0,1.2324462E0,0E0,5.35747E0,5.985088E0,7.961899E0,1.11368656E-1,9.450705E-1,1.9013548E-1,2.1778712E0,2.2990344E0,2.1836996E-1,2.1924438E0,0E0,0E0,2.506243E-1,0E0,0E0,0E0,2.8915092E-1,1.2880442E0,2.7173793E0,0E0,1.242694E0,0E0,0E0,4.95883E0,4.309082E-2,0E0,0E0,0E0,0E0,0E0,0E0,0E0,0E0,0E0,0E0,0E0,0E0,0E0,0E0],"parents":[2147483647,0,0,1,1,2,2,3,3,4,4,6,6,8,8,10,10,11,11,12,12,13,13,14,14,15,15,16,16,17,17,18,18,19,19,22,22,26,26,27,27,28,28,30,30,33,33,34,34],"right_children":[2,4,6,8,10,-1,12,-1,14,-1,16,18,20,22,24,26,28,30,32,34,-1,-1,36,-1,-1,-1,38,40,42,-1,44,-1,-1,46,48,-1,-1,-1,-1,-1,-1,-1,-1,-1,-1,-1,-1,-1,-1],"split_conditions":[5.8395475E-1,4.76268E-1,8.666667E-1,4.4576037E-1,8.034432E-1,2.257967E-2,2.8E-1,2.278026E-2,9.5518756E-1,2.2203736E-2,4.9E-1,8.117848E-1,1E0,9.9297965E-1,4.5357564E-1,9.0195686E-1,6.7364836E-1,6.714546E-1,7.7247363E-1,6.4650047E-1,1.6988281E-2,2.1778518E-2,6.3314986E-1,-2.6148409E-2,1.24712335E-2,2.1636447E-2,6.103652E-1,5.749423E-1,1E0,2.0275772E-2,9.3333334E-1,-4.2675536E-2,-1.282471E-2,4.9E-1,1.1553174E-1,1.5603908E-2,-3.3532241E-3,-6.3463347E-3,1.4405223E-2,-1.1989386E-2,-4.0783063E-2,9.1247745E-3,-2.3998018E-2,8.158526E-3,-1.5113364E-2,-4.3829365E-4,-4.111178E-2,-2.4265805E-2,-4.854021E-2],"split_indices":[1,1,4,1,2,0,6,0,2,0,6,1,5,3,1,3,5,1,5,1,0,0,5,0,0,0,5,1,4,0,4,0,0,6,5,0,0,0,0,0,0,0,0,0,0,0,0,0,0],"split_type":[0,0,0,0,0,0,0,0,0,0,0,0,0,0,0,0,0,0,0,0,0,0,0,0,0,0,0,0,0,0,0,0,0,0,0,0,0,0,0,0,0,0,0,0,0,0,0,0,0],"sum_hessian":[6.9586414E2,3.5844116E2,3.37423E2,2.664952E2,9.194594E1,1.0986359E2,2.275594E2,2.4246567E2,2.4029556E1,3.561891E1,5.6327023E1,2.7628723E1,1.9993068E2,2.1835093E1,2.1944635E0,1.4258827E1,4.2068195E1,2.0529324E1,7.0993986E0,1.9714777E2,2.7829227E0,1.8570168E1,3.264925E0,1.024742E0,1.1697214E0,1.1627265E1,2.631562E0,2.2015596E1,2.00526E1,6.4456267E0,1.4083697E1,5.4922795E0,1.6071191E0,3.224679E1,1.6490097E2,1.9492104E0,1.3157146E0,1.1019354E0,1.5296265E0,1.9775597E1,2.24E0,1.5869977E1,4.1826234E0,4.969402E0,9.114295E0,5.8395185E0,2.6407272E1,3.1433203E0,1.6175764E2],"tree_param":{"num_deleted":"0","num_feature":"10","num_nodes":"49","size_leaf_vector":"1"}},{"base_weights":[3.76309E-3,-5.389115E-1,3.6485672E-1,-2.1733576E-2,-1.5614605E-1,4.4970596E-1,1.3743703E-1,8.388638E-3,-1.4433146E-2,1.94158E-2,4.6794617E-1,-1.7698616E-1,3.494368E-1,-1.7752724E-2,2.581573E-1,-2.2203177E-1,4.7877958E-1,-2.9700515E-1,1.7901523E-1,1.6183014E-1,6.13398E-1,2.24561E-2,4.6029016E-2,-1.5912293E-2,4.25112E-3,6.83471E-1,4.2452088E-1,-2.0983802E-2,-5.9922885E-2,-1.5468858E-2,3.8069832E-1,1.1558833E-2,5.339205E-1,-1.3492621E-1,7.1630764E-1,2.4595706E-2,-9.110376E-3,3.1369872E-2,4.468043E-3,9.8796785E-3,2.0014137E-2,-1.3518045E-2,7.307784E-3,2.8743226E-2,-6.294733E-4,1.4162247E-2,-7.173209E-3,-1.0345924E-3,3.5901222E-2,6.9153234E-3,-1.350915E-2,3.8310897E-2,2.0049741E-2],"categories":[],"categories_nodes":[],"categories_segments":[],"categories_sizes":[],"default_left":[0,0,0,0,0,0,0,0,0,0,0,0,0,0,0,0,0,0,0,0,0,0,0,0,0,0,0,0,0,0,0,0,0,0,0,0,0,0,0,0,0,0,0,0,0,0,0,0,0,0,0,0,0],"id":37,"left_children":[1,3,5,-1,7,9,11,-1,-1,13,15,17,19,-1,21,23,25,27,29,31,33,-1,35,-1,-1,37,39,-1,41,-1,43,45,47,49,51,-1,-1,-1,-1,-1,-1,-1,-1,-1,-1,-1,-1,-1,-1,-1,-1,-1,-1],"loss_changes":[1.0385162E2,2.7404022E-1,6.0786934E0,0E0,3.6209613E-1,1.8064079E0,5.9214835E0,0E0,0E0,1.2702789E0,1.7646904E0,1.5941267E0,2.517476E0,0E0,4.5842707E-1,2.7962458E-1,2.1393661E0,1.4442065E0,1.2559369E0,1.7968683E0,1.7596607E0,0E0,9.9960935E-1,0E0,0E0,2.459011E0,2.2398167E0,0E0,1.0414327E0,0E0,1.0383286E0,1.6320636E0,1.9068887E0,2.73889E-1,5.1400757E-1,0E0,0E0,0E0,0E0,0E0,0E0,0E0,0E0,0E0,0E0,0E0,0E0,0E0,0E0,0E0,0E0,0E0,0E0],"parents":[2147483647,0,0,1,1,2,2,4,4,5,5,6,6,9,9,10,10,11,11,12,12,14,14,15,15,16,16,17,17,18,18,19,19,20,20,22,22,25,25,26,26,28,28,30,30,31,31,32,32,33,33,34,34],"right_children":[2,4,6,-1,8,10,12,-1,-1,14,16,18,20,-1,22,24,26,28,30,32,34,-1,36,-1,-1,38,40,-1,42,-1,44,46,48,50,52,-1,-1,-1,-1,-1,-1,-1,-1,-1,-1,-1,-1,-1,-1,-1,-1,-1,-1],"split_conditions":[5.653856E-1,9E-1,3.4E-1,-2.1733576E-2,8.537283E-1,8.0723995E-1,8.4911174E-1,8.388638E-3,-1.4433146E-2,4.9E-1,3.14258E-1,9.6589124E-1,8.031492E-1,-1.7752724E-2,9E-1,7E-1,5.127513E-1,7.845103E-1,6E-1,9.763992E-1,8.21298E-1,2.24561E-2,5E-1,-1.5912293E-2,4.25112E-3,9.612562E-1,7.3089486E-1,-2.0983802E-2,2.8E-1,-1.5468858E-2,9.784473E-1,4.6627712E-1,8.8009024E-1,8.6532855E-1,9.5680267E-1,2.4595706E-2,-9.110376E-3,3.1369872E-2,4.468043E-3,9.8796785E-3,2.0014137E-2,-1.3518045E-2,7.307784E-3,2.8743226E-2,-6.294733E-4,1.4162247E-2,-7.173209E-3,-1.0345924E-3,3.5901222E-2,6.9153234E-3,-1.350915E-2,3.8310897E-2,2.0049741E-2],"split_indices":[0,9,7,0,2,2,0,0,0,6,3,2,3,0,4,9,3,3,9,0,2,0,9,0,0,2,3,0,6,0,2,3,2,0,3,0,0,0,0,0,0,0,0,0,0,0,0,0,0,0,0,0,0],"split_type":[0,0,0,0,0,0,0,0,0,0,0,0,0,0,0,0,0,0,0,0,0,0,0,0,0,0,0,0,0,0,0,0,0,0,0,0,0,0,0,0,0,0,0,0,0,0,0,0,0,0,0,0,0],"sum_hessian":[5.2796985E2,2.1074951E2,3.172203E2,2.0792468E2,2.8248293E0,2.3031384E2,8.690647E1,1.0045842E0,1.8202451E0,9.450048E0,2.208638E2,3.5065273E1,5.1841198E1,2.921815E0,6.5282335E0,3.112827E0,2.1775096E2,2.6348204E1,8.717068E0,3.124637E1,2.0594826E1,2.0093174E0,4.518916E0,1.8895097E0,1.2233174E0,4.3196217E1,1.7455475E2,1.2824478E1,1.3523726E1,2.0497866E0,6.667281E0,2.2991968E1,8.254403E0,2.452192E0,1.8142633E1,1.0634551E0,3.455461E0,3.6407665E1,6.7885513E0,5.351941E1,1.2103534E2,6.118861E0,7.404865E0,3.160757E0,3.506524E0,7.922489E0,1.5069479E1,3.6161423E0,4.638261E0,1.032546E0,1.419646E0,6.919871E0,1.1222763E1],"tree_param":{"num_deleted":"0","num_feature":"10","num_nodes":"53","size_leaf_vector":"1"}},{"base_weights":[-4.4185007E-3,-4.8373193E-1,7.6410526E-1,-5.0959945E-1,-8.62807E-2,-4.4947198E-1,1.4570553E0,-2.0661188E-2,-2.7248457E-1,-1.8515855E-2,4.615849E-2,-2.0195402E-2,1.4106137E-1,2.0936355E-1,1.7182535E0,7.92207E-3,-1.6731143E-2,-1.3396895E-2,2.6403403E-2,-3.547207E-1,1.348226E0,1.0388874E0,1.8767258E0,-1.8453073E-2,5.1232283E-3,6.079853E-3,7.234868E-2,-1.716764E-2,7.012107E-2,1.983779E0,7.3903346E-1,5.9736602E-2,8.930882E-2,6.052128E-2,-1.5601143E-2],"categories":[],"categories_nodes":[],"categories_segments":[],"categories_sizes":[],"default_left":[0,0,0,0,0,0,0,0,0,0,0,0,0,0,0,0,0,0,0,0,0,0,0,0,0,0,0,0,0,0,0,0,0,0,0],"id":38,"left_children":[1,3,5,7,9,11,13,-1,15,-1,-1,-1,17,19,21,-1,-1,-1,-1,23,25,27,29,-1,-1,-1,-1,-1,-1,31,33,-1,-1,-1,-1],"loss_changes":[8.766254E1,1.4628448E0,7.752878E1,8.503723E-2,5.2796993E0,1.1834688E0,1.8680267E1,0E0,4.9571103E-1,0E0,0E0,0E0,1.1345185E0,7.706864E0,3.2364807E0,0E0,0E0,0E0,0E0,4.871477E-1,1.8929648E0,1.2653262E1,3.1401672E0,0E0,0E0,0E0,0E0,0E0,0E0,8.1288147E-1,4.825371E0,0E0,0E0,0E0,0E0],"parents":[2147483647,0,0,1,1,2,2,3,3,4,4,5,5,6,6,8,8,12,12,13,13,14,14,19,19,20,20,21,21,22,22,29,29,30,30],"right_children":[2,4,6,8,10,12,14,-1,16,-1,-1,-1,18,20,22,-1,-1,-1,-1,24,26,28,30,-1,-1,-1,-1,-1,-1,32,34,-1,-1,-1,-1],"split_conditions":[7.008649E-1,1E0,7.446008E-1,9.75E-1,6.4650047E-1,7.2541696E-1,4.9E-1,-2.0661188E-2,4.4989756E-1,-1.8515855E-2,4.615849E-2,-2.0195402E-2,9.6666664E-1,9.7007555E-1,8.145081E-1,7.92207E-3,-1.6731143E-2,-1.3396895E-2,2.6403403E-2,8.504375E-1,2.8E-1,7.8590995E-1,8.7140054E-1,-1.8453073E-2,5.1232283E-3,6.079853E-3,7.234868E-2,-1.716764E-2,7.012107E-2,8.6532855E-1,9.5385087E-1,5.9736602E-2,8.930882E-2,6.052128E-2,-1.5601143E-2],"split_indices":[1,0,0,0,1,0,6,0,3,0,0,0,4,0,0,0,0,0,0,1,6,1,1,0,0,0,0,0,0,0,0,0,0,0,0],"split_type":[0,0,0,0,0,0,0,0,0,0,0,0,0,0,0,0,0,0,0,0,0,0,0,0,0,0,0,0,0,0,0,0,0,0,0],"sum_hessian":[2.3597476E2,1.4556146E2,9.04133E1,1.3640178E2,9.1596775E0,3.2989502E1,5.74238E1,1.3138339E2,5.018396E0,7.5068855E0,1.6527923E0,3.029206E1,2.6974413E0,1.0252271E1,4.717153E1,1.1023217E0,3.9160743E0,1.592086E0,1.1053554E0,7.3167686E0,2.9355016E0,1.0351332E1,3.6820198E1,6.029819E0,1.2869494E0,1.1856312E0,1.7498705E0,3.5180914E0,6.83324E0,3.2973785E1,3.8464146E0,1.3459801E1,1.9513983E1,2.0802653E0,1.7661492E0],"tree_param":{"num_deleted":"0","num_feature":"10","num_nodes":"35","size_leaf_vector":"1"}},{"base_weights":[-6.0119927E-2,-1.8754255E-2,9.062081E-2],"categories":[],"categories_nodes":[],"categories_segments":[],"categories_sizes":[],"default_left":[0,0,0],"id":39,"left_children":[1,-1,-1],"loss_changes":[1.7200306E1,0E0,0E0],"parents":[2147483647,0,0],"right_children":[2,-1,-1],"split_conditions":[9.763992E-1,-1.8754255E-2,9.062081E-2],"split_indices":[0,0,0],"split_type":[0,0,0],"sum_hessian":[1.597722E1,1.4267986E1,1.7092336E0],"tree_param":{"num_deleted":"0","num_feature":"10","num_nodes":"3","size_leaf_vector":"1"}},{"base_weights":[3.1670453E-3,4.4090912E-1,-4.964318E-1,5.5281955E-1,1.637925E-1,2.2444317E-2,-9.9094176E-1,5.631428E-1,4.2106584E-1,2.2140754E-2,-1.0780394E-1,-1.9442043E-1,-1.0947683E0,2.2682242E-2,3.4036353E-1,2.1327265E-2,1.6234586E-1,4.5750523E-1,-3.5605526E-1,4.2945424E-1,-4.961289E-1,-8.030595E-1,-1.1315103E0,1.8845567E-2,-7.116984E-3,-2.5677986E-2,3.6487627E-1,2.1829182E-2,1.6096161E-1,-1.8304E-1,-6.251521E-1,2.0803187E-2,-1.6242452E-3,1.5309016E-2,-6.084919E-1,-2.7157098E-1,-8.881387E-1,-4.8982996E-1,-4.5562163E-2,1.9274516E-2,-6.266256E-3,-1.0810788E-2,1.7649375E-2,1.2427874E-4,-1.6545547E-2,-2.6342398E-3,-2.893712E-2,-6.0563195E-3,-3.3752937E-2,7.073975E-3,-2.9809164E-2,-3.742721E-2,-2.2378524E-3,-1.7162977E-3,-2.8016541E-2],"categories":[],"categories_nodes":[],"categories_segments":[],"categories_sizes":[],"default_left":[0,0,0,0,0,0,0,0,0,0,0,0,0,0,0,0,0,0,0,0,0,0,0,0,0,0,0,0,0,0,0,0,0,0,0,0,0,0,0,0,0,0,0,0,0,0,0,0,0,0,0,0,0,0,0],"id":40,"left_children":[1,3,5,7,9,-1,11,13,15,-1,17,19,21,-1,23,-1,25,27,29,31,33,35,37,-1,-1,-1,39,-1,41,43,45,-1,-1,-1,47,49,51,53,-1,-1,-1,-1,-1,-1,-1,-1,-1,-1,-1,-1,-1,-1,-1,-1,-1],"loss_changes":[1.4911102E2,1.117942E1,1.6707611E2,1.1438751E-1,1.1275408E1,0E0,1.7759903E1,1.335907E-2,5.7310534E-1,0E0,9.043661E0,5.15922E0,1.1496735E0,0E0,5.303249E-1,0E0,1.5884386E0,4.2879486E-1,1.9589624E0,4.0883982E-1,2.0277653E0,8.860264E-1,2.558899E-1,0E0,0E0,0E0,5.1957786E-1,0E0,8.379292E-1,1.2255101E0,8.8751984E-1,0E0,0E0,0E0,1.6472535E0,1.1683508E0,7.803879E-1,3.189236E-1,0E0,0E0,0E0,0E0,0E0,0E0,0E0,0E0,0E0,0E0,0E0,0E0,0E0,0E0,0E0,0E0,0E0],"parents":[2147483647,0,0,1,1,2,2,3,3,4,4,6,6,7,7,8,8,10,10,11,11,12,12,14,14,16,16,17,17,18,18,19,19,20,20,21,21,22,22,26,26,28,28,29,29,30,30,34,34,35,35,36,36,37,37],"right_children":[2,4,6,8,10,-1,12,14,16,-1,18,20,22,-1,24,-1,26,28,30,32,34,36,38,-1,-1,-1,40,-1,42,44,46,-1,-1,-1,48,50,52,54,-1,-1,-1,-1,-1,-1,-1,-1,-1,-1,-1,-1,-1,-1,-1,-1,-1],"split_conditions":[6.0155654E-1,4.76268E-1,8.666667E-1,4.4576037E-1,3E-1,2.2444317E-2,2.8E-1,9.9242383E-1,8.303626E-1,2.2140754E-2,4.9E-1,7.087101E-1,6.4650047E-1,2.2682242E-2,3.1838E-1,2.1327265E-2,8.451577E-1,8.8071775E-1,5.5838215E-1,7.9890585E-1,8.1798124E-1,4.9E-1,1.1553174E-1,1.8845567E-2,-7.116984E-3,-2.5677986E-2,9.5518756E-1,2.1829182E-2,4.805616E-1,9.6666664E-1,5E-1,2.0803187E-2,-1.6242452E-3,1.5309016E-2,4.4126007E-1,7.612944E-1,6.432907E-1,4.9E-1,-4.5562163E-2,1.9274516E-2,-6.266256E-3,-1.0810788E-2,1.7649375E-2,1.2427874E-4,-1.6545547E-2,-2.6342398E-3,-2.893712E-2,-6.0563195E-3,-3.3752937E-2,7.073975E-3,-2.9809164E-2,-3.742721E-2,-2.2378524E-3,-1.7162977E-3,-2.8016541E-2],"split_indices":[1,1,4,1,9,0,6,2,2,0,6,1,1,0,1,0,2,3,1,5,2,6,5,0,0,0,2,0,5,4,9,0,0,0,5,3,1,6,0,0,0,0,0,0,0,0,0,0,0,0,0,0,0,0,0],"split_type":[0,0,0,0,0,0,0,0,0,0,0,0,0,0,0,0,0,0,0,0,0,0,0,0,0,0,0,0,0,0,0,0,0,0,0,0,0,0,0,0,0,0,0,0,0,0,0,0,0,0,0,0,0,0,0],"sum_hessian":[6.7981964E2,3.624037E2,3.1741595E2,2.574432E2,1.0496048E2,1.01091324E2,2.1632463E2,2.357013E2,2.1741913E1,4.2679565E1,6.2280914E1,2.527743E1,1.9104721E2,2.3011378E2,5.5875053E0,1.4428505E1,7.313407E0,1.8747305E1,4.353361E1,8.101562E0,1.7175869E1,2.3928215E1,1.6711899E2,4.5343566E0,1.0531486E0,1.0347052E0,6.278702E0,1.38010645E1,4.9462404E0,2.751993E1,1.6013681E1,6.7028694E0,1.3986925E0,1.6742743E0,1.5501595E1,3.8802617E0,2.0047953E1,2.7079976E0,1.64411E2,5.1904736E0,1.0882281E0,1.962462E0,2.9837785E0,1.5773534E1,1.1746396E1,2.6428907E0,1.3370791E1,5.8270707E0,9.674523E0,2.315124E0,1.5651375E0,1.8846909E1,1.2010438E0,1.2528412E0,1.4551563E0],"tree_param":{"num_deleted":"0","num_feature":"10","num_nodes":"55","size_leaf_vector":"1"}},{"base_weights":[-2.1947768E-2,-2.1649227E-2,3.012795E-1,-4.829946E-1,7.022283E-1,-5.241625E-1,-1.2808773E-1,7.231159E-1,-1.716612E-2,-2.1731295E-2,-2.8126305E-1,-1.9636013E-2,6.790028E-1,8.5467666E-1,5.0594693E-1,-1.9169817E-2,1.4684026E-2,-1.2437273E-2,4.4231422E-2,-5.8136992E-2,1.0732214E0,1.1215146E0,-1.5372713E-1,-1.8778885E-2,1.4064151E-2,3.5205972E-3,4.854782E-2,-8.440069E-3,4.972066E-2,3.825942E-2,-2.3147123E-2],"categories":[],"categories_nodes":[],"categories_segments":[],"categories_sizes":[],"default_left":[0,0,0,0,0,0,0,0,0,0,0,0,0,0,0,0,0,0,0,0,0,0,0,0,0,0,0,0,0,0,0],"id":41,"left_children":[1,-1,3,5,7,9,11,13,-1,-1,15,-1,17,19,21,-1,-1,-1,-1,23,25,27,29,-1,-1,-1,-1,-1,-1,-1,-1],"loss_changes":[8.693914E1,0E0,1.0074253E2,1.5196877E0,5.3129196E0,2.97657E-1,4.026381E0,5.5167007E0,0E0,0E0,1.3506292E0,0E0,2.1735492E0,2.5640823E1,3.3066193E1,0E0,0E0,0E0,0E0,4.4993706E0,1.4217438E1,7.06604E0,1.941589E1,0E0,0E0,0E0,0E0,0E0,0E0,0E0,0E0],"parents":[2147483647,0,0,2,2,3,3,4,4,5,5,6,6,7,7,10,10,12,12,13,13,14,14,19,19,20,20,21,21,22,22],"right_children":[2,-1,4,6,8,10,12,14,-1,-1,16,-1,18,20,22,-1,-1,-1,-1,24,26,28,30,-1,-1,-1,-1,-1,-1,-1,-1],"split_conditions":[5.411346E-1,-2.1649227E-2,5.086584E-1,1E0,1E0,4.782056E-1,4.0180162E-1,7.4692684E-1,-1.716612E-2,-2.1731295E-2,8.7198734E-1,-1.9636013E-2,4.9E-1,7.3824453E-1,8.145081E-1,-1.9169817E-2,1.4684026E-2,-1.2437273E-2,4.4231422E-2,6.4650047E-1,2.8E-1,2.8E-1,4.9E-1,-1.8778885E-2,1.4064151E-2,3.5205972E-3,4.854782E-2,-8.440069E-3,4.972066E-2,3.825942E-2,-2.3147123E-2],"split_indices":[0,0,1,0,5,1,1,1,0,0,0,0,6,0,0,0,0,0,0,1,6,6,6,0,0,0,0,0,0,0,0],"split_type":[0,0,0,0,0,0,0,0,0,0,0,0,0,0,0,0,0,0,0,0,0,0,0,0,0,0,0,0,0,0,0],"sum_hessian":[5.1599695E2,1.977024E2,3.1829456E2,1.07606575E2,2.1068799E2,9.5994644E1,1.1611931E1,2.0722307E2,3.4649138E0,8.784338E1,8.15126E0,8.281087E0,3.3308437E0,1.2721864E2,8.0004425E1,6.44429E0,1.7069703E0,1.0851831E0,2.2456605E0,2.471664E1,1.02502E2,4.10236E1,3.8980827E1,1.2261576E1,1.2455066E1,1.2994237E1,8.950777E1,3.3664944E0,3.7657104E1,1.0444101E1,2.8536726E1],"tree_param":{"num_deleted":"0","num_feature":"10","num_nodes":"31","size_leaf_vector":"1"}},{"base_weights":[1.3500321E-2,-3.9812157E-1,8.929479E-1,-4.9057293E-1,3.4005505E-1,-4.6161625E-1,1.5175067E0,-2.0677628E-2,-2.1195532E-1,-1.9234603E-2,1.6703087E0,-1.9997759E-2,7.7267294E-3,4.1104877E-1,1.7046908E0,-1.927817E-2,4.4069294E-2,-1.4387044E-2,9.462732E-2,-5.7641637E-2,6.250398E-2,1.8048615E0,7.89671E-1,-1.7717447E-2,2.8305134E-2,1.2263161E0,7.810622E-2,-1.728826E-1,6.33441E-2,-1.5758708E-2,6.8131246E-2,5.2338657E-3,-1.4716882E-2],"categories":[],"categories_nodes":[],"categories_segments":[],"categories_sizes":[],"default_left":[0,0,0,0,0,0,0,0,0,0,0,0,0,0,0,0,0,0,0,0,0,0,0,0,0,0,0,0,0,0,0,0,0],"id":42,"left_children":[1,3,5,7,9,11,13,-1,15,-1,17,-1,-1,19,21,-1,-1,-1,-1,23,-1,25,27,-1,-1,29,-1,31,-1,-1,-1,-1,-1],"loss_changes":[8.587799E1,1.119664E1,6.468402E1,9.486313E-1,2.109247E1,7.1479034E-1,1.0068352E1,0E0,5.549241E0,0E0,1.1174904E1,0E0,0E0,4.861964E0,2.621933E0,0E0,0E0,0E0,0E0,2.450616E0,0E0,9.418869E-1,4.9619427E0,0E0,0E0,